/*!
 * The following copyright notice may not be removed under any circumstances.
 * 
 * Copyright:
 * Copyright © 2000 Adobe Systems Incorporated. All Rights Reserved. U.S. Patent
 * Des. pending.
 * 
 * Trademark:
 * Myriad is a registered trademark of Adobe Systems Incorporated.
 * 
 * Full name:
 * MyriadPro-It
 * 
 * Designer:
 * Robert Slimbach and Carol Twombly
 * 
 * Vendor URL:
 * http://www.adobe.com/type
 * 
 * License information:
 * http://www.adobe.com/type/legal.html
 */
Cufon.registerFont({"w":492,"face":{"font-family":"Myriad Pro","font-weight":400,"font-style":"italic","font-stretch":"normal","units-per-em":"1000","panose-1":"2 11 5 3 3 4 3 9 2 4","ascent":"750","descent":"-250","x-height":"11","bbox":"-112 -827 894 250","underline-thickness":"50","underline-position":"-50","slope":"-11","stemh":"65","stemv":"88","unicode-range":"U+0020-U+0451"},"glyphs":{" ":{"w":182},"\u00a0":{"w":182},"!":{"d":"142,-194r-66,0r79,-480r94,0xm141,-55v0,37,-26,66,-64,66v-32,0,-54,-26,-54,-58v0,-37,26,-67,62,-67v34,0,56,26,56,59","w":236},"\"":{"d":"121,-692r87,0r-62,242r-55,0xm271,-692r86,0r-62,242r-55,0","w":304},"#":{"d":"193,-254r91,0r45,-147r-90,0xm114,0r-58,0r60,-197r-82,0r10,-57r91,0r46,-147r-87,0r10,-57r94,0r60,-192r58,0r-60,192r91,0r60,-192r58,0r-60,192r82,0r-10,57r-90,0r-45,147r86,0r-10,57r-95,0r-60,197r-59,0r61,-197r-90,0"},"$":{"d":"211,85r-61,0r19,-100v-48,-2,-104,-23,-131,-44r27,-65v33,23,76,43,134,43v72,0,130,-44,130,-111v0,-44,-21,-79,-84,-112v-83,-43,-129,-92,-129,-160v0,-89,74,-164,176,-174r19,-97r61,0r-19,97v49,2,90,19,109,34r-28,62v-21,-12,-56,-32,-115,-32v-71,0,-115,44,-115,98v0,45,24,69,97,109v76,41,116,93,116,159v0,111,-82,180,-187,193"},"%":{"d":"69,-406v0,-123,72,-256,188,-255v82,0,119,66,119,136v0,142,-75,262,-184,262v-77,0,-123,-58,-123,-143xm308,-521v0,-39,-12,-88,-62,-87v-67,0,-109,115,-109,203v0,47,14,89,63,89v67,0,108,-118,108,-205xm186,12r-60,0r490,-674r60,0xm431,-138v0,-124,72,-255,187,-254v82,0,119,65,119,134v0,143,-75,265,-184,265v-76,0,-122,-58,-122,-145xm669,-253v0,-39,-12,-87,-62,-86v-66,0,-108,113,-108,203v0,46,14,90,63,90v67,0,107,-120,107,-207","w":773},"&":{"d":"533,0r-98,0v-17,-20,-30,-38,-46,-62v-56,51,-116,73,-190,73v-116,0,-182,-75,-182,-168v0,-106,84,-178,167,-218v-20,-46,-37,-83,-37,-126v0,-100,75,-184,179,-184v90,0,136,61,136,133v0,80,-57,142,-173,196v33,67,87,138,121,190v41,-51,73,-117,102,-202r78,0v-37,108,-80,192,-142,256v25,35,52,72,85,112xm101,-170v0,65,43,116,121,116v53,0,98,-24,132,-60v-32,-47,-90,-129,-140,-213v-44,27,-113,75,-113,157xm385,-550v0,-39,-18,-77,-68,-76v-93,-1,-121,150,-61,223v81,-39,129,-83,129,-147","w":589},"(":{"d":"279,-691r71,0v-105,119,-210,304,-210,534v0,91,14,178,55,276r-63,0v-41,-82,-64,-171,-64,-278v0,-238,112,-424,211,-532","w":284},")":{"d":"25,119r-71,0v156,-163,289,-516,155,-810r64,0v41,81,63,170,63,276v0,239,-112,425,-211,534","w":284},"*":{"d":"338,-685r57,35r-110,123v46,1,104,-14,153,-17r-14,67r-143,-18r-1,3r82,120r-64,36v-18,-45,-29,-98,-50,-140r-79,141r-53,-37r109,-121r0,-3r-150,19r13,-67r140,19v-23,-45,-54,-82,-79,-125r64,-34v18,45,29,96,50,138","w":414},"+":{"d":"274,-532r62,0r0,235r219,0r0,59r-219,0r0,238r-62,0r0,-238r-219,0r0,-59r219,0r0,-235","w":596},",":{"d":"21,117r-64,7v31,-60,77,-167,98,-240r99,-10v-36,85,-98,196,-133,243","w":211},"-":{"d":"48,-302r239,0r-12,64r-239,0","w":307},"\u00ad":{"d":"48,-302r239,0r-12,64r-239,0","w":307},".":{"d":"140,-56v0,37,-26,66,-64,66v-33,0,-55,-26,-55,-59v0,-37,26,-67,63,-67v34,0,56,26,56,60","w":211},"\/":{"d":"13,40r-67,0r402,-725r68,0","w":326},"0":{"d":"488,-457v0,213,-100,469,-282,468v-120,0,-163,-98,-163,-223v0,-216,113,-449,284,-449v124,0,161,103,161,204xm126,-208v0,69,13,153,91,152v122,0,188,-265,188,-396v0,-51,-7,-142,-87,-142v-113,0,-192,227,-192,386"},"1":{"d":"181,0r108,-566v-40,17,-75,38,-113,56r-9,-66r147,-74r71,0r-124,650r-80,0"},"2":{"d":"393,0r-393,0r10,-55r97,-81v174,-147,276,-248,276,-355v0,-47,-26,-99,-101,-99v-58,0,-104,26,-134,47r-21,-60v45,-34,112,-58,173,-58v122,0,169,81,169,159v0,153,-189,310,-336,431r273,0"},"3":{"d":"16,-30r28,-66v25,15,66,36,125,36v111,0,162,-76,162,-143v0,-92,-77,-121,-172,-115r13,-65v90,6,194,-28,194,-126v0,-50,-30,-81,-92,-81v-49,0,-94,16,-123,36r-18,-63v41,-25,98,-44,155,-44v109,0,166,65,166,140v0,87,-73,144,-144,170v71,17,109,78,109,147v0,123,-111,215,-253,215v-70,0,-128,-21,-150,-41"},"4":{"d":"335,0r-78,0r34,-181r-280,0r11,-56r346,-413r91,0r-77,403r88,0r-13,66r-88,0xm113,-247r190,0r43,-215v7,-35,16,-70,24,-104r-3,0v-73,121,-169,211,-254,319"},"5":{"d":"487,-650r-14,72r-223,0r-51,165v54,-6,94,1,146,29v54,29,77,88,77,143v0,158,-126,252,-267,252v-63,0,-118,-19,-140,-36r26,-66v23,15,69,31,122,31v92,0,173,-73,173,-163v0,-70,-36,-125,-157,-125v-27,0,-47,2,-73,4r90,-306r291,0"},"6":{"d":"470,-660r-12,71v-165,2,-262,98,-318,241r2,1v38,-49,101,-82,160,-82v102,0,157,78,157,177v0,127,-99,263,-239,263v-124,0,-185,-91,-185,-214v0,-245,167,-424,379,-453v23,-4,42,-4,56,-4xm270,-363v-71,0,-157,66,-153,172v3,78,37,135,109,135v86,0,147,-99,147,-191v0,-76,-38,-116,-103,-116"},"7":{"d":"134,-650r389,0r-11,58r-377,592r-92,0r375,-577v-93,-7,-201,1,-298,-2"},"8":{"d":"177,-349v-154,-104,-38,-312,138,-312v95,0,164,57,164,147v0,77,-52,134,-127,169r-1,3v67,36,96,95,96,154v0,128,-115,199,-228,199v-122,0,-195,-69,-195,-161v0,-100,72,-165,152,-196xm111,-160v0,56,37,108,114,108v76,0,136,-52,136,-129v0,-64,-37,-105,-114,-132v-67,18,-136,68,-136,153xm397,-504v0,-44,-23,-95,-95,-94v-66,0,-116,54,-116,115v0,51,31,87,95,110v64,-21,116,-69,116,-131"},"9":{"d":"56,10r10,-71v170,-2,264,-101,319,-240r-3,0v-40,46,-97,70,-148,70v-107,0,-158,-83,-158,-168v0,-133,106,-262,241,-262v123,0,175,94,175,205v0,162,-91,310,-168,374v-76,63,-155,92,-268,92xm259,-296v82,0,153,-63,149,-170v-3,-74,-28,-128,-101,-128v-80,0,-146,91,-146,185v0,65,33,113,98,113"},":":{"d":"206,-408v0,37,-26,66,-64,66v-32,0,-54,-26,-54,-58v0,-37,26,-67,62,-67v34,0,56,25,56,59xm139,-55v0,37,-26,66,-64,66v-32,0,-54,-26,-54,-58v0,-37,26,-67,62,-67v34,0,56,25,56,59","w":211},";":{"d":"20,117r-63,7v31,-60,76,-167,98,-240r98,-10v-36,85,-97,196,-133,243xm211,-408v0,37,-26,66,-64,66v-32,0,-54,-26,-54,-58v0,-37,26,-67,62,-67v34,0,56,25,56,59","w":211},"<":{"d":"78,-239r0,-54r448,-239r0,68r-375,197r0,2r375,197r0,68","w":596},"=":{"d":"556,-338r-500,0r0,-59r500,0r0,59xm556,-141r-500,0r0,-59r500,0r0,59","w":596},">":{"d":"541,-294r0,56r-448,238r0,-68r378,-197r0,-2r-378,-197r0,-68","w":596},"?":{"d":"208,-192r-81,0v6,-82,28,-128,100,-208v44,-48,87,-92,87,-146v0,-35,-18,-70,-76,-70v-38,0,-72,10,-100,28r-16,-61v38,-23,85,-37,137,-37v97,0,141,64,141,125v0,130,-182,220,-188,341v-1,9,-2,19,-4,28xm200,-55v0,37,-26,66,-64,66v-32,0,-54,-26,-54,-58v0,-37,26,-67,62,-67v34,0,56,26,56,59","w":384},"@":{"d":"440,-255r21,-112v-112,-36,-212,58,-211,172v0,44,23,76,67,76v58,0,112,-74,123,-136xm499,21r16,44v-220,110,-480,-11,-480,-273v0,-206,142,-384,364,-384v175,0,291,122,291,289v0,150,-84,238,-178,238v-40,0,-76,-26,-74,-88r-3,0v-36,59,-82,88,-142,88v-58,0,-108,-47,-108,-126v0,-124,98,-237,237,-237v43,0,82,9,107,21r-33,181v-15,76,-4,111,30,112v51,2,108,-67,108,-182v0,-146,-88,-250,-243,-250v-164,0,-300,129,-300,332v0,167,105,271,260,271v52,0,108,-13,148,-36","w":720},"A":{"d":"401,-213r-233,0r-107,213r-87,0r348,-674r98,0r93,674r-85,0xm199,-279r196,0r-27,-195v-3,-35,-8,-85,-11,-124r-3,0v-46,110,-102,215,-155,319","w":568},"B":{"d":"471,-207v0,154,-133,214,-299,212v-58,0,-108,-4,-139,-10r124,-660v42,-8,90,-14,145,-14v117,0,201,49,204,151v3,88,-73,146,-145,171v60,18,110,69,110,150xm229,-607r-42,219v125,10,233,-29,233,-132v0,-90,-111,-104,-191,-87xm174,-325r-48,259v128,17,258,-13,258,-145v0,-103,-100,-121,-210,-114","w":519},"C":{"d":"433,-613v-174,0,-296,154,-296,332v0,120,55,220,205,220v51,0,107,-10,144,-29r11,68v-38,17,-99,32,-175,32v-170,0,-273,-107,-273,-279v0,-222,164,-415,398,-415v74,0,128,19,146,32r-27,67v-25,-15,-73,-28,-133,-28","w":555},"D":{"d":"33,-4r125,-661v52,-9,109,-14,168,-14v112,0,197,33,248,90v35,38,63,98,63,183v0,122,-51,241,-135,317v-102,93,-293,106,-469,85xm215,-64v212,6,333,-144,333,-338v0,-120,-58,-209,-226,-209v-30,0,-68,2,-92,7r-102,535v30,4,62,5,87,5","w":647},"E":{"d":"433,-387r-14,70r-245,0r-46,246r276,0r-14,71r-359,0r128,-674r344,0r-14,71r-260,0r-41,216r245,0","w":470},"F":{"d":"31,0r128,-674r342,0r-14,71r-258,0r-44,227r238,0r-14,70r-238,0r-57,306r-83,0","w":465},"G":{"d":"448,-609v-179,0,-310,156,-310,329v0,130,65,216,215,216v40,0,78,-8,102,-19r39,-201r-137,0r13,-68r218,0r-61,323v-39,16,-111,36,-190,36v-95,0,-171,-25,-220,-84v-128,-155,-70,-381,63,-504v71,-66,170,-100,278,-100v82,0,138,19,159,31r-28,70v-34,-17,-80,-29,-141,-29","w":623},"H":{"d":"159,-674r83,0r-54,284r310,0r54,-284r83,0r-128,674r-83,0r59,-317r-309,0r-60,317r-83,0","w":627},"I":{"d":"158,-674r83,0r-128,674r-83,0","w":233},"J":{"d":"210,-220r86,-454r83,0r-88,464v-30,157,-96,221,-222,221v-41,0,-83,-9,-100,-18r18,-71v114,35,193,16,223,-142","w":364},"K":{"d":"31,0r128,-674r82,0r-62,328r4,-1r67,-75r237,-252r104,0r-284,290r173,384r-90,0r-147,-331r-81,75r-49,256r-82,0","w":515},"L":{"d":"31,0r128,-674r83,0r-115,602r272,0r-14,72r-354,0","w":442},"M":{"d":"676,0r-80,0r48,-364v9,-64,24,-163,36,-228r-3,0v-90,202,-204,396,-306,588r-63,0r-50,-363v-10,-78,-17,-156,-21,-225r-3,0v-14,62,-35,164,-51,228r-92,364r-78,0r175,-674r106,0r53,387v7,57,14,119,16,169r3,0v82,-189,193,-375,287,-556r109,0","w":780},"N":{"d":"109,0r-78,0r128,-674r91,0v69,181,165,378,213,570v18,-170,67,-397,99,-570r78,0r-128,674r-82,0v-69,-182,-167,-382,-216,-575r-3,1v-21,174,-70,397,-102,574","w":632},"O":{"d":"658,-409v0,206,-131,425,-354,420v-332,-7,-302,-439,-127,-605v58,-56,141,-91,226,-91v181,0,255,132,255,276xm392,-615v-168,0,-256,192,-256,345v0,110,48,211,180,211v166,0,254,-192,254,-346v0,-96,-31,-210,-178,-210","w":668},"P":{"d":"518,-506v-4,180,-167,262,-354,235r-51,271r-82,0r127,-665v37,-8,91,-14,146,-14v118,-1,217,53,214,173xm227,-605r-50,264v137,30,257,-43,257,-159v0,-107,-116,-125,-207,-105","w":507},"Q":{"d":"657,-409v0,166,-95,360,-247,397r0,3v59,13,122,26,179,34r-32,69v-118,-26,-207,-63,-280,-84v-127,-8,-229,-106,-229,-274v0,-115,45,-245,125,-325v59,-60,145,-96,230,-96v183,0,254,136,254,276xm392,-615v-169,-1,-255,197,-256,347v0,107,46,209,177,209v173,0,257,-197,257,-348v0,-88,-30,-208,-178,-208","w":668},"R":{"d":"516,-519v0,101,-79,170,-161,198v48,16,70,66,75,135v7,94,12,159,21,186r-86,0v-4,-14,-12,-85,-16,-163v-6,-127,-65,-138,-180,-131r-55,294r-83,0r127,-665v152,-33,358,-17,358,146xm229,-606r-47,248r74,0v105,0,173,-69,173,-150v0,-98,-113,-119,-200,-98","w":523},"S":{"d":"12,-37r30,-68v87,68,291,60,289,-83v0,-50,-28,-87,-99,-126v-86,-46,-134,-100,-134,-173v0,-120,104,-197,228,-197v66,0,115,19,138,35r-30,68v-21,-13,-63,-32,-116,-32v-84,0,-134,55,-134,110v0,55,34,87,105,125v83,45,128,97,128,180v0,116,-91,208,-243,208v-68,0,-134,-22,-162,-47","w":466},"T":{"d":"148,0r114,-602r-197,0r14,-72r478,0r-14,72r-198,0r-114,602r-83,0","w":474},"U":{"d":"158,-674r83,0r-76,399v-5,28,-8,57,-8,85v0,86,50,130,125,130v92,0,159,-62,188,-214r77,-400r83,0r-77,403v-39,201,-139,282,-282,282v-111,0,-197,-60,-197,-199v0,-174,59,-324,84,-486","w":621},"V":{"d":"259,0r-92,0r-83,-674r85,0r49,432v7,69,12,108,12,152r3,0v77,-185,198,-400,289,-584r91,0","w":539},"W":{"d":"219,0r-89,0r-33,-674r83,0r15,404v2,87,1,133,0,175r2,0v64,-175,178,-402,256,-579r89,0r14,388v3,87,3,146,1,190r2,0v69,-201,166,-388,248,-578r87,0r-313,674r-88,0r-17,-383v-4,-79,-3,-117,2,-194r-3,0v-69,207,-171,385,-256,577","w":829},"X":{"d":"466,0r-88,0r-107,-285r-2,0v-21,32,-45,69,-79,116r-121,169r-99,0r263,-343r-126,-331r87,0r64,173v16,39,22,75,36,102r69,-102r129,-173r99,0r-260,330","w":521},"Y":{"d":"243,0r-82,0r53,-280r-130,-394r89,0r65,218v19,60,19,90,30,113r72,-116r146,-215r97,0r-287,393","w":517},"Z":{"d":"-20,0r9,-51r458,-549r-1,-3r-320,0r14,-71r432,0r-11,53r-454,547r1,3r354,0r-13,71r-469,0","w":523},"[":{"d":"194,111r-175,0r152,-797r175,0r-10,54r-108,0r-131,689r107,0","w":284},"\\":{"d":"310,40r-65,0r-184,-725r65,0","w":329},"]":{"d":"109,-686r175,0r-152,797r-175,0r10,-54r108,0r131,-689r-107,0","w":284},"^":{"d":"534,-189r-68,0r-164,-388r-2,0r-164,388r-67,0r202,-461r61,1","w":596},"_":{"d":"-49,75r500,0r-10,50r-500,0","w":500},"a":{"d":"426,0r-77,0v-2,-27,10,-81,9,-125v-53,101,-120,136,-188,136v-86,0,-139,-68,-139,-160v0,-169,124,-346,335,-346v46,0,96,8,130,18v-26,139,-75,331,-70,477xm375,-276r28,-146v-161,-41,-284,105,-286,258v0,54,19,107,83,107v69,0,151,-90,175,-219","w":522},"b":{"d":"159,-710r83,0r-64,314r2,0v43,-65,105,-99,170,-99v106,0,146,88,146,174v0,149,-107,332,-301,332v-85,0,-149,-35,-149,-124v0,-24,4,-53,9,-76xm318,-426v-103,0,-187,154,-187,301v0,46,27,71,78,71v125,0,201,-149,201,-257v0,-60,-26,-115,-92,-115","w":525},"c":{"d":"353,-85r8,65v-25,13,-75,30,-140,30v-125,0,-186,-84,-186,-187v0,-197,191,-381,397,-296r-24,65v-19,-9,-46,-18,-82,-18v-126,0,-205,124,-205,238v0,79,41,130,120,130v50,0,87,-15,112,-27","w":423},"d":{"d":"460,-710r83,0r-107,556v-9,51,-17,107,-20,154r-76,0v2,-31,13,-69,11,-96v-44,69,-105,107,-175,107v-93,0,-144,-77,-144,-176v-2,-198,177,-386,385,-313xm371,-239r32,-169v-142,-77,-285,75,-285,232v0,58,20,119,91,119v64,0,141,-73,162,-182","w":525},"e":{"d":"365,-90r12,62v-36,20,-95,38,-160,38v-128,0,-184,-87,-184,-194v0,-146,108,-311,264,-311v92,0,142,55,142,125v0,127,-143,160,-322,157v-4,21,-1,66,10,91v19,44,58,65,108,65v57,0,100,-17,130,-33xm127,-277v130,2,233,-15,232,-92v0,-39,-30,-61,-74,-61v-79,0,-138,77,-158,153","w":453},"f":{"d":"123,0r-83,0r79,-419r-64,0r12,-65r65,0v9,-143,109,-278,265,-224r-18,66v-102,-39,-154,51,-165,158r108,0r-13,65r-107,0","w":283},"g":{"d":"10,175r23,-65v29,19,78,32,128,32v82,0,148,-41,174,-172v5,-23,16,-53,14,-73v-43,69,-102,103,-168,103v-98,0,-148,-82,-148,-168v0,-165,120,-327,307,-327v56,0,118,16,156,34r-75,400v-19,103,-47,173,-97,217v-82,71,-231,64,-314,19xm374,-251r31,-161v-16,-8,-46,-17,-80,-17v-121,0,-205,127,-205,247v0,54,19,116,93,116v71,0,143,-90,161,-185","w":524},"h":{"d":"111,0r-83,0r135,-710r83,0r-60,311r2,0v41,-59,100,-96,173,-96v55,0,120,33,120,130v0,132,-43,243,-62,365r-83,0v19,-118,60,-218,60,-347v0,-44,-21,-79,-75,-79v-64,0,-145,75,-165,183","w":534},"i":{"d":"111,0r-83,0r93,-484r82,0xm240,-622v0,33,-24,56,-57,56v-29,0,-47,-22,-47,-52v1,-32,25,-56,55,-56v29,0,49,22,49,52","w":229},"j":{"d":"125,-484r83,0r-92,483v-22,147,-78,229,-228,204r10,-65v80,13,109,-2,132,-122xm240,-622v0,33,-24,56,-57,56v-29,0,-47,-22,-47,-52v1,-32,25,-56,55,-56v29,0,49,22,49,52","w":227},"k":{"d":"110,0r-82,0r135,-710r83,0r-85,446r217,-220r103,0r-211,200r144,284r-91,0r-117,-238r-61,55","w":456},"l":{"d":"112,0r-83,0r135,-710r83,0","w":229},"m":{"d":"109,0r-81,0r65,-343v10,-54,17,-101,22,-141r73,0r-13,91r3,0v45,-68,106,-102,170,-102v74,0,109,47,113,108v43,-70,105,-107,177,-108v56,0,118,36,118,127v0,130,-43,247,-62,368r-81,0r52,-279v14,-66,13,-147,-66,-147v-60,0,-132,70,-152,178r-46,248r-80,0r54,-284v10,-68,19,-142,-66,-142v-61,0,-136,80,-155,183","w":808},"n":{"d":"111,0r-82,0r64,-343v11,-54,18,-101,23,-141r75,0v-2,30,-13,68,-11,95v44,-68,109,-106,180,-106v57,0,122,33,122,134v0,127,-44,242,-63,361r-82,0r53,-280v12,-68,13,-146,-70,-146v-59,0,-143,71,-165,191","w":534},"o":{"d":"493,-294v0,150,-106,306,-269,305v-121,0,-189,-90,-189,-199v0,-160,111,-307,268,-307v131,0,190,99,190,201xm121,-191v0,79,44,136,114,136v98,0,172,-126,172,-239v0,-56,-26,-135,-113,-135v-104,0,-173,127,-173,238","w":522},"p":{"d":"68,198r-83,0r97,-510v11,-58,21,-124,27,-173r76,0v-2,29,-13,66,-11,92v43,-64,107,-102,174,-102v104,0,148,86,148,175v0,207,-183,396,-389,309xm146,-216r-25,135v143,93,289,-70,289,-233v0,-51,-22,-112,-93,-112v-65,0,-146,74,-171,210","w":525},"q":{"d":"370,198r-83,0r59,-286r-2,0v-41,64,-107,99,-168,99v-96,0,-144,-81,-144,-176v0,-162,120,-330,308,-330v64,0,120,16,155,32xm372,-244r31,-168v-148,-65,-287,72,-285,237v0,75,33,118,84,118v78,0,151,-88,170,-187","w":525},"r":{"d":"111,0r-83,0r59,-312v12,-63,19,-127,25,-172r73,0v-4,34,-8,68,-14,105r3,0v38,-72,87,-126,172,-114r-16,82v-6,-1,-13,-2,-23,-2v-71,0,-135,87,-156,199","w":318},"s":{"d":"9,-23r24,-61v22,14,64,30,104,30v56,0,92,-36,92,-79v0,-38,-17,-61,-68,-89v-56,-31,-87,-74,-87,-123v0,-85,73,-150,176,-150v43,0,82,12,100,24r-23,63v-17,-10,-47,-22,-83,-22v-51,0,-87,31,-87,73v0,35,23,56,67,81v54,30,90,73,90,127v0,102,-82,159,-185,159v-52,0,-98,-16,-120,-33","w":373},"t":{"d":"155,-573r87,-27r-22,116r116,0r-13,65r-116,0r-44,235v-10,50,-28,124,36,124v15,0,28,-1,39,-4r-4,65v-15,6,-40,9,-64,9v-113,-4,-109,-89,-91,-184r47,-245r-69,0r12,-65r69,0","w":313},"u":{"d":"418,-484r83,0r-66,343v-10,54,-17,101,-21,141r-75,0v2,-29,13,-65,11,-91v-44,63,-107,102,-171,102v-62,0,-128,-30,-128,-140v0,-123,43,-240,62,-355r82,0r-51,270v-15,75,-17,155,69,155v61,0,138,-71,158,-177","w":526},"v":{"d":"52,-484r84,0r42,276v7,55,14,93,15,119r3,0v49,-118,139,-276,199,-395r91,0r-269,484r-81,0","w":455},"w":{"d":"61,-484r82,0r17,272v4,60,3,91,2,130r3,0v50,-129,135,-276,196,-402r73,0r30,276v7,52,4,98,10,126v45,-138,119,-273,177,-402r84,0r-239,484r-77,0r-32,-263v-7,-44,-3,-91,-9,-129v-56,141,-129,261,-195,392r-77,0","w":707},"x":{"d":"63,-484r90,0r79,183r3,0v42,-63,95,-124,142,-183r96,0r-204,235r114,249r-90,0r-49,-110v-16,-36,-23,-55,-34,-86r-3,0v-39,67,-100,134,-148,196r-96,0r212,-250","w":441},"y":{"d":"48,-484r86,0r70,388r2,0v13,-31,27,-65,52,-119r124,-269r88,0r-182,368v-52,104,-102,189,-167,254v-55,55,-113,78,-140,84r-21,-72v70,-22,145,-82,183,-158v4,-8,4,-13,2,-22","w":441},"z":{"d":"-21,0r9,-51r235,-262v41,-45,68,-70,101,-100r0,-3r-248,0r14,-68r347,0r-11,55r-231,258r-101,103r269,0r-14,68r-370,0","w":415},"{":{"d":"46,9v-1,-71,51,-155,53,-219v0,-19,-7,-55,-66,-54r9,-51v137,-6,85,-139,109,-240v24,-99,82,-136,182,-131r-10,54v-125,-14,-108,128,-121,233v-8,69,-48,95,-91,111v120,41,4,200,3,282v-1,42,26,68,78,63r-11,54v-80,4,-135,-28,-135,-102","w":284},"|":{"d":"95,-750r62,0r0,1000r-62,0r0,-1000","w":217},"}":{"d":"251,-584v1,73,-51,153,-53,218v0,19,7,54,66,53r-9,51v-137,6,-85,140,-109,242v-24,99,-82,136,-182,131r10,-54v125,14,108,-128,121,-235v8,-68,48,-94,91,-111v-120,-41,-3,-195,-3,-280v0,-42,-26,-68,-78,-63r11,-54v80,-4,134,28,135,102","w":284},"~":{"d":"436,-209v-66,0,-181,-84,-256,-85v-34,0,-56,30,-57,81r-60,0v-3,-97,51,-146,118,-146v65,0,190,84,257,84v36,0,53,-28,54,-81r59,0v5,109,-52,147,-115,147","w":596},"'":{"d":"128,-692r86,0r-62,242r-54,0","w":166},"`":{"d":"144,-686r94,0r66,143r-60,0","w":383},"\u0410":{"d":"401,-213r-233,0r-107,213r-87,0r348,-674r98,0r93,674r-85,0xm199,-279r196,0r-27,-195v-3,-35,-8,-85,-11,-124r-3,0v-46,110,-102,215,-155,319","w":568},"\u0411":{"d":"479,-236v0,216,-239,266,-447,234r127,-672r340,0r-13,71r-257,0r-35,186v151,-26,285,26,285,181xm181,-352r-54,287v127,23,263,-30,266,-160v3,-116,-100,-148,-212,-127","w":519},"\u0412":{"d":"471,-207v0,154,-133,214,-299,212v-58,0,-108,-4,-139,-10r123,-660v42,-8,90,-14,145,-14v117,0,201,49,204,151v3,88,-73,146,-144,171v60,18,110,69,110,150xm228,-607r-42,219v125,10,233,-29,233,-132v0,-90,-111,-104,-191,-87xm173,-325r-47,259v128,17,258,-13,258,-145v0,-103,-101,-121,-211,-114","w":520},"\u0413":{"d":"159,-674r317,0r-14,73r-234,0r-114,601r-83,0","w":393},"\u0414":{"d":"228,-674r358,0r-114,605r57,2r-54,229r-68,0r27,-162r-399,0r-39,162r-67,0r38,-229r47,-2v126,-158,173,-367,214,-605xm291,-603v-33,203,-82,399,-189,533r287,0r100,-533r-198,0","w":602},"\u0415":{"d":"433,-387r-14,70r-245,0r-46,246r276,0r-14,71r-359,0r128,-674r344,0r-14,71r-260,0r-41,216r245,0","w":470},"\u0416":{"d":"106,-674r89,0r152,305r20,0r56,-305r79,0r-57,305r22,0r261,-305r96,0r-290,315v151,23,137,222,177,359r-84,0v-14,-50,-20,-108,-31,-168v-18,-101,-55,-147,-161,-141r-58,309r-80,0r58,-309v-113,-5,-156,42,-212,152v-27,54,-49,105,-78,157r-89,0v33,-50,61,-117,92,-178v60,-115,108,-168,214,-182","w":771},"\u0417":{"d":"125,-322r12,-65v105,6,209,-30,209,-135v0,-59,-42,-95,-99,-95v-49,0,-94,18,-130,39r-19,-59v102,-74,334,-73,334,103v0,96,-76,153,-154,178v72,16,125,72,125,156v0,135,-112,211,-247,211v-65,0,-127,-20,-169,-47r28,-64v26,16,85,41,142,41v87,0,160,-51,160,-145v0,-95,-95,-126,-192,-118","w":449},"\u0418":{"d":"160,-674r79,0r-57,302v-19,98,-36,181,-58,266r2,1v123,-194,286,-384,425,-569r87,0r-128,674r-79,0r59,-311v19,-95,33,-166,53,-247r-2,-1v-121,192,-280,377,-417,559r-92,0","w":629},"\u0419":{"d":"160,-674r79,0r-57,302v-19,98,-36,181,-58,266r2,1v123,-194,286,-384,425,-569r87,0r-128,674r-79,0r59,-311v19,-95,33,-166,53,-247r-2,-1v-121,192,-280,377,-417,559r-92,0xm297,-827r64,0v-1,32,14,60,55,60v42,0,63,-23,72,-60r66,0v-13,61,-63,105,-142,105v-83,0,-116,-45,-115,-105","w":629},"\u041a":{"d":"159,-674r81,0r-57,304r21,0r278,-304r102,0r-305,315v93,17,131,88,151,193v11,59,18,118,34,166r-86,0v-13,-38,-21,-104,-30,-156v-20,-111,-60,-158,-177,-153r-58,309r-82,0","w":523},"\u041b":{"d":"217,-674r380,0r-129,674r-83,0r116,-603r-217,0r-39,207v-35,181,-80,290,-144,349v-27,26,-72,54,-132,56r-8,-70v35,-4,65,-23,88,-44v98,-89,130,-385,168,-569","w":589},"\u041c":{"d":"676,0r-80,0r48,-364v9,-64,24,-163,36,-228r-3,0v-90,202,-204,396,-306,588r-63,0r-50,-363v-10,-78,-17,-156,-21,-225r-3,0v-14,62,-35,164,-51,228r-92,364r-78,0r175,-674r106,0r53,387v7,57,14,119,16,169r3,0v82,-189,193,-375,287,-556r109,0","w":780},"\u041d":{"d":"159,-674r83,0r-54,284r310,0r54,-284r83,0r-128,674r-83,0r59,-317r-309,0r-60,317r-83,0","w":627},"\u041e":{"d":"658,-409v1,207,-132,425,-354,420v-328,-7,-303,-429,-134,-598v59,-60,145,-98,233,-98v181,0,255,132,255,276xm136,-270v0,110,48,212,180,211v144,0,254,-183,254,-346v0,-96,-31,-210,-178,-210v-152,0,-256,190,-256,345","w":668},"\u041f":{"d":"159,-674r460,0r-128,674r-83,0r116,-603r-295,0r-115,603r-83,0","w":611},"\u0420":{"d":"518,-506v-4,180,-167,262,-354,235r-51,271r-82,0r127,-665v37,-8,91,-14,146,-14v118,-1,217,53,214,173xm227,-605r-50,264v137,30,257,-43,257,-159v0,-107,-116,-125,-207,-105","w":507},"\u0421":{"d":"433,-613v-174,0,-296,154,-296,332v0,120,55,220,205,220v51,0,107,-10,144,-29r11,68v-38,17,-99,32,-175,32v-170,0,-273,-107,-273,-279v0,-222,164,-415,398,-415v74,0,128,19,146,32r-27,67v-25,-15,-73,-28,-133,-28","w":555},"\u0422":{"d":"148,0r114,-602r-197,0r14,-72r478,0r-14,72r-198,0r-114,602r-83,0","w":474},"\u0423":{"d":"87,-674r90,0r113,420r2,0r194,-420r93,0r-163,325v-52,104,-120,239,-185,302v-60,59,-126,71,-200,45r17,-69v84,32,144,-36,176,-99v7,-12,8,-22,3,-40","w":495},"\u0424":{"d":"263,26r11,-59v-115,-16,-219,-103,-219,-261v0,-249,190,-355,336,-354r11,-52r78,0r-10,55v117,16,217,101,217,268v0,224,-157,346,-335,348r-10,55r-79,0xm286,-95r93,-491v-108,2,-239,101,-239,288v0,115,62,186,146,203xm457,-584r-92,493v152,-6,238,-131,238,-293v0,-118,-62,-188,-146,-200","w":702},"\u0425":{"d":"466,0r-88,0r-107,-285r-2,0v-21,32,-45,69,-79,116r-121,169r-99,0r263,-343r-126,-331r87,0r64,173v17,39,22,75,36,102r69,-102r129,-173r99,0r-260,330","w":521},"\u0426":{"d":"160,-674r83,0r-115,603r293,0r115,-603r82,0r-115,605r57,2r-54,229r-68,0r27,-162r-433,0","w":620},"\u0427":{"d":"136,-674r83,0r-37,194v-4,18,-10,51,-10,76v0,66,42,97,112,97v57,0,111,-24,135,-42r61,-325r82,0r-128,678r-82,0r53,-280v-33,15,-87,38,-152,38v-144,0,-180,-108,-154,-242","w":555},"\u0428":{"d":"159,-674r82,0r-115,603r207,0r114,-603r82,0r-115,603r207,0r115,-603r82,0r-129,674r-658,0","w":810},"\u0429":{"d":"159,-674r83,0r-116,603r207,0r114,-603r83,0r-116,603r207,0r115,-603r82,0r-116,605r57,2r-53,229r-69,0r27,-162r-633,0","w":820},"\u042a":{"d":"585,-238v0,215,-239,269,-449,236r114,-600r-185,0r14,-72r267,0r-48,253v150,-26,287,28,287,183xm284,-352r-54,285v128,23,263,-26,267,-161v3,-116,-106,-147,-213,-124","w":618},"\u042b":{"d":"477,-238v0,215,-238,270,-446,236r128,-672r83,0r-49,253v150,-26,284,27,284,183xm179,-352r-53,285v126,23,260,-29,263,-159v3,-118,-101,-149,-210,-126xm643,-674r86,0r-129,674r-86,0","w":720},"\u042c":{"d":"481,-238v0,219,-241,267,-449,236r127,-672r83,0r-48,253v150,-26,287,28,287,183xm180,-352r-54,285v128,23,263,-29,267,-159v3,-117,-105,-149,-213,-126","w":518},"\u042d":{"d":"125,-308r13,-68r304,0v11,-133,-56,-235,-194,-238v-45,0,-100,11,-139,29r-18,-63v33,-17,98,-37,169,-37v169,0,270,113,270,291v0,109,-35,227,-117,309v-65,65,-148,96,-255,96v-72,0,-136,-19,-170,-40r25,-66v38,21,93,35,143,35v156,0,252,-110,276,-248r-307,0","w":540},"\u042e":{"d":"852,-408v1,202,-121,423,-334,419v-187,-4,-262,-158,-237,-329r-107,0r-60,318r-83,0r129,-674r83,0r-55,285r102,0v33,-153,149,-295,320,-296v171,0,242,132,242,277xm358,-270v0,110,45,212,170,211v135,0,238,-183,238,-346v0,-95,-28,-210,-167,-210v-143,0,-241,191,-241,345","w":862},"\u042f":{"d":"97,-471v0,-202,241,-233,430,-193r-125,664r-83,0r57,-295r-53,0v-164,2,-184,188,-256,295r-91,0v72,-107,101,-280,233,-323r0,-3v-59,-17,-112,-62,-112,-145xm388,-358r46,-249v-115,-21,-251,13,-251,137v0,99,103,122,205,112","w":519},"\u0401":{"d":"433,-387r-14,70r-245,0r-46,246r276,0r-14,71r-359,0r128,-674r344,0r-14,71r-260,0r-41,216r245,0xm305,-773v0,29,-23,53,-53,53v-25,0,-46,-21,-46,-48v0,-29,23,-53,52,-53v29,0,47,24,47,48xm489,-773v0,29,-23,53,-53,53v-25,0,-46,-21,-46,-48v0,-29,23,-53,52,-53v29,0,47,24,47,48","w":470},"\u0430":{"d":"427,0r-77,0v-2,-27,10,-81,9,-125v-53,101,-120,136,-188,136v-86,0,-139,-68,-139,-160v0,-169,124,-346,334,-346v46,0,97,8,130,18v-25,139,-74,331,-69,477xm375,-276r28,-146v-160,-41,-283,105,-285,258v0,54,19,107,82,107v70,0,150,-90,175,-219","w":522},"\u0431":{"d":"537,-720r-12,73v-120,34,-232,21,-314,125v-28,36,-55,88,-68,141r3,0v39,-61,101,-103,177,-103v104,0,161,81,161,185v0,147,-94,310,-261,310v-118,0,-176,-90,-176,-226v0,-133,43,-261,113,-347v83,-100,178,-123,296,-139v29,-4,57,-10,81,-19xm299,-420v-97,0,-171,109,-169,227v1,71,31,141,104,140v109,0,164,-139,164,-238v0,-68,-28,-129,-99,-129","w":513},"\u0432":{"d":"43,-131v0,-132,69,-364,258,-364v76,0,136,35,136,112v0,67,-68,102,-114,123v48,7,100,40,100,108v0,116,-119,162,-218,162v-97,0,-162,-39,-162,-141xm147,-270v85,-12,210,-22,210,-106v0,-39,-30,-58,-69,-58v-86,0,-122,92,-141,164xm339,-148v0,-96,-140,-84,-203,-63v-19,73,-14,160,79,160v65,0,124,-35,124,-97","w":476},"\u0433":{"d":"276,-374v0,-71,-119,-62,-163,-29r-14,-58v30,-17,75,-33,127,-33v86,0,131,49,131,118v0,82,-70,121,-149,157v-60,28,-109,55,-109,104v0,34,21,60,71,61v44,1,90,-18,116,-33r13,60v-34,20,-92,38,-145,37v-86,-2,-140,-46,-140,-124v0,-89,74,-127,150,-163v51,-24,112,-49,112,-97","w":367},"\u0434":{"d":"141,-649r-3,-71v111,17,217,16,276,82v47,53,71,136,71,217v0,165,-70,432,-277,432v-114,0,-175,-76,-175,-192v0,-137,87,-303,241,-303v75,0,116,44,140,101v12,-140,-43,-256,-191,-256v-24,0,-51,-4,-82,-10xm119,-182v0,67,29,130,102,129v97,0,159,-149,159,-234v0,-66,-32,-132,-103,-132v-108,0,-159,140,-158,237","w":502},"\u0435":{"d":"365,-90r12,62v-36,20,-95,38,-160,38v-128,0,-184,-87,-184,-194v0,-146,108,-311,264,-311v92,0,142,55,142,125v0,127,-143,160,-322,157v-4,21,-1,66,10,91v19,44,58,65,108,65v57,0,100,-17,130,-33xm127,-277v130,2,233,-15,232,-92v0,-39,-30,-61,-74,-61v-79,0,-138,77,-158,153","w":453},"\u0436":{"d":"-33,0v53,-87,106,-266,235,-263r-136,-221r90,0r113,214r18,0r41,-214r77,0r-42,214r19,0r193,-214r94,0r-216,221v99,14,98,173,129,263r-80,0v-32,-93,-17,-237,-150,-218r-41,218r-78,0r43,-219v-83,-2,-124,27,-165,101v-26,47,-41,86,-61,118r-83,0","w":636},"\u0437":{"d":"94,-224r10,-59v78,4,172,-14,172,-86v0,-89,-135,-69,-194,-29r-19,-52v90,-63,295,-74,300,72v3,70,-65,107,-128,123v54,7,113,48,113,113v0,173,-254,181,-366,111r24,-60v74,51,254,62,254,-51v0,-76,-87,-85,-166,-82","w":400},"\u0438":{"d":"113,-484r82,0r-51,270v-15,75,-17,155,69,155v61,0,138,-71,158,-177r47,-248r83,0r-66,343v-10,54,-17,101,-21,141r-75,0v2,-29,13,-65,11,-91v-44,63,-107,102,-171,102v-62,0,-128,-30,-128,-140v0,-123,43,-240,62,-355","w":526},"\u0439":{"d":"113,-484r82,0r-51,270v-15,75,-17,155,69,155v61,0,138,-71,158,-177r47,-248r83,0r-66,343v-10,54,-17,101,-21,141r-75,0v2,-29,13,-65,11,-91v-44,63,-107,102,-171,102v-62,0,-128,-30,-128,-140v0,-123,43,-240,62,-355xm219,-683r61,0v-4,41,15,73,51,73v41,0,62,-38,72,-73r63,0v-17,76,-68,121,-140,121v-88,0,-113,-59,-107,-121","w":526},"\u043a":{"d":"121,-484r80,0r-40,214r18,0r210,-214r100,0r-236,222v53,14,81,60,106,136v16,51,28,97,43,126r-82,0v-13,-27,-23,-73,-40,-118v-32,-82,-57,-101,-130,-99r-41,217r-81,0","w":456},"\u043b":{"d":"160,-484r326,0r-92,484r-82,0r78,-418r-165,0v-27,148,-61,339,-152,391v-31,18,-55,31,-100,32r-6,-67v22,-2,44,-10,58,-19v88,-59,105,-267,135,-403","w":510},"\u043c":{"d":"146,-484r102,0r58,377v16,-34,54,-103,87,-162r123,-215r104,0r-62,484r-78,0r57,-399r-4,0v-56,116,-151,276,-218,396r-64,0r-37,-240v-6,-47,-16,-114,-19,-157r-4,0v-12,53,-26,118,-40,171r-59,229r-76,0","w":667},"\u043d":{"d":"121,-484r82,0r-36,196r218,0r37,-196r83,0r-92,484r-82,0r42,-222r-219,0r-42,222r-83,0","w":529},"\u043e":{"d":"492,-294v0,150,-106,306,-269,305v-121,0,-189,-90,-189,-199v0,-160,111,-307,268,-307v131,0,190,99,190,201xm120,-191v0,79,44,136,114,136v98,0,172,-126,172,-239v0,-56,-26,-135,-113,-135v-104,0,-173,127,-173,238","w":521},"\u043f":{"d":"111,0r-82,0r64,-343v10,-54,18,-101,23,-141r75,0v-2,30,-13,68,-11,95v44,-68,109,-106,180,-106v57,0,122,33,122,134v0,127,-44,242,-63,361r-82,0r53,-280v12,-68,13,-146,-70,-146v-59,0,-143,71,-165,191","w":534},"\u0440":{"d":"68,198r-83,0r97,-510v11,-58,21,-124,27,-173r76,0v-2,29,-13,66,-11,92v43,-64,107,-102,174,-102v104,0,148,86,148,175v0,207,-183,396,-389,309xm146,-216r-25,135v143,93,289,-70,289,-233v0,-51,-22,-112,-93,-112v-65,0,-147,74,-171,210","w":527},"\u0441":{"d":"352,-85r8,65v-25,13,-75,30,-140,30v-125,0,-186,-84,-186,-187v0,-197,191,-381,397,-296r-24,65v-19,-9,-46,-18,-82,-18v-126,0,-205,124,-205,238v0,79,41,130,120,130v50,0,87,-15,112,-27","w":423},"\u0442":{"d":"109,0r-81,0r65,-343v9,-54,17,-101,22,-141r73,0r-13,91r3,0v45,-68,106,-102,170,-102v74,0,109,47,113,108v43,-70,105,-107,177,-108v56,0,118,36,118,127v0,130,-43,247,-62,368r-81,0r52,-279v14,-66,13,-147,-66,-147v-60,0,-132,70,-152,178r-46,248r-80,0r54,-284v10,-68,19,-142,-66,-142v-61,0,-136,80,-155,183","w":808},"\u0443":{"d":"47,-484r87,0r72,390r2,0r171,-390r88,0v-106,208,-195,471,-346,622v-54,55,-113,78,-140,84r-21,-72v70,-21,145,-83,183,-158v4,-8,4,-13,2,-22","w":438},"\u0444":{"d":"216,198r50,-251v-26,33,-60,64,-121,64v-73,0,-116,-68,-116,-162v0,-138,81,-344,228,-344v45,0,68,33,83,62r52,-277r76,0r-57,280v27,-27,65,-65,120,-65v87,0,120,80,120,171v0,139,-77,335,-219,335v-47,0,-76,-34,-92,-63r-46,250r-78,0xm314,-304v14,-56,-1,-126,-52,-126v-101,0,-150,181,-150,271v0,62,24,103,67,103v107,0,111,-149,135,-248xm569,-316v0,-58,-13,-111,-62,-111v-62,0,-111,76,-120,145v-11,79,-61,226,44,226v90,0,138,-167,138,-260","w":678},"\u0445":{"d":"63,-484r90,0r79,183r3,0v42,-63,95,-124,142,-183r96,0r-204,235r114,249r-90,0r-49,-110v-16,-36,-23,-55,-34,-86r-3,0v-39,67,-100,134,-148,196r-96,0r212,-250","w":441},"\u0446":{"d":"415,0v-36,-6,-63,-48,-57,-93r-2,0v-42,63,-108,104,-174,104v-63,0,-131,-30,-131,-140v0,-123,43,-239,62,-355r82,0r-51,270v-15,75,-17,155,69,155v61,0,138,-70,158,-177r47,-248r82,0r-59,315v-13,61,-19,120,58,122r-59,187r-62,0","w":538},"\u0447":{"d":"100,-484r82,0v-10,60,-32,121,-32,186v0,40,18,72,83,72v39,0,92,-21,119,-46r39,-212r82,0r-92,485r-82,0r40,-204v-39,22,-83,41,-135,41v-200,0,-129,-191,-104,-322","w":498},"\u0448":{"d":"113,-484r81,0r-52,279v-14,64,-12,147,61,147v61,0,129,-70,149,-178r46,-248r80,0r-54,284v-10,66,-18,142,62,142v57,0,132,-80,151,-183r45,-243r81,0v-25,157,-70,311,-76,484r-76,0v-1,-35,7,-72,3,-91v-43,67,-100,102,-165,102v-69,0,-107,-47,-111,-108v-43,70,-105,108,-177,108v-51,0,-110,-36,-110,-127v0,-130,43,-247,62,-368","w":789},"\u0449":{"d":"113,-484r81,0r-52,279v-14,64,-12,147,61,147v57,0,128,-70,148,-178r47,-248r80,0r-54,284v-10,66,-18,142,62,142v57,0,132,-80,151,-183r45,-243r81,0r-58,311v-13,60,-22,125,57,126r-60,187r-61,0r37,-140v-39,-8,-60,-52,-58,-92r-3,0v-45,67,-101,103,-170,103v-69,0,-105,-47,-109,-108v-43,70,-106,108,-174,108v-51,0,-113,-36,-113,-127v0,-130,43,-247,62,-368","w":801},"\u044a":{"d":"55,-484r269,0v-45,72,-95,144,-123,224v34,-39,87,-66,144,-66v76,0,127,47,127,125v0,110,-97,208,-231,208v-82,0,-145,-33,-145,-129v0,-91,61,-217,118,-295r-172,0xm313,-264v-72,0,-134,62,-136,138v-1,39,23,71,72,71v73,0,141,-56,141,-130v0,-45,-25,-79,-77,-79","w":514},"\u044b":{"d":"121,-484r82,0r-53,222v70,-94,267,-89,267,65v0,111,-96,204,-236,204v-73,0,-137,-24,-137,-106v0,-140,53,-256,77,-385xm257,-264v-72,0,-132,70,-132,153v0,36,26,56,70,56v70,0,140,-52,140,-129v0,-46,-25,-80,-78,-80xm539,-484r86,0r-92,484r-87,0","w":649},"\u044c":{"d":"122,-484r82,0r-54,222v33,-37,88,-64,141,-64v75,0,130,47,130,127v0,115,-97,206,-237,206v-75,0,-140,-25,-140,-110v0,-136,54,-254,78,-381xm261,-264v-77,0,-133,68,-135,150v0,38,26,59,70,59v72,0,143,-51,143,-129v0,-46,-23,-80,-78,-80","w":463},"\u044d":{"d":"95,-216r10,-59r217,0v8,-87,-41,-153,-136,-153v-45,0,-84,11,-110,23r-16,-60v30,-14,80,-30,135,-30v136,0,210,89,210,224v0,158,-102,282,-276,282v-51,0,-104,-11,-140,-35r23,-61v24,13,70,29,117,29v99,0,168,-60,186,-160r-220,0","w":440},"\u044e":{"d":"120,-484r84,0r-38,197r78,0v33,-119,124,-208,241,-208v123,0,183,99,183,204v0,148,-101,302,-257,302v-131,0,-195,-107,-177,-235r-80,0r-42,224r-83,0xm312,-191v0,75,40,137,109,137v92,0,162,-127,162,-239v0,-57,-25,-136,-106,-136v-100,0,-165,132,-165,238","w":698},"\u044f":{"d":"-15,0v54,-84,79,-211,190,-232r0,-2v-51,-12,-101,-48,-101,-109v0,-171,228,-155,376,-138r-91,481r-81,0r39,-204r-49,0v-120,-8,-147,127,-195,204r-88,0xm328,-263r31,-163v-80,-14,-203,-11,-199,85v3,72,90,83,168,78","w":474},"\u0451":{"d":"365,-90r12,62v-36,20,-95,38,-160,38v-128,0,-184,-87,-184,-194v0,-146,108,-311,264,-311v92,0,142,55,142,125v0,127,-143,160,-322,157v-4,21,-1,66,10,91v19,44,58,65,108,65v57,0,100,-17,130,-33xm127,-277v130,2,233,-15,232,-92v0,-39,-30,-61,-74,-61v-79,0,-138,77,-158,153xm273,-623v0,29,-21,53,-52,53v-27,0,-47,-21,-47,-49v0,-30,23,-53,52,-53v29,0,47,22,47,49xm456,-623v0,29,-21,53,-53,53v-27,0,-46,-21,-46,-49v0,-30,23,-53,52,-53v29,0,47,22,47,49","w":453}}});
/*!
 * The following copyright notice may not be removed under any circumstances.
 * 
 * Copyright:
 * Copyright © 2000 Adobe Systems Incorporated. All Rights Reserved. U.S. Patent
 * Des. pending.
 * 
 * Trademark:
 * Myriad is a registered trademark of Adobe Systems Incorporated.
 * 
 * Full name:
 * MyriadPro-It
 * 
 * Designer:
 * Robert Slimbach and Carol Twombly
 * 
 * Vendor URL:
 * http://www.adobe.com/type
 * 
 * License information:
 * http://www.adobe.com/type/legal.html
 */
Cufon.registerFont({"w":492,"face":{"font-family":"Myriad Pro","font-weight":400,"font-style":"italic","font-stretch":"normal","units-per-em":"1000","panose-1":"2 11 5 3 3 4 3 9 2 4","ascent":"750","descent":"-250","x-height":"11","bbox":"-112 -827 894 250","underline-thickness":"50","underline-position":"-50","slope":"-11","stemh":"65","stemv":"88","unicode-range":"U+0020-U+0451"},"glyphs":{" ":{"w":182},"\u00a0":{"w":182},"!":{"d":"142,-194r-66,0r79,-480r94,0xm141,-55v0,37,-26,66,-64,66v-32,0,-54,-26,-54,-58v0,-37,26,-67,62,-67v34,0,56,26,56,59","w":236},"\"":{"d":"121,-692r87,0r-62,242r-55,0xm271,-692r86,0r-62,242r-55,0","w":304},"#":{"d":"193,-254r91,0r45,-147r-90,0xm114,0r-58,0r60,-197r-82,0r10,-57r91,0r46,-147r-87,0r10,-57r94,0r60,-192r58,0r-60,192r91,0r60,-192r58,0r-60,192r82,0r-10,57r-90,0r-45,147r86,0r-10,57r-95,0r-60,197r-59,0r61,-197r-90,0"},"$":{"d":"211,85r-61,0r19,-100v-48,-2,-104,-23,-131,-44r27,-65v33,23,76,43,134,43v72,0,130,-44,130,-111v0,-44,-21,-79,-84,-112v-83,-43,-129,-92,-129,-160v0,-89,74,-164,176,-174r19,-97r61,0r-19,97v49,2,90,19,109,34r-28,62v-21,-12,-56,-32,-115,-32v-71,0,-115,44,-115,98v0,45,24,69,97,109v76,41,116,93,116,159v0,111,-82,180,-187,193"},"%":{"d":"69,-406v0,-123,72,-256,188,-255v82,0,119,66,119,136v0,142,-75,262,-184,262v-77,0,-123,-58,-123,-143xm308,-521v0,-39,-12,-88,-62,-87v-67,0,-109,115,-109,203v0,47,14,89,63,89v67,0,108,-118,108,-205xm186,12r-60,0r490,-674r60,0xm431,-138v0,-124,72,-255,187,-254v82,0,119,65,119,134v0,143,-75,265,-184,265v-76,0,-122,-58,-122,-145xm669,-253v0,-39,-12,-87,-62,-86v-66,0,-108,113,-108,203v0,46,14,90,63,90v67,0,107,-120,107,-207","w":773},"&":{"d":"533,0r-98,0v-17,-20,-30,-38,-46,-62v-56,51,-116,73,-190,73v-116,0,-182,-75,-182,-168v0,-106,84,-178,167,-218v-20,-46,-37,-83,-37,-126v0,-100,75,-184,179,-184v90,0,136,61,136,133v0,80,-57,142,-173,196v33,67,87,138,121,190v41,-51,73,-117,102,-202r78,0v-37,108,-80,192,-142,256v25,35,52,72,85,112xm101,-170v0,65,43,116,121,116v53,0,98,-24,132,-60v-32,-47,-90,-129,-140,-213v-44,27,-113,75,-113,157xm385,-550v0,-39,-18,-77,-68,-76v-93,-1,-121,150,-61,223v81,-39,129,-83,129,-147","w":589},"(":{"d":"279,-691r71,0v-105,119,-210,304,-210,534v0,91,14,178,55,276r-63,0v-41,-82,-64,-171,-64,-278v0,-238,112,-424,211,-532","w":284},")":{"d":"25,119r-71,0v156,-163,289,-516,155,-810r64,0v41,81,63,170,63,276v0,239,-112,425,-211,534","w":284},"*":{"d":"338,-685r57,35r-110,123v46,1,104,-14,153,-17r-14,67r-143,-18r-1,3r82,120r-64,36v-18,-45,-29,-98,-50,-140r-79,141r-53,-37r109,-121r0,-3r-150,19r13,-67r140,19v-23,-45,-54,-82,-79,-125r64,-34v18,45,29,96,50,138","w":414},"+":{"d":"274,-532r62,0r0,235r219,0r0,59r-219,0r0,238r-62,0r0,-238r-219,0r0,-59r219,0r0,-235","w":596},",":{"d":"21,117r-64,7v31,-60,77,-167,98,-240r99,-10v-36,85,-98,196,-133,243","w":211},"-":{"d":"48,-302r239,0r-12,64r-239,0","w":307},"\u00ad":{"d":"48,-302r239,0r-12,64r-239,0","w":307},".":{"d":"140,-56v0,37,-26,66,-64,66v-33,0,-55,-26,-55,-59v0,-37,26,-67,63,-67v34,0,56,26,56,60","w":211},"\/":{"d":"13,40r-67,0r402,-725r68,0","w":326},"0":{"d":"488,-457v0,213,-100,469,-282,468v-120,0,-163,-98,-163,-223v0,-216,113,-449,284,-449v124,0,161,103,161,204xm126,-208v0,69,13,153,91,152v122,0,188,-265,188,-396v0,-51,-7,-142,-87,-142v-113,0,-192,227,-192,386"},"1":{"d":"181,0r108,-566v-40,17,-75,38,-113,56r-9,-66r147,-74r71,0r-124,650r-80,0"},"2":{"d":"393,0r-393,0r10,-55r97,-81v174,-147,276,-248,276,-355v0,-47,-26,-99,-101,-99v-58,0,-104,26,-134,47r-21,-60v45,-34,112,-58,173,-58v122,0,169,81,169,159v0,153,-189,310,-336,431r273,0"},"3":{"d":"16,-30r28,-66v25,15,66,36,125,36v111,0,162,-76,162,-143v0,-92,-77,-121,-172,-115r13,-65v90,6,194,-28,194,-126v0,-50,-30,-81,-92,-81v-49,0,-94,16,-123,36r-18,-63v41,-25,98,-44,155,-44v109,0,166,65,166,140v0,87,-73,144,-144,170v71,17,109,78,109,147v0,123,-111,215,-253,215v-70,0,-128,-21,-150,-41"},"4":{"d":"335,0r-78,0r34,-181r-280,0r11,-56r346,-413r91,0r-77,403r88,0r-13,66r-88,0xm113,-247r190,0r43,-215v7,-35,16,-70,24,-104r-3,0v-73,121,-169,211,-254,319"},"5":{"d":"487,-650r-14,72r-223,0r-51,165v54,-6,94,1,146,29v54,29,77,88,77,143v0,158,-126,252,-267,252v-63,0,-118,-19,-140,-36r26,-66v23,15,69,31,122,31v92,0,173,-73,173,-163v0,-70,-36,-125,-157,-125v-27,0,-47,2,-73,4r90,-306r291,0"},"6":{"d":"470,-660r-12,71v-165,2,-262,98,-318,241r2,1v38,-49,101,-82,160,-82v102,0,157,78,157,177v0,127,-99,263,-239,263v-124,0,-185,-91,-185,-214v0,-245,167,-424,379,-453v23,-4,42,-4,56,-4xm270,-363v-71,0,-157,66,-153,172v3,78,37,135,109,135v86,0,147,-99,147,-191v0,-76,-38,-116,-103,-116"},"7":{"d":"134,-650r389,0r-11,58r-377,592r-92,0r375,-577v-93,-7,-201,1,-298,-2"},"8":{"d":"177,-349v-154,-104,-38,-312,138,-312v95,0,164,57,164,147v0,77,-52,134,-127,169r-1,3v67,36,96,95,96,154v0,128,-115,199,-228,199v-122,0,-195,-69,-195,-161v0,-100,72,-165,152,-196xm111,-160v0,56,37,108,114,108v76,0,136,-52,136,-129v0,-64,-37,-105,-114,-132v-67,18,-136,68,-136,153xm397,-504v0,-44,-23,-95,-95,-94v-66,0,-116,54,-116,115v0,51,31,87,95,110v64,-21,116,-69,116,-131"},"9":{"d":"56,10r10,-71v170,-2,264,-101,319,-240r-3,0v-40,46,-97,70,-148,70v-107,0,-158,-83,-158,-168v0,-133,106,-262,241,-262v123,0,175,94,175,205v0,162,-91,310,-168,374v-76,63,-155,92,-268,92xm259,-296v82,0,153,-63,149,-170v-3,-74,-28,-128,-101,-128v-80,0,-146,91,-146,185v0,65,33,113,98,113"},":":{"d":"206,-408v0,37,-26,66,-64,66v-32,0,-54,-26,-54,-58v0,-37,26,-67,62,-67v34,0,56,25,56,59xm139,-55v0,37,-26,66,-64,66v-32,0,-54,-26,-54,-58v0,-37,26,-67,62,-67v34,0,56,25,56,59","w":211},";":{"d":"20,117r-63,7v31,-60,76,-167,98,-240r98,-10v-36,85,-97,196,-133,243xm211,-408v0,37,-26,66,-64,66v-32,0,-54,-26,-54,-58v0,-37,26,-67,62,-67v34,0,56,25,56,59","w":211},"<":{"d":"78,-239r0,-54r448,-239r0,68r-375,197r0,2r375,197r0,68","w":596},"=":{"d":"556,-338r-500,0r0,-59r500,0r0,59xm556,-141r-500,0r0,-59r500,0r0,59","w":596},">":{"d":"541,-294r0,56r-448,238r0,-68r378,-197r0,-2r-378,-197r0,-68","w":596},"?":{"d":"208,-192r-81,0v6,-82,28,-128,100,-208v44,-48,87,-92,87,-146v0,-35,-18,-70,-76,-70v-38,0,-72,10,-100,28r-16,-61v38,-23,85,-37,137,-37v97,0,141,64,141,125v0,130,-182,220,-188,341v-1,9,-2,19,-4,28xm200,-55v0,37,-26,66,-64,66v-32,0,-54,-26,-54,-58v0,-37,26,-67,62,-67v34,0,56,26,56,59","w":384},"@":{"d":"440,-255r21,-112v-112,-36,-212,58,-211,172v0,44,23,76,67,76v58,0,112,-74,123,-136xm499,21r16,44v-220,110,-480,-11,-480,-273v0,-206,142,-384,364,-384v175,0,291,122,291,289v0,150,-84,238,-178,238v-40,0,-76,-26,-74,-88r-3,0v-36,59,-82,88,-142,88v-58,0,-108,-47,-108,-126v0,-124,98,-237,237,-237v43,0,82,9,107,21r-33,181v-15,76,-4,111,30,112v51,2,108,-67,108,-182v0,-146,-88,-250,-243,-250v-164,0,-300,129,-300,332v0,167,105,271,260,271v52,0,108,-13,148,-36","w":720},"A":{"d":"401,-213r-233,0r-107,213r-87,0r348,-674r98,0r93,674r-85,0xm199,-279r196,0r-27,-195v-3,-35,-8,-85,-11,-124r-3,0v-46,110,-102,215,-155,319","w":568},"B":{"d":"471,-207v0,154,-133,214,-299,212v-58,0,-108,-4,-139,-10r124,-660v42,-8,90,-14,145,-14v117,0,201,49,204,151v3,88,-73,146,-145,171v60,18,110,69,110,150xm229,-607r-42,219v125,10,233,-29,233,-132v0,-90,-111,-104,-191,-87xm174,-325r-48,259v128,17,258,-13,258,-145v0,-103,-100,-121,-210,-114","w":519},"C":{"d":"433,-613v-174,0,-296,154,-296,332v0,120,55,220,205,220v51,0,107,-10,144,-29r11,68v-38,17,-99,32,-175,32v-170,0,-273,-107,-273,-279v0,-222,164,-415,398,-415v74,0,128,19,146,32r-27,67v-25,-15,-73,-28,-133,-28","w":555},"D":{"d":"33,-4r125,-661v52,-9,109,-14,168,-14v112,0,197,33,248,90v35,38,63,98,63,183v0,122,-51,241,-135,317v-102,93,-293,106,-469,85xm215,-64v212,6,333,-144,333,-338v0,-120,-58,-209,-226,-209v-30,0,-68,2,-92,7r-102,535v30,4,62,5,87,5","w":647},"E":{"d":"433,-387r-14,70r-245,0r-46,246r276,0r-14,71r-359,0r128,-674r344,0r-14,71r-260,0r-41,216r245,0","w":470},"F":{"d":"31,0r128,-674r342,0r-14,71r-258,0r-44,227r238,0r-14,70r-238,0r-57,306r-83,0","w":465},"G":{"d":"448,-609v-179,0,-310,156,-310,329v0,130,65,216,215,216v40,0,78,-8,102,-19r39,-201r-137,0r13,-68r218,0r-61,323v-39,16,-111,36,-190,36v-95,0,-171,-25,-220,-84v-128,-155,-70,-381,63,-504v71,-66,170,-100,278,-100v82,0,138,19,159,31r-28,70v-34,-17,-80,-29,-141,-29","w":623},"H":{"d":"159,-674r83,0r-54,284r310,0r54,-284r83,0r-128,674r-83,0r59,-317r-309,0r-60,317r-83,0","w":627},"I":{"d":"158,-674r83,0r-128,674r-83,0","w":233},"J":{"d":"210,-220r86,-454r83,0r-88,464v-30,157,-96,221,-222,221v-41,0,-83,-9,-100,-18r18,-71v114,35,193,16,223,-142","w":364},"K":{"d":"31,0r128,-674r82,0r-62,328r4,-1r67,-75r237,-252r104,0r-284,290r173,384r-90,0r-147,-331r-81,75r-49,256r-82,0","w":515},"L":{"d":"31,0r128,-674r83,0r-115,602r272,0r-14,72r-354,0","w":442},"M":{"d":"676,0r-80,0r48,-364v9,-64,24,-163,36,-228r-3,0v-90,202,-204,396,-306,588r-63,0r-50,-363v-10,-78,-17,-156,-21,-225r-3,0v-14,62,-35,164,-51,228r-92,364r-78,0r175,-674r106,0r53,387v7,57,14,119,16,169r3,0v82,-189,193,-375,287,-556r109,0","w":780},"N":{"d":"109,0r-78,0r128,-674r91,0v69,181,165,378,213,570v18,-170,67,-397,99,-570r78,0r-128,674r-82,0v-69,-182,-167,-382,-216,-575r-3,1v-21,174,-70,397,-102,574","w":632},"O":{"d":"658,-409v0,206,-131,425,-354,420v-332,-7,-302,-439,-127,-605v58,-56,141,-91,226,-91v181,0,255,132,255,276xm392,-615v-168,0,-256,192,-256,345v0,110,48,211,180,211v166,0,254,-192,254,-346v0,-96,-31,-210,-178,-210","w":668},"P":{"d":"518,-506v-4,180,-167,262,-354,235r-51,271r-82,0r127,-665v37,-8,91,-14,146,-14v118,-1,217,53,214,173xm227,-605r-50,264v137,30,257,-43,257,-159v0,-107,-116,-125,-207,-105","w":507},"Q":{"d":"657,-409v0,166,-95,360,-247,397r0,3v59,13,122,26,179,34r-32,69v-118,-26,-207,-63,-280,-84v-127,-8,-229,-106,-229,-274v0,-115,45,-245,125,-325v59,-60,145,-96,230,-96v183,0,254,136,254,276xm392,-615v-169,-1,-255,197,-256,347v0,107,46,209,177,209v173,0,257,-197,257,-348v0,-88,-30,-208,-178,-208","w":668},"R":{"d":"516,-519v0,101,-79,170,-161,198v48,16,70,66,75,135v7,94,12,159,21,186r-86,0v-4,-14,-12,-85,-16,-163v-6,-127,-65,-138,-180,-131r-55,294r-83,0r127,-665v152,-33,358,-17,358,146xm229,-606r-47,248r74,0v105,0,173,-69,173,-150v0,-98,-113,-119,-200,-98","w":523},"S":{"d":"12,-37r30,-68v87,68,291,60,289,-83v0,-50,-28,-87,-99,-126v-86,-46,-134,-100,-134,-173v0,-120,104,-197,228,-197v66,0,115,19,138,35r-30,68v-21,-13,-63,-32,-116,-32v-84,0,-134,55,-134,110v0,55,34,87,105,125v83,45,128,97,128,180v0,116,-91,208,-243,208v-68,0,-134,-22,-162,-47","w":466},"T":{"d":"148,0r114,-602r-197,0r14,-72r478,0r-14,72r-198,0r-114,602r-83,0","w":474},"U":{"d":"158,-674r83,0r-76,399v-5,28,-8,57,-8,85v0,86,50,130,125,130v92,0,159,-62,188,-214r77,-400r83,0r-77,403v-39,201,-139,282,-282,282v-111,0,-197,-60,-197,-199v0,-174,59,-324,84,-486","w":621},"V":{"d":"259,0r-92,0r-83,-674r85,0r49,432v7,69,12,108,12,152r3,0v77,-185,198,-400,289,-584r91,0","w":539},"W":{"d":"219,0r-89,0r-33,-674r83,0r15,404v2,87,1,133,0,175r2,0v64,-175,178,-402,256,-579r89,0r14,388v3,87,3,146,1,190r2,0v69,-201,166,-388,248,-578r87,0r-313,674r-88,0r-17,-383v-4,-79,-3,-117,2,-194r-3,0v-69,207,-171,385,-256,577","w":829},"X":{"d":"466,0r-88,0r-107,-285r-2,0v-21,32,-45,69,-79,116r-121,169r-99,0r263,-343r-126,-331r87,0r64,173v16,39,22,75,36,102r69,-102r129,-173r99,0r-260,330","w":521},"Y":{"d":"243,0r-82,0r53,-280r-130,-394r89,0r65,218v19,60,19,90,30,113r72,-116r146,-215r97,0r-287,393","w":517},"Z":{"d":"-20,0r9,-51r458,-549r-1,-3r-320,0r14,-71r432,0r-11,53r-454,547r1,3r354,0r-13,71r-469,0","w":523},"[":{"d":"194,111r-175,0r152,-797r175,0r-10,54r-108,0r-131,689r107,0","w":284},"\\":{"d":"310,40r-65,0r-184,-725r65,0","w":329},"]":{"d":"109,-686r175,0r-152,797r-175,0r10,-54r108,0r131,-689r-107,0","w":284},"^":{"d":"534,-189r-68,0r-164,-388r-2,0r-164,388r-67,0r202,-461r61,1","w":596},"_":{"d":"-49,75r500,0r-10,50r-500,0","w":500},"a":{"d":"426,0r-77,0v-2,-27,10,-81,9,-125v-53,101,-120,136,-188,136v-86,0,-139,-68,-139,-160v0,-169,124,-346,335,-346v46,0,96,8,130,18v-26,139,-75,331,-70,477xm375,-276r28,-146v-161,-41,-284,105,-286,258v0,54,19,107,83,107v69,0,151,-90,175,-219","w":522},"b":{"d":"159,-710r83,0r-64,314r2,0v43,-65,105,-99,170,-99v106,0,146,88,146,174v0,149,-107,332,-301,332v-85,0,-149,-35,-149,-124v0,-24,4,-53,9,-76xm318,-426v-103,0,-187,154,-187,301v0,46,27,71,78,71v125,0,201,-149,201,-257v0,-60,-26,-115,-92,-115","w":525},"c":{"d":"353,-85r8,65v-25,13,-75,30,-140,30v-125,0,-186,-84,-186,-187v0,-197,191,-381,397,-296r-24,65v-19,-9,-46,-18,-82,-18v-126,0,-205,124,-205,238v0,79,41,130,120,130v50,0,87,-15,112,-27","w":423},"d":{"d":"460,-710r83,0r-107,556v-9,51,-17,107,-20,154r-76,0v2,-31,13,-69,11,-96v-44,69,-105,107,-175,107v-93,0,-144,-77,-144,-176v-2,-198,177,-386,385,-313xm371,-239r32,-169v-142,-77,-285,75,-285,232v0,58,20,119,91,119v64,0,141,-73,162,-182","w":525},"e":{"d":"365,-90r12,62v-36,20,-95,38,-160,38v-128,0,-184,-87,-184,-194v0,-146,108,-311,264,-311v92,0,142,55,142,125v0,127,-143,160,-322,157v-4,21,-1,66,10,91v19,44,58,65,108,65v57,0,100,-17,130,-33xm127,-277v130,2,233,-15,232,-92v0,-39,-30,-61,-74,-61v-79,0,-138,77,-158,153","w":453},"f":{"d":"123,0r-83,0r79,-419r-64,0r12,-65r65,0v9,-143,109,-278,265,-224r-18,66v-102,-39,-154,51,-165,158r108,0r-13,65r-107,0","w":283},"g":{"d":"10,175r23,-65v29,19,78,32,128,32v82,0,148,-41,174,-172v5,-23,16,-53,14,-73v-43,69,-102,103,-168,103v-98,0,-148,-82,-148,-168v0,-165,120,-327,307,-327v56,0,118,16,156,34r-75,400v-19,103,-47,173,-97,217v-82,71,-231,64,-314,19xm374,-251r31,-161v-16,-8,-46,-17,-80,-17v-121,0,-205,127,-205,247v0,54,19,116,93,116v71,0,143,-90,161,-185","w":524},"h":{"d":"111,0r-83,0r135,-710r83,0r-60,311r2,0v41,-59,100,-96,173,-96v55,0,120,33,120,130v0,132,-43,243,-62,365r-83,0v19,-118,60,-218,60,-347v0,-44,-21,-79,-75,-79v-64,0,-145,75,-165,183","w":534},"i":{"d":"111,0r-83,0r93,-484r82,0xm240,-622v0,33,-24,56,-57,56v-29,0,-47,-22,-47,-52v1,-32,25,-56,55,-56v29,0,49,22,49,52","w":229},"j":{"d":"125,-484r83,0r-92,483v-22,147,-78,229,-228,204r10,-65v80,13,109,-2,132,-122xm240,-622v0,33,-24,56,-57,56v-29,0,-47,-22,-47,-52v1,-32,25,-56,55,-56v29,0,49,22,49,52","w":227},"k":{"d":"110,0r-82,0r135,-710r83,0r-85,446r217,-220r103,0r-211,200r144,284r-91,0r-117,-238r-61,55","w":456},"l":{"d":"112,0r-83,0r135,-710r83,0","w":229},"m":{"d":"109,0r-81,0r65,-343v10,-54,17,-101,22,-141r73,0r-13,91r3,0v45,-68,106,-102,170,-102v74,0,109,47,113,108v43,-70,105,-107,177,-108v56,0,118,36,118,127v0,130,-43,247,-62,368r-81,0r52,-279v14,-66,13,-147,-66,-147v-60,0,-132,70,-152,178r-46,248r-80,0r54,-284v10,-68,19,-142,-66,-142v-61,0,-136,80,-155,183","w":808},"n":{"d":"111,0r-82,0r64,-343v11,-54,18,-101,23,-141r75,0v-2,30,-13,68,-11,95v44,-68,109,-106,180,-106v57,0,122,33,122,134v0,127,-44,242,-63,361r-82,0r53,-280v12,-68,13,-146,-70,-146v-59,0,-143,71,-165,191","w":534},"o":{"d":"493,-294v0,150,-106,306,-269,305v-121,0,-189,-90,-189,-199v0,-160,111,-307,268,-307v131,0,190,99,190,201xm121,-191v0,79,44,136,114,136v98,0,172,-126,172,-239v0,-56,-26,-135,-113,-135v-104,0,-173,127,-173,238","w":522},"p":{"d":"68,198r-83,0r97,-510v11,-58,21,-124,27,-173r76,0v-2,29,-13,66,-11,92v43,-64,107,-102,174,-102v104,0,148,86,148,175v0,207,-183,396,-389,309xm146,-216r-25,135v143,93,289,-70,289,-233v0,-51,-22,-112,-93,-112v-65,0,-146,74,-171,210","w":525},"q":{"d":"370,198r-83,0r59,-286r-2,0v-41,64,-107,99,-168,99v-96,0,-144,-81,-144,-176v0,-162,120,-330,308,-330v64,0,120,16,155,32xm372,-244r31,-168v-148,-65,-287,72,-285,237v0,75,33,118,84,118v78,0,151,-88,170,-187","w":525},"r":{"d":"111,0r-83,0r59,-312v12,-63,19,-127,25,-172r73,0v-4,34,-8,68,-14,105r3,0v38,-72,87,-126,172,-114r-16,82v-6,-1,-13,-2,-23,-2v-71,0,-135,87,-156,199","w":318},"s":{"d":"9,-23r24,-61v22,14,64,30,104,30v56,0,92,-36,92,-79v0,-38,-17,-61,-68,-89v-56,-31,-87,-74,-87,-123v0,-85,73,-150,176,-150v43,0,82,12,100,24r-23,63v-17,-10,-47,-22,-83,-22v-51,0,-87,31,-87,73v0,35,23,56,67,81v54,30,90,73,90,127v0,102,-82,159,-185,159v-52,0,-98,-16,-120,-33","w":373},"t":{"d":"155,-573r87,-27r-22,116r116,0r-13,65r-116,0r-44,235v-10,50,-28,124,36,124v15,0,28,-1,39,-4r-4,65v-15,6,-40,9,-64,9v-113,-4,-109,-89,-91,-184r47,-245r-69,0r12,-65r69,0","w":313},"u":{"d":"418,-484r83,0r-66,343v-10,54,-17,101,-21,141r-75,0v2,-29,13,-65,11,-91v-44,63,-107,102,-171,102v-62,0,-128,-30,-128,-140v0,-123,43,-240,62,-355r82,0r-51,270v-15,75,-17,155,69,155v61,0,138,-71,158,-177","w":526},"v":{"d":"52,-484r84,0r42,276v7,55,14,93,15,119r3,0v49,-118,139,-276,199,-395r91,0r-269,484r-81,0","w":455},"w":{"d":"61,-484r82,0r17,272v4,60,3,91,2,130r3,0v50,-129,135,-276,196,-402r73,0r30,276v7,52,4,98,10,126v45,-138,119,-273,177,-402r84,0r-239,484r-77,0r-32,-263v-7,-44,-3,-91,-9,-129v-56,141,-129,261,-195,392r-77,0","w":707},"x":{"d":"63,-484r90,0r79,183r3,0v42,-63,95,-124,142,-183r96,0r-204,235r114,249r-90,0r-49,-110v-16,-36,-23,-55,-34,-86r-3,0v-39,67,-100,134,-148,196r-96,0r212,-250","w":441},"y":{"d":"48,-484r86,0r70,388r2,0v13,-31,27,-65,52,-119r124,-269r88,0r-182,368v-52,104,-102,189,-167,254v-55,55,-113,78,-140,84r-21,-72v70,-22,145,-82,183,-158v4,-8,4,-13,2,-22","w":441},"z":{"d":"-21,0r9,-51r235,-262v41,-45,68,-70,101,-100r0,-3r-248,0r14,-68r347,0r-11,55r-231,258r-101,103r269,0r-14,68r-370,0","w":415},"{":{"d":"46,9v-1,-71,51,-155,53,-219v0,-19,-7,-55,-66,-54r9,-51v137,-6,85,-139,109,-240v24,-99,82,-136,182,-131r-10,54v-125,-14,-108,128,-121,233v-8,69,-48,95,-91,111v120,41,4,200,3,282v-1,42,26,68,78,63r-11,54v-80,4,-135,-28,-135,-102","w":284},"|":{"d":"95,-750r62,0r0,1000r-62,0r0,-1000","w":217},"}":{"d":"251,-584v1,73,-51,153,-53,218v0,19,7,54,66,53r-9,51v-137,6,-85,140,-109,242v-24,99,-82,136,-182,131r10,-54v125,14,108,-128,121,-235v8,-68,48,-94,91,-111v-120,-41,-3,-195,-3,-280v0,-42,-26,-68,-78,-63r11,-54v80,-4,134,28,135,102","w":284},"~":{"d":"436,-209v-66,0,-181,-84,-256,-85v-34,0,-56,30,-57,81r-60,0v-3,-97,51,-146,118,-146v65,0,190,84,257,84v36,0,53,-28,54,-81r59,0v5,109,-52,147,-115,147","w":596},"'":{"d":"128,-692r86,0r-62,242r-54,0","w":166},"`":{"d":"144,-686r94,0r66,143r-60,0","w":383},"\u0410":{"d":"401,-213r-233,0r-107,213r-87,0r348,-674r98,0r93,674r-85,0xm199,-279r196,0r-27,-195v-3,-35,-8,-85,-11,-124r-3,0v-46,110,-102,215,-155,319","w":568},"\u0411":{"d":"479,-236v0,216,-239,266,-447,234r127,-672r340,0r-13,71r-257,0r-35,186v151,-26,285,26,285,181xm181,-352r-54,287v127,23,263,-30,266,-160v3,-116,-100,-148,-212,-127","w":519},"\u0412":{"d":"471,-207v0,154,-133,214,-299,212v-58,0,-108,-4,-139,-10r123,-660v42,-8,90,-14,145,-14v117,0,201,49,204,151v3,88,-73,146,-144,171v60,18,110,69,110,150xm228,-607r-42,219v125,10,233,-29,233,-132v0,-90,-111,-104,-191,-87xm173,-325r-47,259v128,17,258,-13,258,-145v0,-103,-101,-121,-211,-114","w":520},"\u0413":{"d":"159,-674r317,0r-14,73r-234,0r-114,601r-83,0","w":393},"\u0414":{"d":"228,-674r358,0r-114,605r57,2r-54,229r-68,0r27,-162r-399,0r-39,162r-67,0r38,-229r47,-2v126,-158,173,-367,214,-605xm291,-603v-33,203,-82,399,-189,533r287,0r100,-533r-198,0","w":602},"\u0415":{"d":"433,-387r-14,70r-245,0r-46,246r276,0r-14,71r-359,0r128,-674r344,0r-14,71r-260,0r-41,216r245,0","w":470},"\u0416":{"d":"106,-674r89,0r152,305r20,0r56,-305r79,0r-57,305r22,0r261,-305r96,0r-290,315v151,23,137,222,177,359r-84,0v-14,-50,-20,-108,-31,-168v-18,-101,-55,-147,-161,-141r-58,309r-80,0r58,-309v-113,-5,-156,42,-212,152v-27,54,-49,105,-78,157r-89,0v33,-50,61,-117,92,-178v60,-115,108,-168,214,-182","w":771},"\u0417":{"d":"125,-322r12,-65v105,6,209,-30,209,-135v0,-59,-42,-95,-99,-95v-49,0,-94,18,-130,39r-19,-59v102,-74,334,-73,334,103v0,96,-76,153,-154,178v72,16,125,72,125,156v0,135,-112,211,-247,211v-65,0,-127,-20,-169,-47r28,-64v26,16,85,41,142,41v87,0,160,-51,160,-145v0,-95,-95,-126,-192,-118","w":449},"\u0418":{"d":"160,-674r79,0r-57,302v-19,98,-36,181,-58,266r2,1v123,-194,286,-384,425,-569r87,0r-128,674r-79,0r59,-311v19,-95,33,-166,53,-247r-2,-1v-121,192,-280,377,-417,559r-92,0","w":629},"\u0419":{"d":"160,-674r79,0r-57,302v-19,98,-36,181,-58,266r2,1v123,-194,286,-384,425,-569r87,0r-128,674r-79,0r59,-311v19,-95,33,-166,53,-247r-2,-1v-121,192,-280,377,-417,559r-92,0xm297,-827r64,0v-1,32,14,60,55,60v42,0,63,-23,72,-60r66,0v-13,61,-63,105,-142,105v-83,0,-116,-45,-115,-105","w":629},"\u041a":{"d":"159,-674r81,0r-57,304r21,0r278,-304r102,0r-305,315v93,17,131,88,151,193v11,59,18,118,34,166r-86,0v-13,-38,-21,-104,-30,-156v-20,-111,-60,-158,-177,-153r-58,309r-82,0","w":523},"\u041b":{"d":"217,-674r380,0r-129,674r-83,0r116,-603r-217,0r-39,207v-35,181,-80,290,-144,349v-27,26,-72,54,-132,56r-8,-70v35,-4,65,-23,88,-44v98,-89,130,-385,168,-569","w":589},"\u041c":{"d":"676,0r-80,0r48,-364v9,-64,24,-163,36,-228r-3,0v-90,202,-204,396,-306,588r-63,0r-50,-363v-10,-78,-17,-156,-21,-225r-3,0v-14,62,-35,164,-51,228r-92,364r-78,0r175,-674r106,0r53,387v7,57,14,119,16,169r3,0v82,-189,193,-375,287,-556r109,0","w":780},"\u041d":{"d":"159,-674r83,0r-54,284r310,0r54,-284r83,0r-128,674r-83,0r59,-317r-309,0r-60,317r-83,0","w":627},"\u041e":{"d":"658,-409v1,207,-132,425,-354,420v-328,-7,-303,-429,-134,-598v59,-60,145,-98,233,-98v181,0,255,132,255,276xm136,-270v0,110,48,212,180,211v144,0,254,-183,254,-346v0,-96,-31,-210,-178,-210v-152,0,-256,190,-256,345","w":668},"\u041f":{"d":"159,-674r460,0r-128,674r-83,0r116,-603r-295,0r-115,603r-83,0","w":611},"\u0420":{"d":"518,-506v-4,180,-167,262,-354,235r-51,271r-82,0r127,-665v37,-8,91,-14,146,-14v118,-1,217,53,214,173xm227,-605r-50,264v137,30,257,-43,257,-159v0,-107,-116,-125,-207,-105","w":507},"\u0421":{"d":"433,-613v-174,0,-296,154,-296,332v0,120,55,220,205,220v51,0,107,-10,144,-29r11,68v-38,17,-99,32,-175,32v-170,0,-273,-107,-273,-279v0,-222,164,-415,398,-415v74,0,128,19,146,32r-27,67v-25,-15,-73,-28,-133,-28","w":555},"\u0422":{"d":"148,0r114,-602r-197,0r14,-72r478,0r-14,72r-198,0r-114,602r-83,0","w":474},"\u0423":{"d":"87,-674r90,0r113,420r2,0r194,-420r93,0r-163,325v-52,104,-120,239,-185,302v-60,59,-126,71,-200,45r17,-69v84,32,144,-36,176,-99v7,-12,8,-22,3,-40","w":495},"\u0424":{"d":"263,26r11,-59v-115,-16,-219,-103,-219,-261v0,-249,190,-355,336,-354r11,-52r78,0r-10,55v117,16,217,101,217,268v0,224,-157,346,-335,348r-10,55r-79,0xm286,-95r93,-491v-108,2,-239,101,-239,288v0,115,62,186,146,203xm457,-584r-92,493v152,-6,238,-131,238,-293v0,-118,-62,-188,-146,-200","w":702},"\u0425":{"d":"466,0r-88,0r-107,-285r-2,0v-21,32,-45,69,-79,116r-121,169r-99,0r263,-343r-126,-331r87,0r64,173v17,39,22,75,36,102r69,-102r129,-173r99,0r-260,330","w":521},"\u0426":{"d":"160,-674r83,0r-115,603r293,0r115,-603r82,0r-115,605r57,2r-54,229r-68,0r27,-162r-433,0","w":620},"\u0427":{"d":"136,-674r83,0r-37,194v-4,18,-10,51,-10,76v0,66,42,97,112,97v57,0,111,-24,135,-42r61,-325r82,0r-128,678r-82,0r53,-280v-33,15,-87,38,-152,38v-144,0,-180,-108,-154,-242","w":555},"\u0428":{"d":"159,-674r82,0r-115,603r207,0r114,-603r82,0r-115,603r207,0r115,-603r82,0r-129,674r-658,0","w":810},"\u0429":{"d":"159,-674r83,0r-116,603r207,0r114,-603r83,0r-116,603r207,0r115,-603r82,0r-116,605r57,2r-53,229r-69,0r27,-162r-633,0","w":820},"\u042a":{"d":"585,-238v0,215,-239,269,-449,236r114,-600r-185,0r14,-72r267,0r-48,253v150,-26,287,28,287,183xm284,-352r-54,285v128,23,263,-26,267,-161v3,-116,-106,-147,-213,-124","w":618},"\u042b":{"d":"477,-238v0,215,-238,270,-446,236r128,-672r83,0r-49,253v150,-26,284,27,284,183xm179,-352r-53,285v126,23,260,-29,263,-159v3,-118,-101,-149,-210,-126xm643,-674r86,0r-129,674r-86,0","w":720},"\u042c":{"d":"481,-238v0,219,-241,267,-449,236r127,-672r83,0r-48,253v150,-26,287,28,287,183xm180,-352r-54,285v128,23,263,-29,267,-159v3,-117,-105,-149,-213,-126","w":518},"\u042d":{"d":"125,-308r13,-68r304,0v11,-133,-56,-235,-194,-238v-45,0,-100,11,-139,29r-18,-63v33,-17,98,-37,169,-37v169,0,270,113,270,291v0,109,-35,227,-117,309v-65,65,-148,96,-255,96v-72,0,-136,-19,-170,-40r25,-66v38,21,93,35,143,35v156,0,252,-110,276,-248r-307,0","w":540},"\u042e":{"d":"852,-408v1,202,-121,423,-334,419v-187,-4,-262,-158,-237,-329r-107,0r-60,318r-83,0r129,-674r83,0r-55,285r102,0v33,-153,149,-295,320,-296v171,0,242,132,242,277xm358,-270v0,110,45,212,170,211v135,0,238,-183,238,-346v0,-95,-28,-210,-167,-210v-143,0,-241,191,-241,345","w":862},"\u042f":{"d":"97,-471v0,-202,241,-233,430,-193r-125,664r-83,0r57,-295r-53,0v-164,2,-184,188,-256,295r-91,0v72,-107,101,-280,233,-323r0,-3v-59,-17,-112,-62,-112,-145xm388,-358r46,-249v-115,-21,-251,13,-251,137v0,99,103,122,205,112","w":519},"\u0401":{"d":"433,-387r-14,70r-245,0r-46,246r276,0r-14,71r-359,0r128,-674r344,0r-14,71r-260,0r-41,216r245,0xm305,-773v0,29,-23,53,-53,53v-25,0,-46,-21,-46,-48v0,-29,23,-53,52,-53v29,0,47,24,47,48xm489,-773v0,29,-23,53,-53,53v-25,0,-46,-21,-46,-48v0,-29,23,-53,52,-53v29,0,47,24,47,48","w":470},"\u0430":{"d":"427,0r-77,0v-2,-27,10,-81,9,-125v-53,101,-120,136,-188,136v-86,0,-139,-68,-139,-160v0,-169,124,-346,334,-346v46,0,97,8,130,18v-25,139,-74,331,-69,477xm375,-276r28,-146v-160,-41,-283,105,-285,258v0,54,19,107,82,107v70,0,150,-90,175,-219","w":522},"\u0431":{"d":"537,-720r-12,73v-120,34,-232,21,-314,125v-28,36,-55,88,-68,141r3,0v39,-61,101,-103,177,-103v104,0,161,81,161,185v0,147,-94,310,-261,310v-118,0,-176,-90,-176,-226v0,-133,43,-261,113,-347v83,-100,178,-123,296,-139v29,-4,57,-10,81,-19xm299,-420v-97,0,-171,109,-169,227v1,71,31,141,104,140v109,0,164,-139,164,-238v0,-68,-28,-129,-99,-129","w":513},"\u0432":{"d":"43,-131v0,-132,69,-364,258,-364v76,0,136,35,136,112v0,67,-68,102,-114,123v48,7,100,40,100,108v0,116,-119,162,-218,162v-97,0,-162,-39,-162,-141xm147,-270v85,-12,210,-22,210,-106v0,-39,-30,-58,-69,-58v-86,0,-122,92,-141,164xm339,-148v0,-96,-140,-84,-203,-63v-19,73,-14,160,79,160v65,0,124,-35,124,-97","w":476},"\u0433":{"d":"276,-374v0,-71,-119,-62,-163,-29r-14,-58v30,-17,75,-33,127,-33v86,0,131,49,131,118v0,82,-70,121,-149,157v-60,28,-109,55,-109,104v0,34,21,60,71,61v44,1,90,-18,116,-33r13,60v-34,20,-92,38,-145,37v-86,-2,-140,-46,-140,-124v0,-89,74,-127,150,-163v51,-24,112,-49,112,-97","w":367},"\u0434":{"d":"141,-649r-3,-71v111,17,217,16,276,82v47,53,71,136,71,217v0,165,-70,432,-277,432v-114,0,-175,-76,-175,-192v0,-137,87,-303,241,-303v75,0,116,44,140,101v12,-140,-43,-256,-191,-256v-24,0,-51,-4,-82,-10xm119,-182v0,67,29,130,102,129v97,0,159,-149,159,-234v0,-66,-32,-132,-103,-132v-108,0,-159,140,-158,237","w":502},"\u0435":{"d":"365,-90r12,62v-36,20,-95,38,-160,38v-128,0,-184,-87,-184,-194v0,-146,108,-311,264,-311v92,0,142,55,142,125v0,127,-143,160,-322,157v-4,21,-1,66,10,91v19,44,58,65,108,65v57,0,100,-17,130,-33xm127,-277v130,2,233,-15,232,-92v0,-39,-30,-61,-74,-61v-79,0,-138,77,-158,153","w":453},"\u0436":{"d":"-33,0v53,-87,106,-266,235,-263r-136,-221r90,0r113,214r18,0r41,-214r77,0r-42,214r19,0r193,-214r94,0r-216,221v99,14,98,173,129,263r-80,0v-32,-93,-17,-237,-150,-218r-41,218r-78,0r43,-219v-83,-2,-124,27,-165,101v-26,47,-41,86,-61,118r-83,0","w":636},"\u0437":{"d":"94,-224r10,-59v78,4,172,-14,172,-86v0,-89,-135,-69,-194,-29r-19,-52v90,-63,295,-74,300,72v3,70,-65,107,-128,123v54,7,113,48,113,113v0,173,-254,181,-366,111r24,-60v74,51,254,62,254,-51v0,-76,-87,-85,-166,-82","w":400},"\u0438":{"d":"113,-484r82,0r-51,270v-15,75,-17,155,69,155v61,0,138,-71,158,-177r47,-248r83,0r-66,343v-10,54,-17,101,-21,141r-75,0v2,-29,13,-65,11,-91v-44,63,-107,102,-171,102v-62,0,-128,-30,-128,-140v0,-123,43,-240,62,-355","w":526},"\u0439":{"d":"113,-484r82,0r-51,270v-15,75,-17,155,69,155v61,0,138,-71,158,-177r47,-248r83,0r-66,343v-10,54,-17,101,-21,141r-75,0v2,-29,13,-65,11,-91v-44,63,-107,102,-171,102v-62,0,-128,-30,-128,-140v0,-123,43,-240,62,-355xm219,-683r61,0v-4,41,15,73,51,73v41,0,62,-38,72,-73r63,0v-17,76,-68,121,-140,121v-88,0,-113,-59,-107,-121","w":526},"\u043a":{"d":"121,-484r80,0r-40,214r18,0r210,-214r100,0r-236,222v53,14,81,60,106,136v16,51,28,97,43,126r-82,0v-13,-27,-23,-73,-40,-118v-32,-82,-57,-101,-130,-99r-41,217r-81,0","w":456},"\u043b":{"d":"160,-484r326,0r-92,484r-82,0r78,-418r-165,0v-27,148,-61,339,-152,391v-31,18,-55,31,-100,32r-6,-67v22,-2,44,-10,58,-19v88,-59,105,-267,135,-403","w":510},"\u043c":{"d":"146,-484r102,0r58,377v16,-34,54,-103,87,-162r123,-215r104,0r-62,484r-78,0r57,-399r-4,0v-56,116,-151,276,-218,396r-64,0r-37,-240v-6,-47,-16,-114,-19,-157r-4,0v-12,53,-26,118,-40,171r-59,229r-76,0","w":667},"\u043d":{"d":"121,-484r82,0r-36,196r218,0r37,-196r83,0r-92,484r-82,0r42,-222r-219,0r-42,222r-83,0","w":529},"\u043e":{"d":"492,-294v0,150,-106,306,-269,305v-121,0,-189,-90,-189,-199v0,-160,111,-307,268,-307v131,0,190,99,190,201xm120,-191v0,79,44,136,114,136v98,0,172,-126,172,-239v0,-56,-26,-135,-113,-135v-104,0,-173,127,-173,238","w":521},"\u043f":{"d":"111,0r-82,0r64,-343v10,-54,18,-101,23,-141r75,0v-2,30,-13,68,-11,95v44,-68,109,-106,180,-106v57,0,122,33,122,134v0,127,-44,242,-63,361r-82,0r53,-280v12,-68,13,-146,-70,-146v-59,0,-143,71,-165,191","w":534},"\u0440":{"d":"68,198r-83,0r97,-510v11,-58,21,-124,27,-173r76,0v-2,29,-13,66,-11,92v43,-64,107,-102,174,-102v104,0,148,86,148,175v0,207,-183,396,-389,309xm146,-216r-25,135v143,93,289,-70,289,-233v0,-51,-22,-112,-93,-112v-65,0,-147,74,-171,210","w":527},"\u0441":{"d":"352,-85r8,65v-25,13,-75,30,-140,30v-125,0,-186,-84,-186,-187v0,-197,191,-381,397,-296r-24,65v-19,-9,-46,-18,-82,-18v-126,0,-205,124,-205,238v0,79,41,130,120,130v50,0,87,-15,112,-27","w":423},"\u0442":{"d":"109,0r-81,0r65,-343v9,-54,17,-101,22,-141r73,0r-13,91r3,0v45,-68,106,-102,170,-102v74,0,109,47,113,108v43,-70,105,-107,177,-108v56,0,118,36,118,127v0,130,-43,247,-62,368r-81,0r52,-279v14,-66,13,-147,-66,-147v-60,0,-132,70,-152,178r-46,248r-80,0r54,-284v10,-68,19,-142,-66,-142v-61,0,-136,80,-155,183","w":808},"\u0443":{"d":"47,-484r87,0r72,390r2,0r171,-390r88,0v-106,208,-195,471,-346,622v-54,55,-113,78,-140,84r-21,-72v70,-21,145,-83,183,-158v4,-8,4,-13,2,-22","w":438},"\u0444":{"d":"216,198r50,-251v-26,33,-60,64,-121,64v-73,0,-116,-68,-116,-162v0,-138,81,-344,228,-344v45,0,68,33,83,62r52,-277r76,0r-57,280v27,-27,65,-65,120,-65v87,0,120,80,120,171v0,139,-77,335,-219,335v-47,0,-76,-34,-92,-63r-46,250r-78,0xm314,-304v14,-56,-1,-126,-52,-126v-101,0,-150,181,-150,271v0,62,24,103,67,103v107,0,111,-149,135,-248xm569,-316v0,-58,-13,-111,-62,-111v-62,0,-111,76,-120,145v-11,79,-61,226,44,226v90,0,138,-167,138,-260","w":678},"\u0445":{"d":"63,-484r90,0r79,183r3,0v42,-63,95,-124,142,-183r96,0r-204,235r114,249r-90,0r-49,-110v-16,-36,-23,-55,-34,-86r-3,0v-39,67,-100,134,-148,196r-96,0r212,-250","w":441},"\u0446":{"d":"415,0v-36,-6,-63,-48,-57,-93r-2,0v-42,63,-108,104,-174,104v-63,0,-131,-30,-131,-140v0,-123,43,-239,62,-355r82,0r-51,270v-15,75,-17,155,69,155v61,0,138,-70,158,-177r47,-248r82,0r-59,315v-13,61,-19,120,58,122r-59,187r-62,0","w":538},"\u0447":{"d":"100,-484r82,0v-10,60,-32,121,-32,186v0,40,18,72,83,72v39,0,92,-21,119,-46r39,-212r82,0r-92,485r-82,0r40,-204v-39,22,-83,41,-135,41v-200,0,-129,-191,-104,-322","w":498},"\u0448":{"d":"113,-484r81,0r-52,279v-14,64,-12,147,61,147v61,0,129,-70,149,-178r46,-248r80,0r-54,284v-10,66,-18,142,62,142v57,0,132,-80,151,-183r45,-243r81,0v-25,157,-70,311,-76,484r-76,0v-1,-35,7,-72,3,-91v-43,67,-100,102,-165,102v-69,0,-107,-47,-111,-108v-43,70,-105,108,-177,108v-51,0,-110,-36,-110,-127v0,-130,43,-247,62,-368","w":789},"\u0449":{"d":"113,-484r81,0r-52,279v-14,64,-12,147,61,147v57,0,128,-70,148,-178r47,-248r80,0r-54,284v-10,66,-18,142,62,142v57,0,132,-80,151,-183r45,-243r81,0r-58,311v-13,60,-22,125,57,126r-60,187r-61,0r37,-140v-39,-8,-60,-52,-58,-92r-3,0v-45,67,-101,103,-170,103v-69,0,-105,-47,-109,-108v-43,70,-106,108,-174,108v-51,0,-113,-36,-113,-127v0,-130,43,-247,62,-368","w":801},"\u044a":{"d":"55,-484r269,0v-45,72,-95,144,-123,224v34,-39,87,-66,144,-66v76,0,127,47,127,125v0,110,-97,208,-231,208v-82,0,-145,-33,-145,-129v0,-91,61,-217,118,-295r-172,0xm313,-264v-72,0,-134,62,-136,138v-1,39,23,71,72,71v73,0,141,-56,141,-130v0,-45,-25,-79,-77,-79","w":514},"\u044b":{"d":"121,-484r82,0r-53,222v70,-94,267,-89,267,65v0,111,-96,204,-236,204v-73,0,-137,-24,-137,-106v0,-140,53,-256,77,-385xm257,-264v-72,0,-132,70,-132,153v0,36,26,56,70,56v70,0,140,-52,140,-129v0,-46,-25,-80,-78,-80xm539,-484r86,0r-92,484r-87,0","w":649},"\u044c":{"d":"122,-484r82,0r-54,222v33,-37,88,-64,141,-64v75,0,130,47,130,127v0,115,-97,206,-237,206v-75,0,-140,-25,-140,-110v0,-136,54,-254,78,-381xm261,-264v-77,0,-133,68,-135,150v0,38,26,59,70,59v72,0,143,-51,143,-129v0,-46,-23,-80,-78,-80","w":463},"\u044d":{"d":"95,-216r10,-59r217,0v8,-87,-41,-153,-136,-153v-45,0,-84,11,-110,23r-16,-60v30,-14,80,-30,135,-30v136,0,210,89,210,224v0,158,-102,282,-276,282v-51,0,-104,-11,-140,-35r23,-61v24,13,70,29,117,29v99,0,168,-60,186,-160r-220,0","w":440},"\u044e":{"d":"120,-484r84,0r-38,197r78,0v33,-119,124,-208,241,-208v123,0,183,99,183,204v0,148,-101,302,-257,302v-131,0,-195,-107,-177,-235r-80,0r-42,224r-83,0xm312,-191v0,75,40,137,109,137v92,0,162,-127,162,-239v0,-57,-25,-136,-106,-136v-100,0,-165,132,-165,238","w":698},"\u044f":{"d":"-15,0v54,-84,79,-211,190,-232r0,-2v-51,-12,-101,-48,-101,-109v0,-171,228,-155,376,-138r-91,481r-81,0r39,-204r-49,0v-120,-8,-147,127,-195,204r-88,0xm328,-263r31,-163v-80,-14,-203,-11,-199,85v3,72,90,83,168,78","w":474},"\u0451":{"d":"365,-90r12,62v-36,20,-95,38,-160,38v-128,0,-184,-87,-184,-194v0,-146,108,-311,264,-311v92,0,142,55,142,125v0,127,-143,160,-322,157v-4,21,-1,66,10,91v19,44,58,65,108,65v57,0,100,-17,130,-33xm127,-277v130,2,233,-15,232,-92v0,-39,-30,-61,-74,-61v-79,0,-138,77,-158,153xm273,-623v0,29,-21,53,-52,53v-27,0,-47,-21,-47,-49v0,-30,23,-53,52,-53v29,0,47,22,47,49xm456,-623v0,29,-21,53,-53,53v-27,0,-46,-21,-46,-49v0,-30,23,-53,52,-53v29,0,47,22,47,49","w":453}}});
