/*!
 * The following copyright notice may not be removed under any circumstances.
 * 
 * Copyright:
 * TrueType font: Copyright © 1991, 1994 ParaGraph. Technical realization by
 * TeamAXis Corp. Hinted with AXisType ToolKit: Copyright © 1992, 1994 by Dmitry
 * Komissarov. Bauhaus is a registered trade mark of International Typeface
 * Corporation.
 */
Cufon.registerFont({"w":554,"face":{"font-family":"BauhausCTT","font-weight":400,"font-stretch":"normal","units-per-em":"1000","panose-1":"0 0 0 0 0 0 0 0 0 0","ascent":"800","descent":"-200","x-height":"10","bbox":"-65 -782 848 228","underline-thickness":"50","underline-position":"-75","unicode-range":"U+0020-U+007E"},"glyphs":{" ":{"w":233},"!":{"d":"152,-160r-88,0r0,-540r88,0r0,540xm170,-52v0,17,-6,32,-18,44v-12,12,-27,18,-44,18v-17,0,-32,-6,-44,-18v-12,-12,-18,-27,-18,-44v0,-17,6,-32,18,-44v12,-12,27,-18,44,-18v17,0,32,6,44,18v12,12,18,27,18,44","w":222},"\"":{"d":"279,-430r-82,0r0,-270r82,0r0,270xm137,-430r-82,0r0,-270r82,0r0,270","w":333},"#":{"d":"524,-486r-3,64r-97,0r-20,144r91,0r-3,64r-97,0r-30,214r-72,0r30,-214r-119,0r-30,214r-72,0r30,-214r-100,0r3,-64r106,0r20,-144r-100,0r3,-64r106,0r30,-214r72,0r-30,214r119,0r30,-214r72,0r-30,214r91,0xm352,-422r-119,0r-20,144r119,0","w":556},"$":{"d":"486,-240v0,46,-13,81,-40,106v-27,25,-65,38,-114,38r-14,0r0,108r-76,0r0,-108r-160,0r0,-84r160,0r0,-192r-36,-22v-53,-31,-83,-51,-91,-59v-29,-27,-43,-61,-43,-104v0,-40,12,-73,37,-99v28,-29,68,-44,120,-44r13,0r0,-82r76,0r0,82r135,0r0,84r-135,0r0,177r43,29v50,33,76,51,79,54v31,30,46,69,46,116xm242,-470r0,-146r-12,0v-19,0,-34,6,-46,16v-12,10,-18,23,-18,40v0,19,7,36,22,52v9,11,23,21,42,31xm392,-244v0,-19,-6,-35,-18,-49v-7,-8,-21,-19,-42,-34r-14,-10r0,157r9,0v19,0,35,-6,47,-18v12,-12,18,-27,18,-46","w":559},"%":{"d":"821,-152v0,47,-16,86,-48,117v-32,31,-71,47,-116,47v-45,0,-83,-16,-115,-48v-32,-32,-49,-70,-49,-116v0,-47,16,-86,48,-117v32,-31,71,-47,116,-47v45,0,83,16,115,48v32,32,49,70,49,116xm698,-712r-465,724r-62,0r465,-724r62,0xm377,-548v0,47,-16,86,-48,117v-32,31,-71,47,-116,47v-45,0,-83,-16,-115,-48v-32,-32,-49,-70,-49,-116v0,-47,16,-86,48,-117v32,-31,71,-47,116,-47v45,0,83,16,115,48v32,32,49,70,49,116xm743,-152v0,-25,-8,-46,-25,-62v-17,-16,-37,-24,-61,-24v-23,0,-44,8,-61,24v-17,16,-25,37,-25,62v0,25,8,46,25,62v17,16,37,24,61,24v23,0,44,-8,61,-24v17,-16,25,-37,25,-62xm299,-548v0,-25,-8,-46,-25,-62v-17,-16,-38,-24,-62,-24v-23,0,-43,8,-60,24v-17,16,-25,37,-25,62v0,25,8,46,25,62v17,16,37,24,61,24v23,0,44,-8,61,-24v17,-16,25,-37,25,-62","w":871},"&":{"d":"651,0r-110,0r-29,-45v-25,18,-52,32,-82,42v-30,10,-64,15,-104,15v-83,0,-153,-27,-210,-80v-57,-53,-85,-122,-85,-205v0,-49,10,-93,30,-133v20,-40,50,-73,90,-100r-17,-23v-10,-13,-17,-25,-22,-36v-7,-15,-10,-30,-10,-46v0,-24,8,-44,24,-59v21,-20,53,-30,97,-30r271,0r0,88r-265,0r-15,0v-12,0,-18,4,-18,12v0,5,1,10,4,16v3,6,9,15,18,26r290,375v7,-11,13,-24,17,-37v4,-13,6,-28,6,-46v0,-27,-4,-51,-11,-71v-10,-27,-28,-56,-55,-87r64,-66v39,36,66,77,81,123v10,30,15,61,15,92v0,39,-7,75,-20,108v-9,21,-21,42,-36,62xm454,-116r-247,-319v-29,21,-50,46,-63,75v-13,29,-19,57,-19,86v0,57,19,104,57,142v38,38,88,56,148,56v25,0,48,-3,69,-10v21,-7,39,-17,55,-30","w":648},"'":{"d":"152,-430r-82,0r0,-270r82,0r0,270","w":222},"(":{"d":"338,128r-46,60v-78,-58,-136,-131,-173,-219v-31,-73,-47,-151,-47,-234v0,-81,15,-157,46,-230v37,-89,94,-161,170,-217r50,54v-51,39,-90,85,-119,137v-39,71,-59,155,-59,251v0,102,22,191,65,267v29,50,66,94,113,131","w":399},")":{"d":"327,-259v0,81,-15,157,-46,230v-37,89,-94,161,-170,217r-50,-54v67,-52,114,-115,143,-188v23,-59,35,-125,35,-200v0,-102,-22,-191,-65,-267v-29,-51,-67,-95,-113,-131r46,-60v78,58,136,131,173,219v31,73,47,151,47,234","w":399},"*":{"d":"438,-436r-38,62r-124,-80r12,140r-76,0r12,-140r-124,80r-38,-62r132,-71r-132,-69r38,-62r124,84r-12,-146r76,0r-12,146r124,-84r38,62r-132,69","w":500},"+":{"d":"530,-201r-201,0r0,201r-78,0r0,-201r-201,0r0,-78r201,0r0,-201r78,0r0,201r201,0r0,78","w":580},",":{"d":"198,-96r-58,196r-78,0r42,-196r94,0","w":320},"-":{"d":"251,-200r-224,0r0,-80r224,0r0,80","w":278},".":{"d":"198,-53v0,16,-6,29,-18,41v-12,12,-25,18,-41,18v-16,0,-29,-6,-41,-18v-12,-12,-18,-25,-18,-41v0,-16,6,-29,18,-41v12,-12,25,-18,41,-18v16,0,29,6,41,18v12,12,18,25,18,41","w":278},"\/":{"d":"340,-712r-324,724r-78,0r324,-724r78,0","w":356},"0":{"d":"507,-263v0,62,-11,114,-34,155v-23,41,-55,72,-96,93v-33,17,-68,25,-107,25v-39,0,-74,-8,-107,-25v-53,-27,-90,-69,-111,-126v-13,-35,-19,-75,-19,-122r0,-188v0,-64,16,-118,49,-163v22,-30,50,-53,82,-70v32,-17,67,-26,106,-26v39,0,74,8,106,25v32,17,60,40,82,71v33,45,49,101,49,167r0,184xm413,-244r0,-203v0,-60,-12,-105,-37,-133v-25,-28,-61,-42,-106,-42v-57,0,-97,22,-120,67v-15,30,-23,68,-23,114r0,197v0,53,12,93,37,122v25,29,61,44,106,44v45,0,81,-15,106,-44v25,-29,37,-69,37,-122","w":540},"1":{"d":"331,0r-94,0r0,-612r-126,0r26,-88r194,0r0,700"},"2":{"d":"511,-489v0,55,-16,103,-49,145v-19,25,-56,59,-111,102r-195,154r354,0r0,88r-384,0v-32,0,-56,-8,-71,-22v-15,-14,-23,-31,-23,-52v0,-15,3,-28,10,-39v5,-8,20,-22,46,-41r234,-183v30,-23,51,-43,64,-60v21,-27,31,-58,31,-91v0,-37,-11,-67,-33,-92v-25,-28,-60,-42,-105,-42v-43,0,-77,13,-103,40v-26,27,-39,61,-39,101v0,41,15,74,45,100v25,22,55,35,89,39r-82,65v-46,-17,-81,-43,-107,-79v-26,-36,-39,-78,-39,-125v0,-70,25,-126,75,-169v47,-40,103,-60,168,-60v65,0,118,21,161,63v43,42,64,95,64,158"},"3":{"d":"509,-223v0,23,-2,45,-7,65v-5,20,-13,39,-24,57v-26,43,-60,72,-102,87v-27,9,-67,14,-120,14r-211,0r0,-88r215,0v30,0,54,-3,72,-9v29,-9,51,-27,66,-53v5,-9,9,-20,12,-33v3,-13,5,-25,5,-37v0,-19,-5,-38,-16,-56v-17,-28,-42,-47,-77,-56v-19,-5,-46,-8,-80,-8r-100,0r0,-70r219,-202r-300,0r0,-88r286,0v33,0,58,3,74,10v27,11,41,34,41,67v0,21,-8,40,-23,58v-7,8,-22,22,-45,42r-111,95v47,0,89,10,125,30v29,16,51,36,68,60v11,16,20,34,25,54v5,20,8,40,8,61"},"4":{"d":"526,-162r-105,0r0,162r-94,0r0,-162r-243,0v-49,0,-74,-18,-74,-55v0,-16,10,-41,29,-75r227,-408r103,0r-252,450r210,0r0,-302r87,-148r7,0r0,450r105,0r0,88"},"5":{"d":"516,-214v0,35,-7,67,-20,96v-23,49,-57,82,-104,100v-31,12,-71,18,-121,18r-215,0r0,-88r219,0v30,0,53,-3,70,-8v27,-9,47,-25,61,-49v5,-9,9,-19,12,-31v3,-12,4,-25,4,-36v0,-15,-2,-28,-4,-39v-2,-11,-6,-21,-12,-32v-15,-25,-37,-42,-66,-51v-18,-5,-44,-8,-77,-8r-169,0r0,-358r364,0r0,88r-270,0r0,182r67,0v47,0,85,4,114,13v48,14,85,41,112,80v11,16,20,35,26,57v6,22,9,44,9,66"},"6":{"d":"528,-249v0,72,-25,133,-74,183v-49,50,-109,76,-182,76v-69,0,-128,-24,-176,-72v-48,-48,-72,-106,-72,-177v0,-39,8,-76,25,-112v12,-26,33,-61,64,-104r173,-245r114,0r-218,306v-26,37,-44,66,-52,88v-8,22,-12,43,-12,66v0,48,16,87,47,117v31,30,68,45,110,45v44,0,82,-15,113,-46v31,-31,46,-71,46,-118v0,-57,-22,-101,-66,-131v-36,-25,-79,-37,-128,-37r53,-80v67,0,123,23,168,68v45,45,67,103,67,173","w":552},"7":{"d":"502,-629v0,21,-7,46,-21,77r-23,48r-224,504r-108,0r274,-612r-356,0r0,-88r356,0v28,0,49,3,62,8v27,11,40,32,40,63","w":555},"8":{"d":"511,-212v0,63,-21,116,-65,158v-44,42,-103,64,-176,64v-72,0,-130,-22,-174,-64v-44,-42,-67,-95,-67,-158v0,-38,10,-74,30,-106v20,-32,47,-58,82,-78v-20,-17,-36,-37,-48,-60v-12,-23,-18,-50,-18,-80v0,-49,19,-90,55,-124v36,-34,82,-50,139,-50v62,0,110,18,145,54v31,32,47,72,47,120v0,26,-5,51,-15,75v-10,24,-26,46,-47,65v37,18,65,44,84,76v19,32,28,68,28,108xm367,-527v0,-27,-9,-50,-28,-68v-19,-18,-42,-27,-70,-27v-29,0,-52,8,-71,26v-19,18,-29,41,-29,69v0,28,9,51,27,69v18,18,43,26,72,26v29,0,52,-9,71,-26v19,-17,28,-40,28,-69xm417,-213v0,-41,-14,-73,-41,-98v-27,-25,-63,-37,-106,-37v-43,0,-79,12,-106,37v-27,25,-41,57,-41,98v0,41,14,73,41,98v27,25,63,37,106,37v43,0,79,-12,106,-37v27,-25,41,-57,41,-98","w":540},"9":{"d":"529,-452v0,47,-12,91,-37,131r-53,76r-173,245r-114,0r218,-306v29,-40,47,-69,54,-88v7,-19,11,-39,11,-61v0,-50,-15,-90,-46,-121v-31,-31,-68,-46,-111,-46v-45,0,-83,15,-114,46v-31,31,-46,72,-46,121v0,51,15,91,44,122v29,31,69,46,119,46r33,-1r-55,80v-66,0,-122,-23,-167,-69v-45,-46,-68,-104,-68,-175v0,-71,25,-132,74,-182v49,-50,109,-76,182,-76v70,0,129,24,177,73v48,49,72,110,72,185","w":553},":":{"d":"198,-341v0,16,-6,29,-18,41v-12,12,-25,18,-41,18v-16,0,-29,-6,-41,-18v-12,-12,-18,-25,-18,-41v0,-16,6,-29,18,-41v12,-12,25,-18,41,-18v16,0,29,6,41,18v12,12,18,25,18,41xm198,-53v0,16,-6,29,-18,41v-12,12,-25,18,-41,18v-16,0,-29,-6,-41,-18v-12,-12,-18,-25,-18,-41v0,-16,6,-29,18,-41v12,-12,25,-18,41,-18v16,0,29,6,41,18v12,12,18,25,18,41","w":278},";":{"d":"198,-341v0,16,-6,29,-18,41v-12,12,-25,18,-41,18v-16,0,-29,-6,-41,-18v-12,-12,-18,-25,-18,-41v0,-16,6,-29,18,-41v12,-12,25,-18,41,-18v16,0,29,6,41,18v12,12,18,25,18,41xm198,-96r-58,196r-78,0r42,-196r94,0","w":296},"<":{"d":"530,8r-480,-214r0,-68r480,-214r0,78r-383,170r383,170r0,78","w":580},"=":{"d":"530,-300r-480,0r0,-78r480,0r0,78xm530,-102r-480,0r0,-78r480,0r0,78","w":580},">":{"d":"530,-206r-480,214r0,-78r382,-170r-382,-170r0,-78r480,214r0,68","w":580},"?":{"d":"438,-503v0,54,-16,100,-49,137v-33,37,-75,61,-127,70r0,136r-88,0r0,-220r35,0v41,0,75,-12,99,-34v24,-22,36,-51,36,-88v0,-35,-10,-64,-30,-87v-20,-23,-48,-35,-83,-35v-40,0,-70,16,-89,48v-15,25,-22,53,-22,86r-94,0v0,-63,19,-116,58,-158v39,-42,89,-64,148,-64v59,0,108,20,147,60v39,40,59,90,59,149xm280,-52v0,17,-6,32,-18,44v-12,12,-27,18,-44,18v-17,0,-32,-6,-44,-18v-12,-12,-18,-27,-18,-44v0,-17,6,-32,18,-44v12,-12,27,-18,44,-18v17,0,32,6,44,18v12,12,18,27,18,44","w":444},"@":{"d":"712,-413v0,65,-16,121,-46,167v-30,46,-65,68,-106,68v-29,0,-49,-12,-60,-35v-7,-15,-11,-35,-11,-58r0,-49v0,-35,-4,-63,-13,-84v-17,-40,-48,-60,-94,-60v-33,0,-58,11,-77,33v-19,22,-28,49,-28,82v0,31,11,57,32,77v21,20,47,30,78,30v26,0,51,-13,76,-40r0,72v-10,10,-22,18,-37,24v-15,6,-31,8,-48,8v-47,0,-87,-16,-120,-47v-33,-31,-49,-73,-49,-126v0,-39,10,-73,30,-102v17,-24,38,-42,64,-55v26,-13,54,-20,85,-20v28,0,53,6,76,17v23,11,42,27,57,46v15,19,24,41,29,66v5,25,7,52,7,82r0,37v0,12,1,21,3,26v2,5,8,8,18,8v16,0,31,-16,45,-48v14,-32,21,-69,21,-110v0,-55,-13,-102,-39,-141v-19,-29,-45,-53,-78,-71v-19,-10,-40,-18,-65,-24v-25,-6,-50,-8,-74,-8v-52,0,-100,13,-144,38v-44,25,-78,60,-103,104v-27,47,-41,100,-41,159v0,86,28,157,84,212v56,55,127,83,213,83v39,0,76,-7,111,-20v46,-17,84,-44,114,-80r7,77v-31,29,-66,50,-105,65v-39,15,-80,22,-123,22v-103,0,-189,-36,-261,-106v-72,-70,-108,-156,-108,-257v0,-75,20,-141,60,-200v35,-51,81,-92,138,-121v52,-27,107,-40,166,-40v27,0,52,3,76,8v24,5,48,12,71,23v48,23,87,54,116,95v35,49,53,106,53,173","w":752},"A":{"d":"536,0r-94,0r0,-318r-254,0r0,-88r254,0r0,-36v0,-55,-13,-98,-39,-131v-26,-33,-61,-49,-106,-49v-39,0,-72,13,-98,40v-31,32,-47,79,-47,140r0,442r-94,0r0,-450v0,-73,22,-134,66,-184v44,-50,102,-76,173,-76v70,0,127,25,172,76v45,51,67,112,67,184r0,450","w":594},"B":{"d":"539,-198v0,55,-17,101,-50,136v-39,41,-98,62,-176,62r-125,0r0,-88r120,0v36,0,63,-4,82,-13v37,-17,55,-51,55,-102v0,-35,-12,-63,-35,-84v-23,-21,-54,-31,-93,-31r-129,0r0,-88r94,0v36,0,66,-9,92,-27v26,-18,39,-44,39,-77v0,-31,-10,-56,-31,-77v-23,-23,-55,-35,-94,-35v-37,0,-69,12,-94,35v-29,27,-43,64,-43,112r1,475r-94,0r1,-477v0,-69,21,-126,63,-169v42,-43,94,-64,158,-64v72,0,129,21,171,63v37,37,56,82,56,135v0,37,-7,67,-21,90v-11,19,-27,34,-50,47v33,17,58,40,76,71v18,31,27,67,27,106","w":579},"C":{"d":"476,0r-65,0v-66,0,-121,-8,-165,-25v-67,-25,-121,-71,-161,-138v-16,-27,-29,-56,-37,-89v-8,-33,-12,-65,-12,-98v0,-67,17,-128,51,-181v28,-44,65,-80,112,-109v31,-20,66,-35,105,-45v39,-10,78,-15,118,-15r54,0r0,88r-66,0v-59,0,-111,15,-157,44v-39,25,-69,56,-89,94v-20,38,-30,79,-30,124v0,29,3,56,10,82v7,26,19,50,34,73v29,43,65,72,109,89v31,12,69,18,112,18r77,0r0,88","w":502},"D":{"d":"578,-350v0,57,-12,110,-37,159v-27,53,-64,97,-113,131v-57,40,-119,60,-188,60r-48,0r0,-88r37,0v77,0,139,-27,186,-81v43,-50,65,-110,65,-181v0,-71,-22,-130,-65,-179v-49,-55,-117,-83,-203,-83r-60,0r0,612r-94,0r0,-700r143,0v71,0,130,11,179,32v69,31,123,84,161,159v25,49,37,102,37,159","w":614},"E":{"d":"472,0r-70,0v-114,0,-205,-37,-274,-112v-61,-67,-92,-146,-92,-238v0,-92,30,-171,91,-237v69,-75,161,-113,277,-113r68,0r0,88r-59,0v-73,0,-135,19,-186,56v-51,37,-82,87,-93,150r338,0r0,88r-338,0v7,67,34,122,82,165v48,43,108,65,181,65r75,0r0,88","w":508},"F":{"d":"391,-304r-239,0r0,304r-94,0r0,-467v0,-65,14,-116,42,-153v41,-53,110,-80,207,-80r84,0r0,88r-95,0v-43,0,-75,7,-95,20v-33,22,-49,63,-49,123r0,77r239,0r0,88","w":417},"G":{"d":"757,-336v0,104,-37,189,-112,255v-69,61,-150,91,-243,91v-99,0,-184,-35,-257,-106v-73,-71,-109,-155,-109,-254v0,-66,18,-128,54,-186v36,-58,85,-103,146,-134v53,-27,112,-40,176,-40v35,0,69,5,101,14v32,9,63,23,94,42v31,19,59,43,84,70r-63,68v-19,-18,-41,-36,-66,-53v-25,-17,-49,-30,-71,-38v-28,-10,-58,-15,-89,-15v-45,0,-88,11,-128,32v-40,21,-72,52,-97,91v-29,45,-43,94,-43,149v0,75,25,139,76,192v51,53,115,80,192,80v64,0,120,-18,167,-55v53,-41,83,-99,90,-173r-244,0r0,-88r342,0r0,58","w":793},"H":{"d":"550,0r-94,0r0,-318r-304,0r0,318r-94,0r0,-700r94,0r0,294r304,0r0,-294r94,0r0,700","w":608},"I":{"d":"152,0r-94,0r0,-700r94,0r0,700","w":210},"J":{"d":"289,-226v0,70,-21,126,-61,166v-40,40,-98,60,-175,60r-55,0r0,-88r51,0v61,0,102,-17,125,-52v14,-21,21,-52,21,-91r0,-469r94,0r0,474","w":347},"K":{"d":"540,-700r-78,171v-19,42,-35,72,-46,89v-13,21,-30,38,-50,52v38,8,68,25,91,50v33,37,49,90,49,159r0,179r-94,0r0,-180v0,-38,-5,-67,-16,-86v-19,-35,-54,-52,-106,-52r-138,0r0,318r-94,0r0,-700r94,0r0,294r63,0v29,0,53,-6,71,-17v23,-14,43,-40,60,-79r89,-198r105,0","w":576},"L":{"d":"385,0r-85,0v-31,0,-58,-2,-81,-7v-23,-5,-46,-14,-68,-29v-37,-25,-62,-59,-77,-102v-11,-31,-16,-67,-16,-108r0,-454r94,0r0,454v0,25,2,46,6,62v7,26,19,47,37,64v15,14,33,23,53,28v12,3,29,4,50,4r87,0r0,88","w":383},"M":{"d":"782,0r-98,0r-69,-568r-150,496v-11,35,-21,58,-31,68v-10,10,-25,14,-42,14v-21,0,-36,-8,-47,-23v-7,-11,-15,-30,-24,-59r-150,-496r-69,568r-98,0r77,-611v3,-28,9,-49,18,-63v14,-24,36,-36,65,-36v25,0,45,10,60,31v9,13,19,35,28,66r141,463r139,-463v12,-39,25,-65,38,-78v13,-13,30,-19,50,-19v29,0,51,12,65,35v8,14,14,35,18,64","w":786},"N":{"d":"568,-92v0,30,-3,52,-9,66v-11,24,-32,36,-63,36v-20,0,-37,-5,-51,-14v-14,-9,-29,-30,-46,-65r-245,-505r-2,574r-94,0r0,-598v0,-33,4,-58,11,-73v12,-26,36,-39,71,-39v25,0,46,9,62,27v12,13,27,39,45,76r225,469r2,-562r94,0r0,608","w":626},"O":{"d":"764,-350v0,99,-36,184,-108,254v-72,70,-158,106,-256,106v-98,0,-184,-36,-256,-106v-72,-70,-108,-155,-108,-254v0,-99,36,-184,108,-254v72,-70,158,-106,256,-106v98,0,184,36,256,106v72,70,108,155,108,254xm666,-350v0,-75,-25,-139,-76,-192v-51,-53,-115,-80,-190,-80v-75,0,-139,27,-190,80v-51,53,-76,117,-76,192v0,75,25,139,76,192v51,53,115,80,190,80v75,0,139,-27,190,-80v51,-53,76,-117,76,-192","w":800},"P":{"d":"525,-474v0,39,-9,76,-27,110v-25,46,-59,77,-104,93v-29,11,-70,16,-123,16r-83,0r0,-88r94,0v45,0,80,-13,106,-37v26,-24,38,-56,38,-96v0,-41,-11,-74,-33,-101v-25,-30,-60,-45,-104,-45v-43,0,-77,15,-101,44v-24,29,-36,67,-36,114r0,464r-94,0r0,-460v0,-79,21,-140,63,-184v42,-44,98,-66,169,-66v74,0,132,23,175,70v40,44,60,99,60,166","w":561},"Q":{"d":"768,-348v0,81,-26,154,-77,219v-56,71,-130,116,-222,133r0,140r-94,0r0,-372r94,0r0,144v67,-17,119,-53,155,-108v31,-47,46,-99,46,-156v0,-75,-25,-140,-76,-194v-51,-54,-115,-80,-192,-80v-75,0,-138,26,-190,80v-52,54,-78,119,-78,194v0,58,17,111,51,158v38,53,89,87,154,104r0,90v-97,-19,-173,-66,-229,-139v-49,-65,-74,-136,-74,-213v0,-99,36,-185,108,-256v72,-71,159,-106,258,-106v99,0,184,35,257,106v73,71,109,156,109,256","w":804},"R":{"d":"518,0r-94,0r0,-185v0,-49,-15,-84,-44,-103v-19,-12,-44,-18,-76,-18r-116,0r0,-88r79,0v51,0,89,-12,114,-37v21,-20,31,-46,31,-77v0,-28,-8,-52,-23,-71v-11,-14,-25,-25,-42,-32v-17,-7,-36,-11,-57,-11v-17,0,-28,1,-34,2v-6,1,-15,5,-26,10v-34,15,-57,41,-68,77v-7,21,-10,51,-10,92r0,441r-94,0r0,-443v0,-52,5,-93,15,-123v16,-48,46,-86,91,-113v17,-11,36,-18,58,-23v22,-5,45,-8,68,-8v43,0,82,10,118,30v28,16,50,36,67,61v21,31,31,67,31,108v0,26,-4,49,-11,70v-13,36,-36,64,-70,84v39,15,65,39,79,72v9,23,14,56,14,100r0,185"},"S":{"d":"477,-181v0,36,-9,68,-26,96v-21,35,-50,59,-86,72v-25,9,-58,13,-101,13r-238,0r0,-88r229,0v34,0,61,-4,81,-13v31,-14,47,-38,47,-71v0,-26,-8,-49,-25,-68v-17,-19,-60,-44,-127,-76v-43,-20,-73,-35,-91,-46v-33,-20,-58,-41,-75,-64v-23,-31,-34,-65,-34,-102v0,-37,9,-69,27,-96v21,-31,50,-52,87,-64v25,-8,56,-12,91,-12r210,0r0,88r-216,0v-25,0,-45,2,-59,6v-14,4,-26,14,-36,31v-7,11,-10,23,-10,37v0,21,5,38,16,53v8,11,22,23,41,35v19,12,47,27,85,45v45,21,76,37,94,48v35,21,62,43,79,66v25,33,37,70,37,110","w":503},"T":{"d":"442,-612r-173,0r0,612r-94,0r0,-612r-173,0r0,-88r440,0r0,88","w":444},"U":{"d":"521,-260v0,68,-12,122,-35,161v-20,33,-50,61,-89,82v-33,18,-69,27,-108,27v-39,0,-75,-9,-108,-27v-49,-27,-83,-65,-102,-114v-14,-35,-21,-78,-21,-129r0,-440r94,0r0,446v0,40,6,73,17,99v22,51,62,77,120,77v45,0,80,-16,103,-47v23,-31,35,-74,35,-129r0,-446r94,0r0,440","w":579},"V":{"d":"580,-700r-196,590v-13,39,-21,62,-25,71v-15,33,-38,49,-71,49v-23,0,-40,-8,-52,-22v-12,-14,-25,-43,-40,-87r-200,-601r98,0r194,581r194,-581r98,0","w":576},"W":{"d":"848,-255v0,59,-5,104,-16,134v-17,49,-51,85,-101,110v-29,14,-62,21,-99,21v-23,0,-48,-3,-72,-10v-24,-7,-44,-17,-61,-30v-17,-13,-32,-30,-46,-51v-13,20,-28,37,-46,51v-18,14,-39,23,-63,30v-24,7,-46,10,-68,10v-38,0,-72,-7,-102,-21v-49,-24,-82,-61,-99,-110v-11,-33,-17,-77,-17,-134r0,-445r94,0r0,451v0,40,2,68,6,84v7,29,24,52,51,69v11,7,22,11,33,14v11,3,23,4,37,4v29,0,53,-6,73,-19v26,-17,42,-39,49,-67v3,-14,5,-42,5,-85r0,-451r94,0r0,451v0,42,2,70,5,84v7,29,23,51,49,68v19,13,43,19,72,19v28,0,52,-6,71,-18v26,-16,43,-38,50,-67v5,-18,7,-47,7,-86r0,-451r94,0r0,445","w":906},"X":{"d":"553,0v-69,0,-129,-19,-179,-58v-47,-36,-78,-83,-95,-142v-17,57,-49,104,-96,141v-51,39,-110,59,-179,59r0,-88v67,0,121,-25,164,-75v43,-50,64,-112,64,-187v0,-75,-21,-137,-63,-187v-42,-50,-97,-75,-164,-75r0,-88v61,0,116,16,165,48v55,36,91,87,109,152v17,-65,53,-115,108,-151v49,-33,104,-49,165,-49r0,88v-67,0,-121,25,-163,75v-42,50,-63,112,-63,187v0,73,21,135,64,186v43,51,97,76,163,76r0,88","w":557},"Y":{"d":"480,-498v0,56,-15,104,-45,143v-32,42,-77,69,-134,81r0,274r-94,0r0,-274v-58,-12,-102,-38,-133,-78v-31,-40,-46,-89,-46,-146r0,-202r94,0r0,203v0,42,11,75,33,99v22,24,55,36,99,36v44,0,77,-12,99,-36v22,-24,33,-57,33,-99r0,-203r94,0r0,202","w":508},"Z":{"d":"480,0r-350,0v-36,0,-61,-2,-74,-7v-29,-11,-44,-33,-44,-67v0,-18,5,-37,15,-56v5,-10,15,-25,29,-44r315,-438r-321,0r0,-88r313,0v34,0,58,3,71,8v25,10,38,31,38,62v0,13,-2,24,-6,34v-6,16,-19,37,-38,64r-315,444r367,0r0,88","w":492},"[":{"d":"286,176r-174,0r0,-876r174,0r0,46r-86,0r0,784r86,0r0,46","w":389},"\\":{"d":"340,12r-78,0r-324,-724r78,0","w":356},"]":{"d":"277,176r-174,0r0,-46r86,0r0,-784r-86,0r0,-46r174,0r0,876","w":389},"^":{"d":"545,-286r-84,0r-160,-328r-160,328r-84,0r206,-414r76,0","w":602},"_":{"d":"527,125r-500,0r0,-50r500,0r0,50"},"`":{"d":"258,-538r-68,0r-130,-142r108,0","w":439},"a":{"d":"532,0r-88,0r0,-215v0,-72,-19,-124,-57,-156v-27,-23,-63,-35,-107,-35v-47,0,-86,15,-117,45v-31,30,-47,71,-47,122v0,55,19,98,56,128v31,25,67,37,110,37v24,0,46,-5,66,-14v20,-9,41,-22,60,-40r0,92v-39,31,-85,46,-139,46v-69,0,-126,-22,-173,-67v-47,-45,-70,-103,-70,-176v0,-76,24,-137,74,-185v50,-48,111,-72,183,-72v70,0,127,21,171,63v52,49,78,121,78,215r0,212","w":572},"b":{"d":"542,-245v0,67,-21,125,-64,174v-47,54,-110,81,-189,81v-35,0,-65,-5,-93,-16v-28,-11,-52,-26,-72,-44v-37,-33,-62,-76,-74,-129v-7,-29,-10,-72,-10,-129r0,-392r88,0r0,416v0,44,4,79,13,105v15,46,45,77,88,94v20,7,40,11,60,11v47,0,86,-16,117,-47v31,-31,46,-71,46,-120v0,-48,-15,-88,-44,-119v-29,-31,-68,-46,-117,-46v-25,0,-50,5,-74,14v-15,5,-32,15,-53,28r0,-92v45,-23,88,-34,128,-34v24,0,45,2,63,6v18,4,37,10,57,20v40,21,72,50,95,88v23,38,35,82,35,131","w":568},"c":{"d":"349,0r-63,0v-82,0,-147,-25,-195,-76v-43,-45,-65,-100,-65,-164v0,-37,7,-71,22,-103v17,-38,44,-69,80,-93v25,-17,52,-28,79,-34v27,-6,55,-10,83,-10r59,0r0,84r-63,0v-58,0,-102,18,-133,53v-25,29,-37,63,-37,103v0,43,14,79,42,108v31,32,75,48,131,48r60,0r0,84","w":371},"d":{"d":"542,-270v0,83,-23,150,-68,202v-45,52,-105,78,-181,78v-79,0,-142,-27,-189,-80v-43,-49,-64,-107,-64,-175v0,-49,12,-93,35,-131v23,-38,55,-67,95,-88v17,-9,37,-16,58,-20v21,-4,42,-6,63,-6v18,0,38,3,59,8v21,5,44,13,68,26r0,92v-15,-10,-33,-19,-53,-27v-25,-10,-49,-15,-72,-15v-17,0,-32,2,-47,5v-15,3,-29,9,-43,18v-21,13,-38,31,-52,56v-14,25,-21,53,-21,86v0,49,15,89,46,120v31,31,70,47,119,47v13,0,25,-1,37,-4v12,-3,24,-7,35,-13v35,-19,60,-50,74,-92v9,-27,13,-56,13,-87r0,-430r88,0r0,430","w":568},"e":{"d":"525,-213v-5,51,-21,94,-50,131v-19,24,-42,44,-71,60v-18,11,-38,19,-61,24v-23,5,-45,8,-68,8v-39,0,-76,-9,-112,-26v-42,-21,-75,-51,-100,-90v-25,-39,-37,-83,-37,-134v0,-71,24,-130,72,-178v48,-48,106,-72,177,-72v49,0,95,13,136,38v41,25,73,63,96,114r-324,180r-36,-70r237,-132v-16,-17,-34,-29,-53,-36v-19,-7,-39,-10,-58,-10v-47,0,-84,15,-113,46v-29,31,-44,71,-44,120v0,33,7,61,20,86v13,25,31,44,52,57v12,7,25,13,40,17v15,4,30,6,45,6v18,0,35,-1,49,-4v14,-3,28,-9,42,-17v21,-13,39,-30,52,-53v13,-23,20,-49,20,-76","w":551},"f":{"d":"284,-616r-49,0v-46,0,-77,11,-92,32v-10,14,-15,39,-15,75r0,29r144,0r0,84r-144,0r0,396r-88,0r0,-490v0,-40,2,-68,5,-85v7,-33,21,-61,44,-83v19,-18,40,-29,63,-34v23,-5,50,-8,81,-8r51,0r0,84","w":266},"g":{"d":"532,-47v0,46,-4,83,-12,112v-11,37,-30,70,-59,98v-19,19,-41,33,-66,44v-33,14,-70,21,-113,21v-20,0,-43,-2,-68,-6v-25,-4,-55,-11,-91,-22r21,-80v27,7,52,14,74,18v22,4,41,6,59,6v52,0,92,-12,119,-36v32,-28,48,-73,48,-134r0,-165v0,-45,-4,-79,-11,-103v-14,-45,-41,-78,-81,-97v-21,-10,-44,-15,-69,-15v-47,0,-87,16,-119,47v-32,31,-48,72,-48,123v0,47,14,85,41,116v27,31,65,46,112,46v55,0,101,-18,139,-54r0,92v-40,31,-84,46,-131,46v-65,0,-121,-19,-168,-57v-55,-45,-83,-108,-83,-189v0,-74,26,-134,76,-182v50,-48,110,-72,181,-72v34,0,66,5,95,16v44,16,79,43,104,82v33,51,50,118,50,201r0,144","w":572},"h":{"d":"450,0r-88,0r0,-258v0,-48,-10,-85,-29,-110v-19,-25,-47,-38,-84,-38v-37,0,-65,13,-86,38v-23,29,-35,70,-35,123r0,245r-88,0r0,-700r88,0r0,263v19,-19,40,-33,61,-41v21,-8,43,-12,66,-12v21,0,40,1,55,4v15,3,30,9,45,18v39,21,66,53,81,95v9,27,14,64,14,110r0,263","w":490},"i":{"d":"146,-587v0,13,-4,25,-11,34v-10,13,-24,19,-42,19v-18,0,-31,-5,-40,-16v-9,-11,-13,-24,-13,-37v0,-13,4,-25,11,-34v10,-13,24,-19,42,-19v18,0,31,5,40,16v9,11,13,24,13,37xm137,0r-88,0r0,-480r88,0r0,480","w":186},"j":{"d":"165,-587v0,13,-4,25,-11,34v-10,13,-24,19,-42,19v-18,0,-31,-5,-40,-16v-9,-11,-13,-24,-13,-37v0,-13,4,-25,11,-34v10,-13,24,-19,42,-19v18,0,31,5,40,16v9,11,13,24,13,37xm156,5v0,61,-8,106,-23,134v-29,53,-86,79,-172,79r-26,0r0,-84r23,0v47,0,78,-9,94,-28v11,-13,17,-35,17,-66v0,-6,-1,-12,-1,-18r0,-19r0,-483r88,0r0,485","w":205},"k":{"d":"422,-480r-63,108r-25,44v-14,22,-31,37,-50,46v49,7,82,32,98,74v8,21,12,56,12,103r0,105r-88,0r0,-104v0,-54,-10,-88,-31,-102v-11,-8,-37,-12,-76,-12r-71,0r0,218r-88,0r0,-700r88,0r0,398r26,0v24,0,42,-2,55,-8v13,-6,23,-15,30,-28r83,-142r100,0","w":454},"l":{"d":"128,0r-88,0r0,-700r88,0r0,700","w":168},"m":{"d":"664,0r-88,0r0,-285v0,-27,-2,-47,-6,-60v-7,-22,-20,-39,-40,-50v-12,-7,-26,-11,-43,-11v-17,0,-32,4,-46,12v-19,11,-31,26,-37,44v-6,18,-8,40,-8,66r0,18r0,266r-88,0r0,-266r0,-18v0,-27,-2,-48,-6,-61v-7,-21,-20,-38,-39,-49v-13,-8,-28,-12,-44,-12v-17,0,-32,4,-45,11v-20,11,-33,28,-40,50v-4,13,-6,33,-6,60r0,285r-88,0r0,-278v0,-45,4,-80,12,-103v11,-35,34,-62,68,-83v29,-17,59,-26,92,-26r23,0v0,0,20,3,33,8v35,11,63,31,84,60v21,-29,49,-49,84,-60v18,-5,36,-8,55,-8v34,0,65,8,92,25v35,21,58,48,69,81v8,23,12,58,12,105r0,279","w":704},"n":{"d":"450,0r-88,0r0,-257v0,-29,-3,-52,-9,-70v-10,-29,-28,-51,-55,-66v-15,-9,-33,-13,-53,-13v-9,0,-18,1,-27,3v-9,2,-18,5,-26,10v-27,15,-46,36,-55,65v-6,18,-9,42,-9,71r0,257r-88,0r0,-257v0,-43,5,-79,16,-108v15,-41,41,-73,79,-96v32,-19,69,-29,110,-29v41,0,78,10,110,29v37,23,64,55,79,96v11,29,16,65,16,108r0,257","w":490},"o":{"d":"526,-240v0,69,-24,128,-73,177v-49,49,-108,73,-177,73v-69,0,-128,-24,-177,-73v-49,-49,-73,-108,-73,-177v0,-69,24,-128,73,-177v49,-49,108,-73,177,-73v69,0,128,24,177,73v49,49,73,108,73,177xm436,-240v0,-49,-14,-89,-44,-120v-30,-31,-69,-46,-116,-46v-47,0,-85,15,-115,46v-30,31,-45,71,-45,120v0,49,15,89,44,120v29,31,68,46,116,46v48,0,87,-15,116,-46v29,-31,44,-71,44,-120","w":552},"p":{"d":"546,-233v0,74,-26,134,-77,180v-47,42,-104,63,-171,63v-25,0,-49,-4,-72,-12v-23,-8,-44,-19,-62,-34r0,-92v21,19,41,34,61,42v20,8,41,12,62,12v50,0,91,-15,122,-45v31,-30,47,-69,47,-116v0,-50,-16,-91,-47,-123v-31,-32,-70,-48,-117,-48v-44,0,-80,13,-108,39v-37,35,-56,90,-56,166r0,419r-88,0r0,-426v0,-101,28,-176,84,-225v44,-38,100,-57,167,-57v70,0,129,23,178,69v51,49,77,111,77,188","w":572},"q":{"d":"546,218r-88,0r0,-413v0,-47,-4,-83,-13,-108v-14,-42,-41,-72,-80,-89v-22,-9,-44,-14,-66,-14v-48,0,-89,16,-121,48v-32,32,-48,72,-48,123v0,53,18,94,54,123v31,25,70,38,115,38v22,0,43,-4,62,-12v19,-8,40,-22,61,-42r0,92v-16,14,-35,26,-58,34v-23,8,-47,12,-73,12v-69,0,-127,-21,-174,-63v-51,-45,-77,-105,-77,-180v0,-53,13,-101,39,-142v24,-37,57,-67,98,-88v36,-18,77,-27,122,-27v35,0,69,6,100,19v61,25,102,68,125,129v15,40,22,91,22,152r0,408","w":572},"r":{"d":"276,-406r-12,0v-45,0,-78,14,-100,43v-24,31,-36,76,-36,135r0,228r-88,0r0,-480r84,0r0,55v18,-27,41,-45,68,-55v18,-7,41,-10,69,-10r15,0r0,84","w":274},"s":{"d":"419,-134v0,15,-1,29,-5,42v-4,13,-10,25,-17,36v-17,23,-39,39,-67,48v-18,5,-41,8,-69,8r-235,0r0,-84r230,0v23,0,37,-1,44,-3v19,-5,29,-18,29,-37v0,-15,-5,-27,-16,-36v-8,-7,-21,-13,-38,-19r-131,-41v-45,-17,-76,-36,-93,-58v-17,-22,-25,-47,-25,-72v0,-12,1,-24,3,-36v2,-12,8,-25,18,-38v17,-23,41,-39,72,-48v19,-5,45,-8,77,-8r201,0r0,84r-226,0v-17,0,-30,4,-40,10v-10,6,-15,15,-15,27v0,14,6,26,17,35v7,6,19,12,35,17r129,39v47,17,79,36,96,59v17,23,26,48,26,75","w":445},"t":{"d":"300,0r-108,0v-38,0,-68,-7,-90,-20v-41,-25,-62,-72,-62,-141r0,-439r88,0r0,120r172,0r0,84r-172,0r0,228v0,33,2,54,7,61v9,15,34,23,73,23r92,0r0,84","w":314},"u":{"d":"450,-223v0,43,-5,79,-16,108v-15,41,-41,73,-79,96v-32,19,-69,29,-110,29v-41,0,-78,-10,-110,-29v-37,-23,-64,-55,-79,-96v-11,-29,-16,-65,-16,-108r0,-257r88,0r0,257v0,29,3,52,9,70v10,29,28,51,55,66v15,9,33,13,53,13v9,0,18,-1,27,-3v9,-2,18,-5,26,-10v27,-15,46,-36,55,-65v6,-18,9,-42,9,-71r0,-257r88,0r0,257","w":490},"v":{"d":"458,-480r-165,429v-8,21,-15,35,-20,41v-11,13,-28,20,-51,20v-17,0,-30,-3,-40,-10v-10,-7,-20,-24,-31,-51r-165,-429r96,0r140,370r140,-370r96,0","w":444},"w":{"d":"664,-197v0,45,-3,78,-10,99v-11,34,-34,62,-69,83v-14,9,-31,15,-49,19v-18,4,-36,6,-53,6v-15,0,-31,-3,-47,-8v-35,-11,-63,-31,-84,-60v-21,29,-49,49,-84,60v-7,3,-16,5,-26,6v-10,1,-20,2,-29,2v-35,0,-66,-8,-93,-25v-34,-21,-57,-48,-68,-82v-8,-23,-12,-57,-12,-100r0,-283r88,0r0,285v0,28,1,47,4,58v5,21,17,37,35,49v13,9,30,14,50,14v19,0,35,-4,49,-13v17,-11,28,-27,35,-48v5,-15,7,-35,7,-60r0,-285r88,0r0,285v0,26,3,48,8,65v5,17,16,32,34,43v13,9,29,13,48,13v20,0,37,-5,51,-14v17,-11,29,-28,34,-49v3,-13,5,-32,5,-58r0,-285r88,0r0,283","w":704},"x":{"d":"382,0r-6,0v-38,0,-74,-10,-106,-30v-32,-20,-57,-47,-76,-82v-19,35,-44,62,-76,82v-32,20,-67,30,-106,30r-6,0r0,-84v29,0,54,-8,76,-22v22,-14,40,-35,53,-63v10,-20,15,-44,15,-71v0,-28,-5,-53,-15,-74v-10,-21,-26,-39,-47,-55v-24,-18,-50,-27,-79,-27r-3,-84r4,0v39,0,76,10,108,30v32,20,57,47,76,82v19,-35,44,-62,76,-82v32,-20,67,-30,106,-30r6,0r0,84r-4,0v-27,0,-52,9,-76,26v-21,15,-37,34,-48,56v-11,22,-16,46,-16,74v0,27,6,51,16,72v10,21,26,40,47,56v25,19,50,28,76,28r5,0r0,84","w":388},"y":{"d":"440,-203v0,61,-14,110,-41,145v-27,35,-66,58,-115,68r0,208r-88,0r0,-208v-63,-13,-107,-45,-132,-96v-16,-33,-24,-72,-24,-117r0,-277r88,0r0,274v0,31,5,56,15,77v18,37,50,55,97,55v36,0,64,-11,83,-34v19,-23,29,-55,29,-98r0,-274r88,0r0,277","w":480},"z":{"d":"364,0r-258,0v-24,0,-42,-2,-53,-7v-23,-10,-35,-29,-35,-57v0,-13,4,-26,11,-40v7,-14,20,-31,37,-52r196,-240r-227,0r0,-84r238,0v25,0,43,3,56,8v21,9,32,27,32,53v0,15,-3,28,-10,41v-7,13,-19,31,-38,54r-197,240r248,0r0,84","w":382},"{":{"d":"291,176r-79,0v-29,0,-53,-12,-72,-36v-19,-24,-28,-52,-28,-86r0,-174v0,-29,-7,-55,-20,-76v-13,-21,-33,-33,-59,-36r0,-60v25,-3,45,-15,59,-36v14,-21,20,-47,20,-77r0,-173v0,-38,10,-68,30,-90v20,-22,48,-32,82,-32r67,0r0,46r-43,0v-15,0,-25,3,-32,10v-11,11,-16,35,-16,70r0,186v0,26,-4,48,-13,66v-13,26,-35,46,-66,60v23,7,42,22,57,44v15,22,22,50,22,83r0,185v0,27,3,47,10,60v7,13,18,20,35,20r46,0r0,46","w":389},"|":{"d":"150,0r-78,0r0,-700r78,0r0,700","w":222},"}":{"d":"291,-232v-25,3,-44,15,-58,36v-14,21,-21,46,-21,73r0,177v0,33,-9,62,-28,86v-19,24,-43,36,-72,36r-79,0r0,-46r46,0v16,0,28,-7,35,-20v7,-13,10,-33,10,-60r0,-181v0,-38,7,-67,22,-88v12,-17,31,-32,57,-43v-25,-8,-45,-24,-59,-48v-14,-24,-20,-52,-20,-87r0,-177v0,-27,-3,-47,-10,-60v-7,-13,-18,-20,-35,-20r-46,0r0,-46r79,0v29,0,53,12,72,36v19,24,28,52,28,86r0,174v0,29,7,55,20,76v13,21,33,33,59,36r0,60","w":389},"~":{"d":"531,-254v-35,57,-77,86,-126,86v-17,0,-33,-3,-50,-9v-10,-3,-27,-11,-49,-23v-22,-12,-39,-19,-52,-24v-22,-8,-42,-12,-61,-12v-19,0,-36,5,-51,16v-15,11,-27,30,-37,56r-36,-62v12,-25,27,-44,44,-58v23,-19,50,-28,81,-28v20,0,40,4,61,11v11,3,32,13,65,28v18,8,31,13,38,16v21,9,36,13,47,13v20,0,39,-9,57,-26v13,-12,24,-27,33,-46","w":600},"\u00a0":{"w":233}}});
