/*!
 * The following copyright notice may not be removed under any circumstances.
 * 
 * Copyright:
 * © 2000, 2004 Adobe Systems Incorporated. All Rights Reserved. U.S. Patent
 * D454,582.
 * 
 * Trademark:
 * Myriad is either a registered trademark or a trademark of Adobe Systems
 * Incorporated in the United States and/or other countries.
 * 
 * Designer:
 * Robert Slimbach and Carol Twombly
 * 
 * Vendor URL:
 * http://www.adobe.com/type
 * 
 * License information:
 * http://www.adobe.com/type/legal.html
 */
Cufon.registerFont({"w":513,"face":{"font-family":"Myriad Pro","font-weight":400,"font-stretch":"normal","units-per-em":"1000","panose-1":"2 11 5 3 3 4 3 2 2 4","ascent":"750","descent":"-250","x-height":"11","bbox":"-45 -822 838 250","underline-thickness":"50","underline-position":"-50","unicode-range":"U+0020-U+0451"},"glyphs":{" ":{"w":212},"#":{"d":"292,-255r19,-145r-104,0r-19,145r104,0xm93,0r26,-196r-82,0r0,-59r91,0r19,-145r-86,0r0,-59r95,0r26,-191r58,0r-25,191r104,0r26,-191r59,0r-25,191r82,0r0,59r-91,0r-18,145r86,0r0,59r-95,0r-26,196r-60,0r26,-196r-104,0r-26,196r-60,0","w":497},"$":{"d":"439,-188v0,101,-67,153,-158,170r0,104r-63,0r0,-101v-58,-1,-119,-19,-153,-44r24,-67v35,23,87,43,144,43v98,0,159,-103,91,-167v-76,-71,-253,-78,-250,-223v2,-89,68,-150,151,-161r0,-101r62,0r0,97v55,2,96,16,130,35r-25,66v-57,-42,-238,-61,-232,52v4,72,57,83,124,114v87,40,155,75,155,183"},"%":{"d":"30,-458v0,-116,49,-203,158,-203v100,0,152,82,150,194v-2,117,-47,205,-156,205v-105,0,-152,-84,-152,-196xm268,-463v-4,-73,-14,-145,-85,-145v-109,0,-107,237,-36,282v77,49,125,-49,121,-137xm176,12r382,-674r56,0r-383,674r-55,0xm454,-188v0,-116,48,-204,158,-204v100,0,151,82,149,194v-2,116,-47,205,-155,205v-105,0,-152,-83,-152,-195xm692,-194v0,-74,-14,-145,-85,-145v-67,0,-84,74,-84,147v0,73,17,146,85,146v66,0,84,-74,84,-148","w":792},"&":{"d":"588,-368v-19,102,-43,186,-97,249r111,119r-104,0r-63,-66v-52,48,-108,77,-197,77v-124,0,-207,-69,-207,-189v0,-101,63,-158,132,-197v-25,-42,-58,-83,-56,-144v4,-101,66,-166,171,-166v90,0,149,52,149,143v0,100,-63,136,-148,180v50,68,111,126,164,191v30,-46,52,-112,65,-197r80,0xm115,-191v-3,113,117,166,217,119v24,-12,44,-27,60,-44r-190,-212v-43,29,-85,66,-87,137xm350,-538v0,-50,-26,-85,-79,-87v-79,-3,-102,99,-69,163v10,19,21,38,36,56v55,-34,112,-59,112,-132","w":605},"(":{"d":"64,-285v0,-179,56,-307,131,-409r69,0v-73,102,-127,230,-126,409v1,177,52,303,126,406r-69,0v-75,-100,-131,-228,-131,-406","w":284},")":{"d":"219,-287v0,179,-55,307,-131,408r-68,0v74,-103,126,-231,126,-409v0,-177,-54,-305,-126,-406r68,0v77,99,131,228,131,407","w":284},"*":{"d":"329,-651r-95,127r151,-20r0,68v-49,-4,-106,-17,-151,-16r96,120r-63,36v-22,-46,-37,-97,-62,-140r-65,141r-57,-36r95,-124r-148,19r0,-68v48,4,103,18,147,17r-94,-122r61,-35v22,45,39,97,64,139r61,-140","w":415},"+":{"d":"330,-532r0,235r226,0r0,60r-226,0r0,237r-64,0r0,-237r-226,0r0,-60r226,0r0,-235r64,0","w":596},",":{"d":"17,123v24,-70,46,-158,59,-239r98,-10v-24,84,-58,174,-95,243","w":207},"-":{"d":"277,-303r0,65r-247,0r0,-65r247,0","w":307},".":{"d":"171,-52v0,36,-24,63,-61,63v-35,0,-58,-28,-58,-63v0,-36,25,-63,60,-63v35,0,60,27,59,63","w":207},"\/":{"d":"-1,40r279,-725r68,0r-280,725r-67,0","w":343},"0":{"d":"36,-323v2,-183,54,-338,226,-338v157,0,215,149,215,329v0,193,-58,343,-226,343v-153,0,-217,-153,-215,-334xm389,-328v0,-128,-14,-265,-132,-265v-39,0,-71,23,-95,69v-63,121,-61,475,94,467v119,-6,133,-140,133,-271"},"1":{"d":"236,-568v-41,18,-76,41,-115,61r-17,-67r142,-76r75,0r0,650r-85,0r0,-568"},"2":{"d":"245,-661v155,0,236,131,183,275v-49,132,-166,216,-260,313r292,0r0,73r-415,0r0,-54v100,-106,235,-197,297,-334v43,-95,-1,-200,-115,-200v-59,0,-107,30,-138,55r-28,-62v44,-37,105,-66,184,-66"},"3":{"d":"448,-184v8,195,-261,238,-406,151r24,-68v29,17,91,42,144,41v90,-2,147,-43,147,-126v0,-108,-99,-135,-217,-130r0,-66v103,4,194,-17,194,-110v0,-60,-42,-98,-114,-98v-50,0,-102,24,-130,43r-23,-64v36,-26,104,-51,170,-50v110,2,186,51,186,155v0,83,-56,126,-120,155v82,19,142,70,145,167"},"4":{"d":"317,0r0,-177r-302,0r0,-58r290,-415r95,0r0,404r91,0r0,69r-91,0r0,177r-83,0xm317,-246r0,-217v0,-34,1,-68,3,-102r-3,0r-54,96r-159,223r213,0"},"5":{"d":"357,-201v3,-135,-141,-159,-277,-137r42,-312r311,0r0,74r-248,0r-25,167v159,-19,286,45,286,198v0,173,-163,254,-338,209v-29,-7,-51,-17,-66,-27r22,-67v30,17,86,38,139,36v90,-4,152,-50,154,-141"},"6":{"d":"264,11v-158,0,-230,-116,-230,-277v0,-247,136,-385,382,-394r0,72v-170,-1,-265,90,-292,235r3,0v30,-40,85,-77,157,-75v126,4,196,82,196,210v0,135,-79,229,-216,229xm121,-243v0,103,40,184,144,186v80,2,126,-70,126,-156v0,-88,-50,-152,-134,-149v-71,2,-136,48,-136,119"},"7":{"d":"467,-650r0,58r-283,592r-91,0r282,-577r-318,0r0,-73r410,0"},"8":{"d":"37,-165v0,-93,58,-143,129,-174r-1,-3v-60,-28,-103,-74,-103,-146v0,-114,85,-173,201,-173v112,0,189,55,189,160v0,76,-42,122,-107,152r0,3v72,29,131,77,131,168v0,125,-94,189,-221,189v-125,0,-218,-58,-218,-176xm244,-311v-97,15,-158,142,-84,221v21,22,54,37,97,37v75,0,130,-46,130,-116v0,-90,-67,-118,-143,-142xm368,-492v-2,-66,-41,-101,-110,-106v-102,-7,-150,122,-80,181v22,19,53,33,91,43v51,-17,100,-53,99,-118"},"9":{"d":"263,-661v152,0,215,118,215,274v0,253,-127,396,-382,397r0,-72v173,6,267,-87,293,-239r-3,0v-33,41,-83,70,-153,70v-121,0,-192,-78,-192,-199v0,-137,84,-231,222,-231xm389,-398v0,-106,-31,-196,-134,-196v-86,0,-125,69,-127,158v-2,78,48,140,125,138v71,-2,136,-34,136,-100"},":":{"d":"171,-404v0,35,-24,62,-61,62v-34,0,-58,-28,-58,-62v0,-36,25,-65,60,-64v35,0,58,29,59,64xm171,-51v0,35,-24,62,-61,62v-34,0,-58,-28,-58,-62v0,-36,25,-63,60,-63v36,0,58,28,59,63","w":207},";":{"d":"17,123v25,-70,47,-158,60,-239r97,-10v-24,85,-59,173,-96,243xm178,-404v0,35,-24,62,-60,62v-34,0,-58,-28,-58,-62v0,-36,24,-64,59,-64v36,0,60,28,59,64","w":207},"<":{"d":"66,-293r464,-239r0,69r-391,196r0,2r391,196r0,69r-464,-239r0,-54","w":596},"=":{"d":"40,-337r0,-60r516,0r0,60r-516,0xm40,-141r0,-60r516,0r0,60r-516,0","w":596},">":{"d":"530,-238r-464,238r0,-69r394,-196r0,-2r-394,-196r0,-69r464,238r0,56","w":596},"?":{"d":"271,-528v0,-101,-140,-102,-196,-55r-24,-63v32,-23,89,-40,143,-40v101,2,167,51,167,147v0,150,-164,178,-142,347r-78,0v-25,-125,67,-196,112,-270v12,-21,18,-43,18,-66xm238,-51v0,35,-24,62,-61,62v-34,0,-58,-28,-58,-62v0,-36,25,-63,60,-63v35,0,60,27,59,63","w":406},"@":{"d":"260,-195v-3,62,57,94,108,63v70,-42,85,-141,101,-236v-121,-29,-204,57,-209,173xm357,57v59,0,112,-13,151,-35r16,43v-76,43,-203,56,-295,18v-109,-45,-186,-140,-186,-291v0,-176,90,-296,215,-354v76,-36,187,-43,268,-9v101,43,173,129,173,268v0,132,-55,238,-178,238v-45,0,-79,-33,-74,-88r-4,0v-35,59,-82,88,-141,88v-104,0,-125,-123,-90,-215v41,-110,184,-186,326,-127v-11,81,-49,182,-37,265v3,19,16,28,33,28v80,0,108,-90,108,-183v0,-155,-85,-250,-242,-250v-145,0,-232,85,-276,195v-16,41,-24,87,-24,138v0,167,93,271,257,271","w":737},"A":{"d":"185,-212r-70,212r-90,0r229,-674r105,0r230,674r-93,0r-72,-212r-239,0xm406,-280r-85,-258v-7,-19,-8,-43,-18,-59v-28,111,-65,213,-100,317r203,0","w":612},"B":{"d":"211,6v-50,0,-97,-3,-135,-8r0,-663v108,-20,278,-25,344,35v31,28,56,63,56,119v0,77,-56,124,-114,150v76,22,139,72,139,169v0,156,-113,194,-290,198xm388,-502v5,-109,-125,-120,-225,-104r0,217r79,0v82,2,143,-40,146,-113xm409,-193v-2,-120,-117,-136,-246,-130r0,257v120,14,248,-5,246,-127","w":542},"C":{"d":"387,-63v52,0,108,-11,142,-28r18,69v-41,19,-109,34,-178,33v-211,-7,-333,-127,-333,-342v0,-254,192,-392,455,-343v27,5,46,13,57,19r-21,71v-35,-16,-83,-28,-136,-28v-171,4,-263,105,-263,278v0,170,89,268,259,271","w":580},"D":{"d":"234,6v-58,0,-109,-2,-158,-8r0,-663v103,-16,255,-24,346,7v128,43,207,137,207,305v0,244,-146,359,-395,359xm538,-350v0,-210,-164,-289,-375,-251r0,532v223,32,375,-66,375,-281","w":666},"E":{"d":"425,-316r-262,0r0,243r292,0r0,73r-379,0r0,-674r364,0r0,73r-277,0r0,213r262,0r0,72","w":492},"F":{"d":"76,-674r363,0r0,73r-276,0r0,224r255,0r0,72r-255,0r0,305r-87,0r0,-674","w":487},"G":{"d":"388,-65v47,1,88,-5,116,-18r0,-201r-137,0r0,-70r222,0r0,324v-49,17,-130,38,-207,37v-220,-3,-346,-122,-346,-340v0,-254,201,-385,468,-338v29,5,50,14,65,21r-21,71v-41,-17,-86,-30,-149,-29v-173,3,-271,99,-271,271v0,170,91,268,260,272","w":646},"H":{"d":"163,-674r0,282r326,0r0,-282r88,0r0,674r-88,0r0,-316r-326,0r0,316r-87,0r0,-674r87,0","w":652},"I":{"d":"163,-674r0,674r-87,0r0,-674r87,0","w":239},"J":{"d":"90,-63v98,1,124,-65,124,-167r0,-444r87,0r0,451v13,185,-125,271,-297,218r13,-71v20,7,45,13,73,13","w":370},"K":{"d":"76,-674r87,0r0,325v23,-20,37,-49,56,-72r206,-253r108,0r-244,286r263,388r-103,0r-222,-331r-64,74r0,257r-87,0r0,-674","w":542},"L":{"d":"76,-674r87,0r0,601r288,0r0,73r-375,0r0,-674","w":472},"M":{"d":"661,0r-27,-519r0,-68r-3,0v-11,40,-23,81,-38,123r-166,460r-66,0r-153,-458v-15,-42,-21,-89,-36,-125r-13,298r-18,289r-83,0r47,-674r111,0r115,326r38,118v11,37,21,74,30,109r3,0v50,-192,127,-372,191,-553r111,0r42,674r-85,0","w":804},"N":{"d":"510,-115v-16,-174,-8,-370,-10,-559r82,0r0,674r-88,0r-214,-342r-68,-114v-22,-38,-41,-74,-58,-111r-3,1v3,43,4,86,5,129r2,437r-82,0r0,-674r95,0r216,341v47,74,85,142,121,219","w":658},"O":{"d":"652,-344v0,215,-108,355,-313,355v-200,0,-303,-139,-303,-342v0,-165,73,-277,188,-329v74,-33,177,-33,250,0v110,51,178,158,178,316xm560,-340v0,-150,-66,-274,-215,-274v-153,0,-216,126,-216,281v0,151,67,273,215,273v152,0,216,-126,216,-280","w":689},"P":{"d":"491,-482v5,170,-153,239,-328,212r0,270r-87,0r0,-666v50,-7,104,-13,167,-13v151,2,244,55,248,197xm404,-478v0,-121,-127,-148,-241,-125r0,262v117,25,241,-14,241,-137","w":532},"Q":{"d":"460,-17r197,43r-25,73v-46,-12,-91,-25,-134,-38v-56,-16,-104,-44,-165,-50v-190,-20,-297,-138,-297,-341v0,-166,72,-278,188,-330v74,-33,178,-34,250,0v109,51,178,158,178,316v0,168,-70,276,-192,323r0,4xm129,-332v0,151,67,266,215,272v257,10,276,-431,97,-530v-27,-15,-58,-24,-94,-24v-154,0,-218,126,-218,282","w":689},"R":{"d":"491,-496v0,95,-55,146,-127,172r0,3v114,36,102,221,151,321r-90,0v-32,-62,-42,-211,-91,-260v-33,-34,-103,-33,-171,-32r0,292r-87,0r0,-665v45,-10,111,-14,167,-14v148,-1,248,46,248,183xm404,-486v4,-121,-132,-140,-241,-118r0,246r89,0v87,2,149,-47,152,-128","w":538},"S":{"d":"450,-184v8,197,-259,237,-408,151r22,-73v37,23,96,44,156,44v81,0,141,-41,141,-115v0,-82,-53,-105,-127,-134v-93,-37,-174,-79,-178,-191v-6,-175,226,-221,367,-150r-24,71v-29,-14,-76,-33,-128,-32v-75,2,-127,33,-127,101v0,83,60,98,134,130v96,41,167,80,172,198","w":493},"T":{"d":"204,-600r-205,0r0,-74r499,0r0,74r-206,0r0,600r-88,0r0,-600","w":497},"U":{"d":"317,11v-171,0,-241,-111,-242,-288r0,-397r88,0r0,399v1,124,40,215,157,215v115,0,164,-83,164,-215r0,-399r88,0r0,393v-1,181,-80,292,-255,292","w":647},"V":{"d":"224,0r-220,-674r94,0r145,462v14,40,19,86,34,122v52,-203,128,-391,191,-584r93,0r-241,674r-96,0","w":558},"W":{"d":"186,0r-171,-674r92,0r108,464v11,39,13,82,24,110v38,-197,98,-384,145,-574r91,0r109,460v10,38,11,82,22,113r54,-233r89,-340r89,0r-191,674r-91,0r-112,-468v-9,-33,-9,-74,-19,-103v-37,197,-100,382,-148,571r-91,0","w":846},"X":{"d":"445,0r-164,-282r-2,0r-154,282r-100,0r206,-341r-198,-333r101,0r151,272r3,0v45,-95,102,-181,153,-272r100,0r-205,328r210,346r-101,0","w":571},"Y":{"d":"226,0r0,-286r-213,-388r99,0r130,257v12,22,19,49,34,68v50,-112,110,-217,165,-325r99,0r-226,387r0,287r-88,0","w":541},"Z":{"d":"30,-51r374,-547r0,-3r-342,0r0,-73r455,0r0,53r-372,545r0,3r377,0r0,73r-492,0r0,-51","w":553},"[":{"d":"82,112r0,-798r183,0r0,55r-115,0r0,688r115,0r0,55r-183,0","w":284},"\\":{"d":"274,40r-272,-725r68,0r272,725r-68,0","w":341},"]":{"d":"202,-686r0,798r-183,0r0,-55r115,0r0,-688r-115,0r0,-55r183,0","w":284},"^":{"d":"466,-189r-167,-388r-2,0r-167,388r-70,0r207,-461r62,0r207,461r-70,0","w":596},"_":{"d":"500,75r0,50r-500,0r0,-50r500,0","w":500},"a":{"d":"229,-495v127,0,182,75,184,198v1,99,-6,210,8,297r-80,0r-7,-61r-3,0v-27,38,-80,73,-148,72v-91,-2,-148,-52,-148,-139v0,-137,131,-182,291,-180v2,-77,-31,-123,-110,-122v-49,0,-95,15,-126,36r-20,-58v38,-26,96,-43,159,-43xm206,-54v71,0,122,-45,122,-109r0,-84v-100,0,-201,11,-205,109v-2,54,35,84,83,84","w":482},"b":{"d":"69,0r4,-125r0,-585r87,0r0,304r2,0v30,-53,84,-92,165,-89v138,5,204,105,204,247v0,152,-75,259,-217,259v-80,0,-130,-33,-162,-91r-3,0r-4,80r-76,0xm299,-425v-79,0,-139,59,-139,144r0,87v4,81,58,135,136,135v103,0,147,-79,147,-186v0,-101,-44,-180,-144,-180","w":569},"c":{"d":"295,-60v46,1,78,-12,108,-24r15,66v-30,15,-86,31,-139,29v-154,-5,-237,-94,-241,-248v-7,-203,191,-306,382,-232r-20,68v-25,-13,-59,-24,-102,-23v-112,3,-171,72,-171,183v0,111,60,177,168,181","w":448},"d":{"d":"255,-495v72,-4,119,37,148,74r0,-289r88,0r0,585r4,125r-79,0v-3,-27,1,-61,-6,-84v-26,53,-85,98,-165,95v-137,-6,-207,-104,-207,-246v0,-151,74,-252,217,-260xm270,-60v79,0,133,-56,133,-143r0,-84v-1,-81,-52,-139,-131,-139v-102,0,-145,83,-145,187v0,101,42,179,143,179","w":564},"e":{"d":"265,-495v150,0,210,119,197,269r-340,0v3,107,60,166,166,168v59,1,95,-9,134,-25r15,63v-39,18,-95,32,-161,31v-154,-4,-238,-92,-238,-245v0,-153,77,-261,227,-261xm380,-289v-2,-82,-37,-143,-122,-143v-86,0,-123,67,-135,143r257,0","w":501},"f":{"d":"263,-650v-85,1,-96,78,-94,166r117,0r0,67r-117,0r0,417r-87,0r0,-417r-68,0r0,-67r68,0v-16,-166,90,-275,249,-223r-12,68v-15,-7,-32,-11,-56,-11","w":292},"g":{"d":"490,-484r-4,133r0,281v14,217,-127,310,-333,269v-29,-7,-54,-17,-73,-30r22,-67v34,20,85,38,142,38v124,0,170,-93,154,-223v-27,45,-79,84,-154,81v-134,-5,-206,-100,-206,-236v0,-149,76,-250,218,-257v79,-4,122,38,153,84r4,-73r77,0xm270,-69v76,0,128,-55,129,-137r0,-87v-2,-80,-51,-133,-128,-133v-100,0,-144,79,-144,183v0,100,44,174,143,174","w":559},"h":{"d":"285,-422v-73,0,-123,53,-124,130r0,292r-88,0r0,-710r88,0r0,302r2,0v29,-49,79,-87,153,-87v113,0,169,82,169,207r0,288r-88,0r0,-278v-1,-82,-29,-144,-112,-144","w":555},"i":{"d":"73,0r0,-484r88,0r0,484r-88,0xm62,-620v0,-30,24,-55,55,-55v32,0,54,24,54,55v0,31,-23,54,-56,54v-30,0,-53,-24,-53,-54","w":234},"j":{"d":"-45,142v116,-2,129,-94,129,-219r0,-407r88,0r0,441v3,161,-57,247,-208,254xm73,-620v0,-31,24,-55,56,-55v31,0,53,25,53,55v0,30,-23,54,-55,54v-32,0,-54,-24,-54,-54","w":243},"k":{"d":"160,-262r187,-222r106,0r-187,199r213,285r-107,0r-167,-232r-45,50r0,182r-87,0r0,-710r87,0r0,448","w":469},"l":{"d":"73,-710r88,0r0,710r-88,0r0,-710","w":236},"m":{"d":"275,-423v-71,2,-116,59,-116,131r0,292r-86,0r0,-353r-4,-131r77,0r4,78r3,0v30,-49,73,-88,152,-89v72,-1,115,48,139,97v33,-54,75,-97,161,-97v111,0,158,87,159,210r0,285r-86,0r0,-274v0,-85,-26,-149,-105,-149v-67,0,-111,53,-111,124r0,299r-86,0r0,-290v0,-72,-30,-135,-101,-133","w":834},"n":{"d":"285,-422v-74,0,-124,54,-124,131r0,291r-88,0r0,-353r-4,-131r78,0v4,25,0,58,7,80v29,-51,80,-91,160,-91v114,0,171,81,171,206r0,289r-88,0r0,-279v-1,-82,-29,-143,-112,-143","w":555},"o":{"d":"38,-238v0,-158,87,-257,240,-257v150,0,233,98,233,249v0,160,-89,257,-241,257v-148,0,-232,-98,-232,-249xm421,-243v0,-101,-43,-186,-145,-186v-104,0,-149,84,-149,188v0,104,47,186,147,186v100,0,147,-83,147,-188","w":549},"p":{"d":"311,11v-70,3,-121,-35,-151,-76r0,263r-87,0r0,-524r-4,-158r79,0v3,26,-1,60,6,83v34,-56,86,-94,172,-94v136,0,205,104,205,246v0,154,-74,254,-220,260xm299,-425v-79,0,-139,62,-139,145r0,83v1,84,57,139,136,139v104,0,147,-80,147,-187v0,-101,-44,-180,-144,-180","w":569},"q":{"d":"494,-484r-3,133r0,549r-88,0r0,-273r-2,0v-27,48,-81,90,-158,86v-135,-6,-205,-105,-205,-245v0,-154,77,-252,219,-261v76,-5,122,41,151,84r3,-73r83,0xm270,-59v79,0,133,-56,133,-138r0,-91v-1,-81,-51,-137,-130,-137v-103,0,-146,81,-146,186v0,102,42,180,143,180","w":563},"r":{"d":"312,-409v-99,-17,-152,56,-152,151r0,258r-87,0r0,-333r-4,-151r77,0r3,95r4,0v21,-63,77,-118,159,-103r0,83","w":327},"s":{"d":"356,-135v7,146,-204,181,-317,112r22,-67v51,41,213,61,210,-37v-2,-57,-37,-69,-90,-89v-71,-27,-124,-60,-128,-137v-7,-138,179,-174,286,-112r-22,64v-45,-36,-184,-47,-180,38v3,54,42,61,92,82v71,30,123,60,127,146","w":396},"t":{"d":"222,11v-93,-1,-129,-64,-129,-164r0,-264r-75,0r0,-67r75,0r0,-89r86,-27r0,116r126,0r0,67r-126,0r0,261v1,56,13,94,66,94v22,0,35,-1,51,-6r4,66v-20,7,-47,13,-78,13","w":331},"u":{"d":"266,-62v75,-3,124,-50,124,-125r0,-297r88,0r0,352r4,132r-78,0v-4,-25,0,-58,-7,-79v-31,49,-79,90,-160,90v-119,0,-166,-84,-167,-212r0,-283r88,0r0,268v1,86,23,157,108,154","w":551},"v":{"d":"107,-484r117,336v6,20,12,40,17,60r3,0v11,-42,27,-84,41,-124r94,-272r92,0r-190,484r-84,0r-184,-484r94,0","w":481},"w":{"d":"108,-484r84,324v6,25,11,51,16,76r3,0v33,-139,81,-268,122,-400r74,0r99,324v7,26,14,51,19,76r3,0v26,-140,71,-268,106,-400r87,0r-156,484r-80,0r-97,-310v-9,-24,-11,-56,-22,-80v-30,141,-81,260,-122,390r-80,0r-146,-484r90,0","w":736},"x":{"d":"114,-484r118,183r3,0r48,-80r68,-103r95,0r-165,234r170,250r-100,0r-123,-193r-123,193r-97,0r172,-247r-164,-237r98,0","w":463},"y":{"d":"36,147v75,-26,132,-83,158,-162v0,-4,-2,-12,-6,-23r-179,-446r96,0r123,336v7,17,7,38,16,49r31,-101r96,-284r93,0r-176,455v-49,114,-105,219,-230,250","w":471},"z":{"d":"18,-51r250,-323v10,-14,24,-23,32,-39r-262,0r0,-71r369,0r-1,55r-246,319v-9,14,-23,24,-32,40r283,0r0,70r-393,0r0,-51","w":428},"{":{"d":"259,-631v-140,-14,-87,138,-83,234v3,65,-29,92,-72,110v47,12,74,47,72,109v-3,97,-56,248,83,235r0,55v-105,5,-166,-36,-166,-137v0,-58,16,-106,16,-163v0,-51,-27,-75,-81,-74r0,-51v55,1,82,-23,81,-75v0,-59,-16,-108,-16,-167v-1,-98,67,-135,166,-131r0,55","w":284},"|":{"d":"153,-750r0,1000r-67,0r0,-1000r67,0","w":239},"}":{"d":"175,-388v-1,52,26,76,81,75r0,51v-54,-1,-81,23,-81,74v0,57,16,105,16,163v0,101,-61,142,-166,137r0,-55v66,4,97,-24,97,-87v-1,-52,-14,-95,-15,-148v-2,-64,30,-94,72,-111v-46,-13,-74,-46,-72,-108v3,-96,59,-248,-82,-234r0,-55v99,-4,167,34,166,131v0,59,-16,108,-16,167","w":284},"~":{"d":"224,-282v-62,-31,-120,-6,-116,72r-59,0v-6,-90,42,-151,119,-151v101,0,166,87,266,87v35,0,53,-28,54,-84r60,0v11,115,-69,176,-176,141v-38,-12,-106,-44,-148,-65","w":596},"'":{"d":"138,-692r-17,240r-54,0r-16,-240r87,0","w":188},"`":{"d":"119,-693r87,143r-62,0r-122,-143r97,0","w":300},"\u0410":{"d":"185,-212r-70,212r-90,0r229,-674r105,0r230,674r-93,0r-72,-212r-239,0xm406,-280r-85,-258v-7,-19,-8,-43,-18,-59v-28,111,-65,213,-100,317r203,0","w":612},"\u0411":{"d":"506,-215v2,212,-225,238,-430,213r0,-672r378,0r0,73r-291,0r0,181v180,-21,342,28,343,205xm415,-213v-1,-127,-122,-155,-252,-140r0,286v128,20,253,-17,252,-146","w":546},"\u0412":{"d":"211,6v-50,0,-97,-3,-135,-8r0,-663v108,-20,278,-25,344,35v31,28,56,63,56,119v0,77,-56,124,-114,150v76,22,139,72,139,169v0,156,-113,194,-290,198xm388,-502v5,-109,-125,-120,-225,-104r0,217r79,0v82,2,143,-40,146,-113xm409,-193v-2,-120,-117,-136,-246,-130r0,257v120,14,248,-5,246,-127","w":542},"\u0413":{"d":"434,-674r0,73r-271,0r0,601r-87,0r0,-674r358,0","w":433},"\u0414":{"d":"537,-674r0,603r59,2r-6,231r-68,0r-6,-162r-425,0r-6,162r-68,0r-6,-231r51,-2v67,-112,101,-247,98,-432r0,-171r377,0xm241,-602v6,214,-10,404,-89,530r298,0r0,-530r-209,0","w":630},"\u0415":{"d":"425,-316r-262,0r0,243r292,0r0,73r-379,0r0,-674r364,0r0,73r-277,0r0,213r262,0r0,72","w":492},"\u0416":{"d":"11,0v68,-139,65,-343,249,-364r-239,-310r102,0r209,299r26,0r0,-299r85,0r0,299r27,0r208,-299r102,0r-239,310v187,18,181,227,249,364r-89,0v-65,-125,-48,-328,-258,-309r0,309r-85,0r0,-309v-211,-19,-195,182,-258,309r-89,0","w":801},"\u0417":{"d":"214,-614v-52,-1,-107,23,-140,44r-24,-64v46,-30,103,-52,178,-51v116,2,198,52,198,165v0,96,-65,141,-139,166v96,12,160,65,164,169v8,204,-270,236,-420,152r23,-68v35,20,96,41,151,41v91,0,155,-46,155,-128v0,-112,-105,-133,-223,-130r0,-66v109,5,193,-29,198,-124v4,-69,-51,-107,-121,-106","w":492},"\u0418":{"d":"158,-674r-2,432v1,45,-7,97,-4,138v101,-201,228,-382,343,-570r87,0r0,674r-82,0r2,-433v1,-43,3,-85,6,-128r-3,-1v-95,201,-224,377,-336,562r-93,0r0,-674r82,0","w":658},"\u0419":{"d":"158,-674r-2,432v1,45,-7,97,-4,138v101,-201,228,-382,343,-570r87,0r0,674r-82,0r2,-433v1,-43,3,-85,6,-128r-3,-1v-95,201,-224,377,-336,562r-93,0r0,-674r82,0xm457,-816v-6,71,-48,108,-130,108v-80,0,-120,-39,-126,-108r67,0v6,34,16,63,61,63v44,0,56,-28,61,-63r67,0","w":658},"\u041a":{"d":"162,-674r0,299r27,0r231,-299r105,0r-255,309v189,22,189,228,263,365r-94,0v-68,-127,-61,-329,-277,-309r0,309r-86,0r0,-674r86,0","w":542},"\u041b":{"d":"-7,-62v127,-24,130,-178,130,-328r0,-284r396,0r0,674r-88,0r0,-601r-223,0v-16,250,63,582,-204,609","w":594},"\u041c":{"d":"661,0r-27,-519r0,-68r-3,0v-11,40,-23,81,-38,123r-166,460r-66,0r-153,-458v-15,-42,-21,-89,-36,-125r-13,298r-18,289r-83,0r47,-674r111,0r115,326r38,118v11,37,21,74,30,109r3,0v50,-192,127,-372,191,-553r111,0r42,674r-85,0","w":804},"\u041d":{"d":"163,-674r0,282r326,0r0,-282r88,0r0,674r-88,0r0,-316r-326,0r0,316r-87,0r0,-674r87,0","w":652},"\u041e":{"d":"652,-344v0,215,-108,355,-313,355v-200,0,-303,-139,-303,-342v0,-165,73,-277,188,-329v74,-33,177,-33,250,0v110,51,178,158,178,316xm560,-340v0,-150,-66,-274,-215,-274v-153,0,-216,126,-216,281v0,151,67,273,215,273v152,0,216,-126,216,-280","w":689},"\u041f":{"d":"563,-674r0,674r-87,0r0,-601r-313,0r0,601r-87,0r0,-674r487,0","w":639},"\u0420":{"d":"491,-482v5,170,-153,239,-328,212r0,270r-87,0r0,-666v50,-7,104,-13,167,-13v151,2,244,55,248,197xm404,-478v0,-121,-127,-148,-241,-125r0,262v117,25,241,-14,241,-137","w":532},"\u0421":{"d":"387,-63v52,0,108,-11,142,-28r18,69v-41,19,-109,34,-178,33v-211,-7,-333,-127,-333,-342v0,-254,192,-392,455,-343v27,5,46,13,57,19r-21,71v-35,-16,-83,-28,-136,-28v-171,4,-263,105,-263,278v0,170,89,268,259,271","w":580},"\u0422":{"d":"204,-600r-205,0r0,-74r499,0r0,74r-206,0r0,600r-88,0r0,-600","w":497},"\u0423":{"d":"101,-674r134,288v18,39,30,83,51,119r147,-407r92,0r-201,486v-49,105,-110,225,-268,194r9,-71v90,17,137,-49,164,-113v7,-16,4,-25,-3,-40r-224,-456r99,0","w":521},"\u0424":{"d":"36,-333v0,-193,112,-291,286,-308r0,-60r83,0r0,60v176,13,284,114,284,304v0,192,-109,287,-285,301r0,63r-84,0r0,-63v-174,-14,-284,-106,-284,-297xm321,-578v-127,13,-195,97,-195,241v0,142,71,222,195,239r0,-480xm404,-98v126,-15,195,-97,195,-240v0,-144,-65,-228,-195,-240r0,480","w":725},"\u0425":{"d":"445,0r-164,-282r-2,0r-154,282r-100,0r206,-341r-198,-333r101,0r151,272r3,0v45,-95,102,-181,153,-272r100,0r-205,328r210,346r-101,0","w":571},"\u0426":{"d":"163,-674r0,601r309,0r0,-601r88,0r0,603r59,2r-6,231r-69,0r-6,-162r-462,0r0,-674r87,0","w":652},"\u0427":{"d":"270,-242v-127,-3,-200,-68,-199,-203r0,-229r87,0r0,216v0,93,48,146,143,145v49,0,102,-18,133,-39r0,-322r88,0r0,678r-88,0r0,-288v-46,23,-98,43,-164,42","w":597},"\u0428":{"d":"162,-674r0,601r219,0r0,-601r86,0r0,601r218,0r0,-601r87,0r0,674r-696,0r0,-674r86,0","w":847},"\u0429":{"d":"162,-674r0,601r219,0r0,-601r86,0r0,601r218,0r0,-601r87,0r0,603r59,2r-6,231r-69,0r-5,-162r-675,0r0,-674r86,0","w":864},"\u042a":{"d":"592,-217v2,211,-215,241,-421,215r0,-600r-173,0r0,-72r260,0r0,252v177,-22,332,33,334,205xm500,-213v0,-126,-116,-159,-242,-140r0,286v127,21,242,-19,242,-146","w":631},"\u042b":{"d":"503,-216v1,212,-222,240,-427,214r0,-672r87,0r0,252v180,-21,339,29,340,206xm412,-213v0,-126,-124,-158,-249,-140r0,286v128,20,249,-19,249,-146xm666,-674r0,674r-88,0r0,-674r88,0","w":746},"\u042c":{"d":"506,-217v2,214,-224,240,-430,215r0,-672r87,0r0,252v180,-21,341,28,343,205xm415,-212v0,-129,-123,-159,-252,-141r0,286v128,20,252,-16,252,-145","w":545},"\u042d":{"d":"49,-93v61,30,174,44,245,12v84,-38,138,-114,144,-229r-315,0r0,-70r314,0v-15,-136,-85,-230,-231,-233v-57,-1,-103,17,-144,34r-21,-67v46,-20,104,-40,170,-39v212,4,320,138,320,349v0,244,-168,381,-421,338v-30,-5,-56,-15,-80,-26","w":568},"\u042e":{"d":"541,11v-187,0,-269,-135,-280,-321r-98,0r0,310r-87,0r0,-674r87,0r0,291r100,0v20,-173,103,-302,287,-302v194,0,281,144,281,341v0,208,-91,355,-290,355xm347,-333v0,145,56,274,198,274v144,0,197,-132,197,-281v0,-144,-53,-275,-196,-275v-146,0,-199,132,-199,282","w":867},"\u042f":{"d":"306,-679v55,0,116,4,161,14r0,665r-87,0r0,-292v-66,0,-128,-3,-161,33v-58,64,-67,181,-111,259r-93,0v61,-106,61,-279,185,-321r0,-3v-84,-17,-149,-67,-149,-166v0,-142,103,-187,255,-189xm139,-486v6,115,114,136,241,127r0,-244v-106,-23,-247,-5,-241,117","w":543},"\u0401":{"d":"425,-316r-262,0r0,243r292,0r0,73r-379,0r0,-674r364,0r0,73r-277,0r0,213r262,0r0,72xm211,-772v0,28,-20,51,-49,51v-29,0,-48,-23,-48,-51v-1,-26,22,-50,49,-50v27,0,49,23,48,50xm397,-772v0,28,-20,51,-50,51v-27,0,-49,-24,-48,-51v0,-27,22,-50,50,-50v27,0,49,23,48,50","w":492},"\u0430":{"d":"229,-495v127,0,182,75,184,198v1,99,-6,210,8,297r-80,0r-7,-61r-3,0v-27,38,-80,73,-148,72v-91,-2,-148,-52,-148,-139v0,-137,131,-182,291,-180v2,-77,-31,-123,-110,-122v-49,0,-95,15,-126,36r-20,-58v38,-26,96,-43,159,-43xm206,-54v71,0,122,-45,122,-109r0,-84v-100,0,-201,11,-205,109v-2,54,35,84,83,84","w":482},"\u0431":{"d":"266,11v-221,0,-257,-271,-208,-474v32,-130,119,-211,265,-232v40,-6,87,-14,120,-26r-4,73v-61,21,-150,25,-203,52v-73,37,-113,124,-123,221r3,0v25,-63,89,-109,168,-109v139,0,204,96,206,239v2,151,-77,257,-224,256xm268,-54v99,0,133,-86,133,-185v0,-97,-36,-180,-135,-180v-93,0,-133,77,-133,169v0,99,37,196,135,196","w":528},"\u0432":{"d":"462,-137v-6,164,-231,146,-391,137r0,-478v135,-15,362,-40,369,110v3,65,-53,95,-101,111v67,10,126,45,123,120xm223,-428v-28,0,-44,1,-68,4r0,143v90,0,198,6,198,-76v0,-47,-43,-71,-130,-71xm372,-138v0,-95,-119,-84,-218,-85r0,165v93,7,218,12,218,-80","w":500},"\u0433":{"d":"368,-484r0,71r-210,0r0,413r-87,0r0,-484r297,0","w":385},"\u0434":{"d":"448,-484r0,418r50,1r-5,219r-69,0r-4,-154r-335,0r-4,154r-69,0r-4,-219r41,-1v71,-97,81,-247,76,-418r323,0xm203,-417v5,142,-12,264,-64,350r223,0r0,-350r-159,0","w":530},"\u0435":{"d":"265,-495v150,0,210,119,197,269r-340,0v3,107,60,166,166,168v59,1,95,-9,134,-25r15,63v-39,18,-95,32,-161,31v-154,-4,-238,-92,-238,-245v0,-153,77,-261,227,-261xm380,-289v-2,-82,-37,-143,-122,-143v-86,0,-123,67,-135,143r257,0","w":501},"\u0436":{"d":"114,-484r160,211r18,0r0,-211r84,0r0,211r17,0r160,-211r101,0r-191,220v138,11,146,163,198,264r-88,0v-46,-89,-53,-229,-197,-214r0,214r-84,0r0,-214v-146,-15,-151,121,-201,214r-85,0v52,-100,61,-254,199,-264r-192,-220r101,0","w":667},"\u0437":{"d":"298,-138v0,-83,-96,-84,-185,-83r0,-60v82,6,166,-12,166,-79v0,-94,-156,-78,-211,-36r-22,-54v95,-66,327,-71,325,83v-1,69,-58,93,-109,112v73,9,132,43,132,121v0,163,-250,170,-366,105r23,-59v68,44,247,55,247,-50","w":431},"\u0438":{"d":"154,-484r-5,398r3,0v70,-139,150,-268,229,-398r103,0r0,484r-84,0r3,-350v1,-16,2,-34,3,-53r-3,0r-80,150r-151,253r-101,0r0,-484r83,0","w":554},"\u0439":{"d":"154,-484r-5,398r3,0v70,-139,150,-268,229,-398r103,0r0,484r-84,0r3,-350v1,-16,2,-34,3,-53r-3,0r-80,150r-151,253r-101,0r0,-484r83,0xm406,-681v12,139,-214,168,-250,49v-5,-15,-8,-32,-9,-49r64,0v3,40,21,76,64,76v45,0,63,-35,67,-76r64,0","w":554},"\u043a":{"d":"382,0v-52,-91,-66,-229,-222,-213r0,213r-87,0r0,-484r87,0r0,210r21,0r182,-210r107,0r-211,219v139,13,158,163,215,265r-92,0","w":479},"\u043b":{"d":"2,-63v96,-18,97,-108,98,-228r0,-193r336,0r0,484r-87,0r0,-414r-166,0v-3,154,16,328,-76,390v-27,18,-50,31,-96,31","w":507},"\u043c":{"d":"78,-484r108,0r132,377r137,-377r109,0r34,484r-84,0r-20,-404r-3,0r-53,157r-93,244r-64,0r-111,-320r-23,-80r-4,0r-20,403r-81,0","w":639},"\u043d":{"d":"158,-484r0,195r230,0r0,-195r87,0r0,484r-87,0r0,-219r-230,0r0,219r-87,0r0,-484r87,0","w":546},"\u043e":{"d":"38,-238v0,-158,87,-257,240,-257v150,0,233,98,233,249v0,160,-89,257,-241,257v-148,0,-232,-98,-232,-249xm421,-243v0,-101,-43,-186,-145,-186v-104,0,-149,84,-149,188v0,104,47,186,147,186v100,0,147,-83,147,-188","w":549},"\u043f":{"d":"471,-484r0,484r-88,0r0,-414r-225,0r0,414r-87,0r0,-484r400,0","w":541},"\u0440":{"d":"311,11v-70,3,-121,-35,-151,-76r0,263r-87,0r0,-524r-4,-158r79,0v3,26,-1,60,6,83v34,-56,86,-94,172,-94v136,0,205,104,205,246v0,154,-74,254,-220,260xm299,-425v-79,0,-139,62,-139,145r0,83v1,84,57,139,136,139v104,0,147,-80,147,-187v0,-101,-44,-180,-144,-180","w":569},"\u0441":{"d":"295,-60v46,1,78,-12,108,-24r15,66v-30,15,-86,31,-139,29v-154,-5,-237,-94,-241,-248v-7,-203,191,-306,382,-232r-20,68v-25,-13,-59,-24,-102,-23v-112,3,-171,72,-171,183v0,111,60,177,168,181","w":448},"\u0442":{"d":"400,-484r0,70r-151,0r0,414r-87,0r0,-414r-151,0r0,-70r389,0","w":411},"\u0443":{"d":"36,147v75,-26,132,-83,158,-162v0,-4,-2,-12,-6,-23r-179,-446r96,0r123,336v7,17,7,38,16,49r31,-101r96,-284r93,0r-176,455v-49,114,-105,219,-230,250","w":471},"\u0444":{"d":"38,-238v0,-160,96,-240,243,-255r-1,-215r82,0r-1,215v146,14,243,93,243,250v0,158,-96,239,-243,252r1,189r-82,0r1,-188v-147,-12,-243,-92,-243,-248xm281,-433v-174,3,-205,291,-65,361v20,10,41,18,65,21r0,-382xm361,-51v172,-4,207,-291,65,-361v-20,-10,-41,-18,-65,-21r0,382","w":641},"\u0445":{"d":"114,-484r118,183r3,0r48,-80r68,-103r95,0r-165,234r170,250r-100,0r-123,-193r-123,193r-97,0r172,-247r-164,-237r98,0","w":463},"\u0446":{"d":"158,-484r0,415r223,0r0,-415r87,0r0,418r50,1r-5,219r-68,0r-4,-154r-370,0r0,-484r87,0","w":550},"\u0447":{"d":"224,-153v-103,-1,-159,-53,-159,-157r0,-174r88,0v6,118,-35,266,100,266v40,0,79,-16,104,-33r0,-233r87,0r0,490r-87,0r0,-196v-33,19,-82,38,-133,37","w":515},"\u0448":{"d":"157,-484r0,415r169,0r0,-415r86,0r0,415r169,0r0,-415r87,0r0,484r-597,0r0,-484r86,0","w":738},"\u0449":{"d":"157,-484r0,415r169,0r0,-415r86,0r0,415r169,0r0,-415r87,0r0,418r49,1r-5,219r-68,0r-4,-154r-569,0r0,-484r86,0","w":749},"\u044a":{"d":"543,-162v0,175,-214,177,-386,160r0,-413r-143,0r0,-69r231,0r0,163v148,-15,298,11,298,159xm455,-159v0,-101,-114,-111,-211,-98r0,195v96,14,211,3,211,-97","w":579},"\u044b":{"d":"446,-163v-3,172,-205,179,-375,161r0,-482r87,0r0,165v141,-21,290,13,288,156xm359,-160v1,-98,-107,-111,-201,-97r0,196v95,13,200,-4,201,-99xm594,-484r0,484r-87,0r0,-484r87,0","w":665},"\u044c":{"d":"462,-162v-4,176,-218,176,-391,160r0,-482r87,0r0,164v148,-17,307,7,304,158xm374,-160v0,-100,-119,-110,-216,-97r0,196v99,12,216,0,216,-99","w":498},"\u044d":{"d":"45,-85v62,32,188,39,239,-17v28,-30,48,-66,52,-114r-243,0r0,-60r244,0v-11,-92,-64,-150,-167,-151v-47,-1,-86,14,-116,27r-19,-57v38,-22,93,-38,149,-38v156,0,242,96,242,255v0,183,-143,280,-332,242v-25,-5,-47,-14,-66,-24","w":464},"\u044e":{"d":"449,11v-136,0,-198,-94,-211,-224r-81,0r0,213r-86,0r0,-484r86,0r0,204r83,0v19,-122,81,-215,215,-215v142,0,212,103,212,249v0,149,-74,257,-218,257xm322,-239v0,97,34,185,129,185v95,0,128,-92,128,-190v0,-95,-33,-185,-127,-185v-95,0,-130,91,-130,190","w":705},"\u044f":{"d":"44,-352v0,-162,229,-144,382,-128r0,480r-87,0r0,-203v-77,-4,-142,3,-169,54v-24,46,-38,105,-65,149r-94,0v55,-75,54,-207,161,-229r0,-3v-69,-11,-128,-43,-128,-120xm135,-347v0,86,108,86,204,84r0,-163v-89,-9,-204,-13,-204,79","w":496},"\u0451":{"d":"225,-621v0,27,-21,51,-50,51v-28,0,-50,-24,-50,-51v0,-27,24,-51,51,-51v28,0,50,23,49,51xm410,-621v0,27,-21,51,-50,51v-28,0,-49,-24,-49,-51v-1,-27,23,-51,50,-51v28,0,50,23,49,51xm265,-495v150,0,210,119,197,269r-340,0v3,107,60,166,166,168v59,1,95,-9,134,-25r15,63v-39,18,-95,32,-161,31v-154,-4,-238,-92,-238,-245v0,-153,77,-261,227,-261xm380,-289v-2,-82,-37,-143,-122,-143v-86,0,-123,67,-135,143r257,0","w":501},"\"":{"d":"138,-692r-17,240r-54,0r-16,-240r87,0xm287,-692r-17,240r-53,0r-17,-240r87,0","w":337},"!":{"d":"81,-194r-14,-480r96,0r-14,480r-68,0xm174,-51v0,35,-24,62,-60,62v-34,0,-58,-28,-58,-62v0,-35,25,-62,59,-62v36,0,59,27,59,62","w":230},"\u00a0":{"w":212}}});
