/*!
 * The following copyright notice may not be removed under any circumstances.
 * 
 * Copyright:
 * Copyright © 2000 Adobe Systems Incorporated. All Rights Reserved. U.S. Patent
 * Des. pending.
 * 
 * Trademark:
 * Myriad is a registered trademark of Adobe Systems Incorporated.
 * 
 * Full name:
 * MyriadPro-SemiExt
 * 
 * Designer:
 * Robert Slimbach and Carol Twombly
 * 
 * Vendor URL:
 * http://www.adobe.com/type
 * 
 * License information:
 * http://www.adobe.com/type/legal.html
 */
Cufon.registerFont({"w":556,"face":{"font-family":"Myriad Pro","font-weight":400,"font-stretch":"semi-expanded","units-per-em":"1000","panose-1":"2 11 5 5 3 4 3 2 2 4","ascent":"750","descent":"-250","x-height":"12","bbox":"-51 -824 917 250","underline-thickness":"50","underline-position":"-50","stemh":"69","stemv":"91","unicode-range":"U+0020-U+0451"},"glyphs":{" ":{"w":231},"\u00a0":{"w":231},"!":{"d":"153,-195r-69,0r-16,-479r101,0xm181,-52v0,35,-25,64,-63,64v-36,0,-61,-29,-61,-64v0,-38,25,-65,62,-65v37,0,62,27,62,65","w":239},"\"":{"d":"51,-695r93,0r-18,242r-57,0xm203,-695r93,0r-18,242r-57,0","w":347},"#":{"d":"202,-257r113,0r18,-141r-112,0xm167,0r-63,0r26,-195r-89,0r0,-62r98,0r19,-141r-92,0r0,-62r101,0r26,-190r62,0r-26,190r113,0r26,-190r62,0r-25,190r88,0r0,62r-97,0r-19,141r92,0r0,62r-102,0r-25,195r-63,0r26,-195r-113,0","w":535},"$":{"d":"302,86r-65,0r0,-100v-62,-2,-128,-20,-167,-48r26,-70v39,26,96,47,158,47v75,0,128,-40,128,-97v0,-54,-42,-86,-122,-115v-116,-41,-180,-88,-180,-177v0,-83,62,-148,164,-163r0,-101r65,0r0,99v66,2,109,19,140,38r-25,68v-22,-12,-68,-38,-140,-38v-84,0,-113,47,-113,86v0,49,40,77,133,112v112,41,169,91,169,184v0,75,-55,154,-171,172r0,103"},"%":{"d":"30,-457v0,-133,76,-205,170,-205v95,0,159,67,159,193v0,267,-330,284,-329,12xm286,-464v0,-84,-26,-145,-92,-144v-56,0,-91,60,-91,147v0,88,35,146,92,146v61,0,91,-56,91,-149xm251,12r-58,0r395,-673r58,0xm482,-188v0,-132,76,-205,169,-205v95,0,159,67,159,193v0,266,-329,282,-328,12xm737,-195v0,-84,-26,-145,-91,-144v-56,0,-91,60,-91,146v0,88,35,146,91,146v61,0,91,-56,91,-148","w":840},"&":{"d":"645,0r-111,0r-68,-67v-66,57,-133,79,-214,79v-136,0,-220,-87,-220,-190v0,-98,63,-159,141,-198v-31,-47,-58,-93,-58,-140v0,-83,62,-170,182,-170v91,0,159,59,159,145v0,72,-45,128,-158,179r-1,3r176,187v32,-42,56,-101,73,-198r84,0v-22,114,-53,194,-105,250v44,45,82,84,120,120xm120,-193v0,80,63,137,149,137v63,0,116,-27,150,-61v-34,-32,-118,-119,-203,-213v-39,22,-96,63,-96,137xm376,-537v0,-42,-26,-89,-86,-88v-60,0,-92,48,-92,99v0,49,26,86,56,120v73,-38,122,-72,122,-131","w":642},"(":{"d":"204,-695r71,0v-78,102,-132,229,-132,411v0,178,57,302,132,405r-71,0v-67,-85,-137,-211,-137,-406v0,-196,70,-323,137,-410","w":294},")":{"d":"90,121r-71,0v75,-102,132,-229,132,-409v0,-179,-56,-304,-132,-407r71,0v67,85,137,212,137,408v0,195,-70,321,-137,408","w":294},"*":{"d":"278,-686r62,36r-99,128r157,-20r0,69r-157,-19v29,46,67,82,99,125r-65,37r-61,-143r-2,0r-66,143r-59,-37r98,-125r-153,19r0,-69r152,18r-97,-126r64,-36r62,143r2,0","w":429},"+":{"d":"265,-532r66,0r0,234r225,0r0,62r-225,0r0,236r-66,0r0,-236r-225,0r0,-62r225,0r0,-234","w":596},",":{"d":"81,116r-65,7v22,-61,49,-167,61,-242r101,-10v-24,87,-68,198,-97,245","w":211},"-":{"d":"30,-306r256,0r0,66r-256,0r0,-66","w":316},"\u00ad":{"d":"30,-306r256,0r0,66r-256,0r0,-66","w":316},".":{"d":"177,-52v0,35,-25,64,-63,64v-36,0,-61,-29,-61,-64v0,-38,25,-65,62,-65v37,0,62,27,62,65","w":211},"\/":{"d":"66,40r-70,0r300,-726r72,0","w":364},"0":{"d":"517,-334v0,216,-85,346,-245,346v-136,0,-233,-119,-233,-334v0,-219,104,-340,245,-340v148,0,233,121,233,328xm131,-329v0,173,57,272,146,272v99,0,148,-103,148,-272v0,-163,-46,-264,-147,-264v-86,0,-147,100,-147,264"},"1":{"d":"252,0r0,-567v-41,18,-77,41,-116,60r-18,-69r144,-74r78,0r0,650r-88,0"},"2":{"d":"498,0r-449,0r0,-54r74,-65v195,-175,265,-248,266,-338v0,-64,-31,-131,-140,-131v-63,0,-118,32,-153,62r-31,-63v52,-44,123,-73,203,-73v150,0,213,101,213,192v0,120,-89,210,-245,349v-17,16,-39,28,-54,47r316,0r0,74"},"3":{"d":"48,-37r25,-70v27,17,92,45,162,45v127,0,160,-79,158,-125v-5,-113,-121,-135,-240,-128r0,-69v105,6,215,-11,215,-108v0,-47,-33,-97,-124,-97v-58,0,-115,25,-146,47r-26,-66v38,-27,112,-54,188,-54v246,-1,263,251,74,310r0,2v87,15,154,79,154,166v0,103,-85,196,-254,196v-83,0,-153,-26,-186,-49"},"4":{"d":"432,0r-87,0r0,-177r-331,0r0,-58r316,-415r102,0r0,404r98,0r0,69r-98,0r0,177xm108,-246r237,0r0,-229v0,-30,1,-62,3,-93r-4,-1v-68,124,-158,211,-236,323"},"5":{"d":"170,-409v164,-19,313,35,313,199v0,126,-107,222,-256,222v-82,0,-146,-23,-180,-44r24,-69v29,17,88,40,156,40v87,0,164,-56,163,-139v-1,-77,-55,-142,-199,-142v-43,0,-76,4,-104,8r42,-316r337,0r0,76r-272,0"},"6":{"d":"448,-661r0,74v-181,-7,-306,106,-317,234r2,0v33,-43,93,-80,172,-80v127,0,215,86,215,213v0,118,-89,232,-235,232v-147,0,-249,-106,-249,-281v0,-252,159,-390,412,-392xm278,-364v-71,0,-151,45,-151,121v0,99,53,185,160,185v85,0,140,-70,140,-156v0,-92,-59,-150,-149,-150"},"7":{"d":"65,-650r441,0r0,61r-307,589r-95,0r306,-576r-345,0r0,-74"},"8":{"d":"66,-486v0,-103,93,-176,218,-176v137,0,206,79,206,162v0,55,-28,115,-114,151r0,4v88,28,140,86,140,164v0,118,-107,193,-240,193v-145,0,-236,-79,-236,-179v0,-79,47,-137,136,-171r0,-3v-79,-32,-110,-88,-110,-145xm262,-309v-174,26,-171,253,16,254v90,0,144,-53,144,-115v0,-80,-59,-117,-160,-139xm401,-491v0,-48,-34,-107,-122,-106v-83,0,-126,50,-126,105v-1,64,52,100,138,118v61,-15,110,-55,110,-117"},"9":{"d":"106,11r0,-74v174,10,296,-83,319,-239r-3,0v-40,49,-98,75,-170,75v-128,0,-208,-92,-208,-201v0,-124,98,-234,242,-234v139,0,232,103,232,279v0,274,-152,393,-412,394xm273,-296v77,0,146,-33,152,-101v8,-103,-42,-197,-148,-196v-86,0,-142,74,-142,160v0,76,53,137,138,137"},":":{"d":"177,-401v0,35,-25,64,-63,64v-36,0,-61,-29,-61,-64v0,-38,25,-65,62,-65v37,0,62,27,62,65xm177,-52v0,35,-25,64,-63,64v-36,0,-61,-29,-61,-64v0,-38,25,-65,62,-65v37,0,62,27,62,65","w":211},";":{"d":"82,116r-65,6v22,-61,49,-167,60,-242r101,-10v-24,87,-68,198,-96,246xm184,-401v0,35,-25,64,-63,64v-36,0,-61,-29,-61,-64v0,-38,25,-65,62,-65v37,0,62,27,62,65","w":211},"<":{"d":"66,-238r0,-56r464,-238r0,70r-392,195r0,2r392,195r0,70","w":596},"=":{"d":"556,-338r-516,0r0,-62r516,0r0,62xm556,-139r-516,0r0,-62r516,0r0,62","w":596},">":{"d":"530,-294r0,56r-464,238r0,-70r392,-195r0,-2r-392,-195r0,-70","w":596},"?":{"d":"235,-194r-82,0v-10,-80,4,-127,66,-197v47,-54,74,-92,74,-133v0,-49,-31,-87,-101,-88v-39,0,-84,13,-113,35r-26,-64v40,-28,102,-45,158,-45v119,0,176,72,176,151v0,65,-39,112,-90,169v-57,63,-70,101,-62,172xm255,-52v0,35,-25,64,-63,64v-36,0,-61,-29,-61,-64v0,-38,25,-65,62,-65v37,0,62,27,62,65","w":438},"@":{"d":"482,-262r19,-102v-114,-37,-226,46,-226,162v0,44,24,81,75,81v64,0,121,-79,132,-141xm541,19r17,47v-230,112,-513,-17,-513,-282v0,-201,146,-376,382,-376v187,0,318,129,318,305v0,137,-90,222,-185,222v-41,0,-82,-27,-80,-91r-3,0v-36,59,-83,91,-154,91v-61,0,-116,-50,-116,-132v0,-128,106,-232,245,-232v48,0,90,10,119,23r-32,175v-15,77,-3,114,33,115v53,2,113,-59,113,-168v0,-149,-98,-260,-267,-260v-171,0,-312,122,-312,321v0,168,120,279,274,279v61,0,120,-13,161,-37","w":786},"A":{"d":"469,-215r-269,0r-78,215r-95,0r254,-674r111,0r257,674r-99,0xm220,-285r229,0r-77,-202v-18,-42,-24,-82,-40,-113v-28,107,-75,214,-112,315","w":671},"B":{"d":"81,-1r0,-664v41,-8,109,-15,175,-15v96,0,153,15,197,49v36,27,60,67,60,121v0,64,-45,123,-118,147r0,3v59,14,144,63,144,169v0,58,-25,103,-61,135v-49,43,-129,63,-250,63v-64,0,-115,-5,-147,-8xm172,-604r0,215r94,0v101,0,155,-48,155,-112v0,-84,-69,-110,-159,-110v-48,0,-74,3,-90,7xm172,-321r0,254v118,15,271,5,271,-126v0,-120,-137,-135,-271,-128","w":585},"C":{"d":"592,-96r19,71v-35,17,-109,37,-205,37v-209,0,-368,-125,-368,-344v0,-193,147,-354,390,-354v97,0,159,21,185,34r-23,72v-38,-18,-95,-32,-158,-32v-187,0,-298,111,-298,279v0,151,101,269,291,269v62,0,125,-12,167,-32","w":648},"D":{"d":"293,-680v251,-1,409,104,409,327v0,96,-33,188,-102,255v-70,68,-188,105,-337,105v-72,0,-130,-3,-182,-8r0,-664v61,-8,134,-15,212,-15xm172,-598r0,528v26,4,65,5,107,5v221,1,327,-118,327,-284v0,-156,-101,-259,-310,-259v-56,0,-97,5,-124,10","w":740},"E":{"d":"464,-389r0,74r-292,0r0,241r326,0r0,74r-417,0r0,-674r400,0r0,74r-309,0r0,211r292,0","w":537},"F":{"d":"81,0r0,-674r398,0r0,74r-307,0r0,221r283,0r0,74r-283,0r0,305r-91,0","w":534},"G":{"d":"419,7v-219,0,-380,-126,-381,-342v0,-180,140,-346,401,-346v90,0,161,20,192,35r-23,72v-42,-19,-94,-33,-172,-33v-190,0,-302,113,-302,269v0,158,110,271,293,271v67,0,113,-9,138,-22r0,-194r-153,0r0,-72r243,0r0,320v-43,16,-129,42,-236,42","w":716},"H":{"d":"81,-674r91,0r0,280r371,0r0,-280r91,0r0,674r-91,0r0,-317r-371,0r0,317r-91,0r0,-674","w":715},"I":{"d":"81,-674r91,0r0,674r-91,0r0,-674","w":253},"J":{"d":"240,-244r0,-430r91,0r0,439v1,237,-158,277,-327,228r15,-73v116,37,221,19,221,-164","w":405},"K":{"d":"81,0r0,-674r91,0r0,326r3,0v19,-25,39,-47,57,-68r233,-258r115,0r-270,286r294,388r-109,0r-250,-333r-73,78r0,255r-91,0","w":588},"L":{"d":"81,0r0,-674r91,0r0,598r321,0r0,76r-412,0","w":515},"M":{"d":"720,0r-17,-298v-5,-95,-12,-214,-12,-299r-2,0v-26,79,-58,166,-96,262r-130,331r-72,0r-120,-327v-37,-97,-60,-190,-86,-266v-4,85,-8,204,-15,306r-20,291r-87,0r49,-674r121,0r126,333v32,79,51,161,75,225v52,-178,145,-383,213,-558r120,0r43,674r-90,0","w":872},"N":{"d":"167,0r-86,0r0,-674r103,0v122,179,279,373,378,563r3,-1v-17,-169,-8,-375,-10,-562r86,0r0,674r-93,0r-243,-347v-53,-78,-104,-155,-141,-225r-3,1v5,84,6,164,6,265r0,306","w":722},"O":{"d":"731,-344v0,224,-159,356,-352,356v-201,0,-341,-145,-341,-341v0,-210,149,-357,350,-357v207,0,343,146,343,342xm134,-332v0,146,95,272,250,272v155,0,251,-120,251,-280v0,-137,-86,-274,-249,-274v-165,0,-252,131,-252,282","w":770},"P":{"d":"532,-480v7,180,-178,243,-360,212r0,268r-91,0r0,-666v46,-8,107,-14,186,-14v162,2,259,58,265,200xm172,-602r0,261v23,7,52,9,86,9v115,0,183,-52,183,-144v0,-95,-75,-133,-174,-133v-45,0,-78,4,-95,7","w":576},"Q":{"d":"733,25r-25,76v-122,-25,-221,-75,-338,-89v-175,-20,-332,-128,-332,-340v0,-212,148,-358,351,-358v206,0,342,147,342,341v0,170,-92,283,-218,325r0,4v74,16,156,32,220,41xm134,-330v0,146,96,270,249,270v155,0,252,-120,252,-280v0,-137,-86,-274,-247,-274v-167,0,-254,133,-254,284","w":770},"R":{"d":"267,-680v163,1,257,46,265,184v5,92,-66,147,-134,174v52,19,85,68,102,132v25,95,41,162,56,190r-94,0v-11,-19,-29,-75,-47,-160v-27,-128,-103,-139,-243,-132r0,292r-91,0r0,-665v48,-9,120,-15,186,-15xm172,-602r0,242r107,0v100,0,162,-50,162,-126v0,-91,-73,-125,-168,-125v-51,0,-85,5,-101,9","w":581},"S":{"d":"46,-36r25,-75v44,28,106,49,175,49v95,0,151,-47,151,-115v0,-63,-37,-99,-140,-131v-130,-40,-196,-97,-196,-193v0,-107,93,-185,232,-185v78,0,133,17,167,36r-26,72v-23,-13,-74,-35,-143,-35v-102,0,-138,57,-138,102v0,62,43,94,146,127v125,41,190,93,190,200v0,100,-74,196,-252,196v-71,0,-150,-21,-191,-48","w":537},"T":{"d":"226,0r0,-600r-233,0r0,-74r558,0r0,74r-234,0r0,600r-91,0","w":544},"U":{"d":"81,-674r91,0r0,382v0,160,75,231,180,231v113,0,187,-73,187,-231r0,-382r91,0r0,378v0,217,-121,308,-283,308v-150,0,-266,-83,-266,-306r0,-380","w":711},"V":{"d":"344,0r-101,0r-243,-674r99,0r117,338v34,96,60,173,80,249r2,0v58,-187,149,-400,218,-587r97,0","w":603},"W":{"d":"296,0r-98,0r-185,-674r97,0r143,576r2,0v37,-176,110,-398,159,-576r99,0r89,350v20,81,39,161,50,224r2,0v14,-66,34,-141,59,-228r100,-346r94,0r-211,674r-97,0r-91,-358v-26,-91,-35,-158,-50,-220v-37,178,-113,397,-162,578","w":910},"X":{"d":"602,0r-108,0r-184,-283r-2,0v-38,71,-123,199,-172,283r-108,0r229,-341r-220,-333r108,0r169,275r2,0v21,-37,41,-69,70,-115r103,-160r109,0r-230,329","w":631},"Y":{"d":"340,0r-91,0r0,-286r-235,-388r105,0r179,327r2,0v20,-42,45,-84,74,-135r110,-192r105,0r-249,387r0,287","w":590},"Z":{"d":"33,0r0,-52r422,-545r0,-3r-386,0r0,-74r508,0r0,53r-420,544r0,3r427,0r0,74r-551,0","w":619},"[":{"d":"279,112r-195,0r0,-798r195,0r0,55r-124,0r0,688r124,0r0,55","w":294},"\\":{"d":"371,40r-71,0r-298,-726r71,0","w":367},"]":{"d":"15,-686r195,0r0,798r-195,0r0,-55r124,0r0,-688r-124,0r0,-55","w":294},"^":{"d":"537,-189r-72,0r-166,-388r-2,0r-167,388r-71,0r207,-461r64,0","w":596},"_":{"d":"0,75r500,0r0,50r-500,0r0,-50","w":500},"a":{"d":"456,0r-83,0r-8,-64r-3,0v-28,37,-87,76,-165,76v-109,0,-159,-74,-159,-139v0,-116,106,-184,319,-182v0,-45,-5,-121,-121,-121v-50,0,-104,15,-141,40r-22,-60v47,-30,110,-46,176,-46v290,0,168,284,207,496xm354,-139v11,-29,3,-70,5,-107v-114,-3,-228,17,-228,107v0,56,40,84,90,84v73,0,118,-45,133,-84","w":522},"b":{"d":"80,-128r0,-588r91,0r0,316r2,0v33,-56,95,-96,186,-96v134,0,227,104,227,247v0,173,-122,261,-241,261v-78,0,-140,-31,-186,-97r-4,85r-79,0v3,-35,4,-81,4,-128xm330,-426v-77,0,-153,56,-159,153r0,71v3,85,67,142,155,142v103,0,168,-72,168,-186v0,-98,-59,-180,-164,-180","w":626},"c":{"d":"445,-88r16,69v-25,11,-83,31,-158,31v-160,0,-263,-104,-263,-248v0,-152,112,-260,283,-260v60,0,113,15,140,29r-21,69v-25,-13,-63,-26,-119,-26v-121,0,-190,80,-190,182v0,112,82,181,187,181v58,0,97,-15,125,-27","w":496},"d":{"d":"448,-716r91,0r0,588v0,47,1,93,4,128r-82,0v-3,-29,1,-66,-6,-91v-31,60,-97,103,-185,103v-130,0,-230,-103,-230,-245v-1,-159,108,-263,241,-263v89,0,141,44,167,79r0,-299xm297,-61v82,0,150,-61,151,-153r0,-69v-1,-90,-63,-143,-150,-143v-101,0,-166,77,-166,186v0,97,56,179,165,179","w":619},"e":{"d":"504,-223r-377,0v2,109,83,164,183,164v73,0,115,-12,152,-27r16,65v-32,13,-90,33,-180,33v-160,0,-259,-100,-259,-245v0,-143,93,-263,250,-263v177,0,219,150,219,233v0,18,-1,31,-4,40xm128,-288r292,0v1,-42,-18,-144,-138,-144v-103,0,-146,84,-154,144","w":547},"f":{"d":"86,-484v-20,-171,110,-286,265,-229r-11,70v-15,-7,-33,-12,-62,-12v-88,1,-105,80,-102,171r127,0r0,69r-126,0r0,415r-91,0r0,-415r-70,0r0,-69r70,0","w":314},"g":{"d":"537,-484v-8,120,-4,279,-4,410v0,107,-24,182,-76,226v-100,84,-265,75,-371,15r23,-70v36,23,92,44,159,44v100,0,175,-50,175,-177v0,-17,4,-42,-2,-55v-30,48,-88,89,-174,89v-132,0,-227,-105,-227,-236v0,-159,115,-258,240,-258v97,0,145,49,173,91r3,-79r81,0xm294,-71v80,0,146,-57,148,-146r0,-69v-3,-89,-62,-141,-147,-141v-93,0,-163,70,-163,184v0,85,52,172,162,172","w":613},"h":{"d":"311,-421v-79,0,-140,53,-140,135r0,286r-91,0r0,-716r91,0r0,315r2,0v29,-51,93,-94,169,-95v67,0,187,37,187,219r0,277r-91,0r0,-268v0,-84,-35,-153,-127,-153","w":605},"i":{"d":"171,0r-91,0r0,-484r91,0r0,484xm183,-624v0,30,-22,56,-59,56v-34,0,-56,-26,-56,-56v0,-30,23,-56,58,-56v34,0,57,25,57,56","w":250},"j":{"d":"-42,215r-9,-72v46,-2,83,-14,106,-37v26,-28,37,-67,37,-191r0,-399r91,0r0,437v0,92,-15,157,-61,204v-41,42,-111,58,-164,58xm195,-624v0,29,-21,56,-59,56v-35,0,-56,-27,-56,-56v0,-30,23,-56,59,-56v34,0,56,26,56,56","w":262},"k":{"d":"171,-716r0,453v17,-13,34,-38,50,-55r158,-166r113,0r-207,198r238,286r-114,0r-187,-234r-51,52r0,182r-91,0r0,-716r91,0","w":507},"l":{"d":"80,0r0,-716r91,0r0,716r-91,0","w":250},"m":{"d":"299,-422v-78,0,-130,59,-130,135r0,287r-89,0r0,-351v0,-49,-1,-92,-4,-133r79,0r5,83r3,0v29,-48,77,-95,167,-95v75,0,125,50,150,104v39,-62,85,-104,177,-104v64,0,174,39,174,223r0,273r-89,0r0,-264v0,-104,-43,-158,-118,-158v-71,0,-124,52,-124,126r0,296r-89,0r0,-282v0,-85,-42,-140,-112,-140","w":906},"n":{"d":"311,-422v-80,0,-140,55,-140,134r0,288r-91,0r0,-351v0,-49,-1,-92,-4,-133r81,0r5,86r3,0v25,-47,87,-98,176,-98v66,0,188,37,188,219r0,277r-91,0r0,-269v0,-85,-36,-153,-127,-153","w":605},"o":{"d":"564,-248v0,177,-137,260,-267,260v-146,0,-258,-101,-258,-249v0,-158,116,-259,266,-259v157,0,259,107,259,248xm133,-241v0,116,76,186,167,186v91,0,170,-68,170,-189v0,-85,-50,-185,-167,-185v-115,0,-170,91,-170,188","w":604},"p":{"d":"80,200r0,-524v0,-57,-1,-110,-4,-160r82,0v4,28,0,64,7,89v38,-61,102,-101,194,-101v128,0,227,102,227,245v0,173,-117,263,-243,263v-73,0,-134,-31,-172,-83r0,271r-91,0xm331,-425v-79,0,-153,59,-160,152r0,70v3,88,68,145,155,145v103,0,168,-73,168,-189v0,-95,-59,-178,-163,-178","w":626},"q":{"d":"448,200r0,-283r-2,0v-30,53,-90,95,-180,95v-125,0,-226,-102,-226,-245v0,-185,131,-263,241,-263v92,0,142,48,171,90r3,-78r88,0v-3,43,-4,84,-4,127r0,557r-91,0xm295,-60v82,0,147,-56,153,-144r0,-79v-2,-89,-61,-142,-150,-142v-100,0,-166,75,-166,186v0,95,53,179,163,179","w":617},"r":{"d":"335,-409v-101,-19,-164,51,-164,154r0,255r-91,0r0,-325v0,-62,-1,-111,-4,-159r80,0r3,101r3,0v31,-78,90,-124,173,-110r0,84","w":354},"s":{"d":"45,-24r22,-68v30,18,82,37,130,37v71,0,101,-33,101,-73v0,-44,-30,-65,-99,-86v-96,-29,-139,-78,-139,-137v0,-78,65,-145,179,-145v53,0,100,14,129,32r-22,66v-19,-12,-60,-31,-111,-31v-56,0,-86,30,-86,68v0,42,34,60,102,82v93,30,136,71,136,145v0,82,-67,146,-193,146v-58,0,-111,-15,-149,-36","w":432},"t":{"d":"237,12v-99,-1,-137,-66,-137,-168r0,-259r-80,0r0,-69r80,0r0,-92r89,-25r0,117r137,0r0,69r-137,0r0,253v0,59,16,99,72,99v27,0,43,-3,57,-7r5,68v-19,8,-49,14,-86,14","w":357},"u":{"d":"290,-63v78,0,141,-52,141,-132r0,-289r91,0r0,351v0,50,1,94,4,133r-81,0v-4,-28,0,-64,-7,-88v-25,44,-81,100,-179,100v-73,0,-183,-35,-183,-221r0,-275r91,0r0,259v0,97,34,162,123,162","w":602},"v":{"d":"13,-484r99,0r106,272v19,49,33,87,46,127r2,0r154,-399r97,0r-211,484r-90,0","w":526},"w":{"d":"20,-484r93,0r71,249v17,53,25,108,41,154v35,-134,90,-273,134,-403r79,0r83,245v21,58,31,114,48,158v28,-132,79,-275,118,-403r90,0r-168,484r-85,0r-79,-230v-22,-55,-33,-111,-51,-164v-33,143,-88,263,-134,394r-85,0","w":793},"x":{"d":"16,-484r103,0r133,180r2,0r129,-180r102,0r-182,232r188,252r-105,0r-80,-108v-23,-28,-37,-60,-60,-85r-136,193r-103,0r191,-248","w":505},"y":{"d":"42,147v76,-21,138,-69,170,-161v0,-4,-1,-12,-7,-24r-197,-446r101,0r119,289v14,29,23,74,37,98v10,-29,22,-66,35,-101r108,-286r99,0r-150,356v-74,181,-120,255,-181,300v-47,36,-92,48,-115,51","w":513},"z":{"d":"19,0r0,-52r241,-280v23,-30,48,-50,71,-80r-292,0r0,-72r406,0r-1,56r-237,277r-70,79r313,0r0,72r-431,0","w":466},"{":{"d":"96,-28v0,-52,17,-106,17,-158v0,-32,-9,-76,-85,-76r0,-51v76,0,85,-40,85,-76v1,-54,-17,-112,-17,-165v0,-100,72,-137,175,-132r0,56v-73,-5,-107,25,-105,90v1,48,16,95,16,146v0,63,-32,90,-73,107v45,11,73,47,73,106v0,51,-16,98,-16,146v-1,67,35,96,105,91r0,56v-103,4,-174,-28,-175,-140","w":294},"|":{"d":"92,-750r68,0r0,1000r-68,0r0,-1000","w":251},"}":{"d":"198,-554v0,54,-17,112,-17,165v0,36,9,76,85,76r0,51v-76,0,-85,44,-85,76v0,51,17,105,17,158v-1,112,-72,144,-175,140r0,-56v70,5,106,-24,105,-91v0,-48,-16,-95,-16,-146v0,-62,32,-92,73,-108v-45,-12,-75,-45,-73,-105v4,-102,61,-250,-89,-236r0,-56v103,-5,175,32,175,132","w":294},"~":{"d":"436,-204v-61,0,-203,-90,-271,-90v-38,0,-61,26,-63,87r-62,0v-3,-104,52,-156,123,-156v65,0,201,89,275,89v36,0,55,-28,56,-86r61,0v5,118,-57,156,-119,156","w":596},"'":{"d":"51,-695r93,0r-18,242r-57,0","w":194},"`":{"d":"16,-697r103,0r91,146r-66,0","w":300},"\u0410":{"d":"469,-215r-269,0r-78,215r-95,0r254,-674r111,0r257,674r-99,0xm220,-285r229,0r-77,-202v-18,-42,-24,-82,-40,-113v-28,107,-75,214,-112,315","w":671},"\u0411":{"d":"545,-217v0,221,-260,241,-464,216r0,-673r409,0r0,74r-318,0r0,175v186,-22,373,23,373,208xm450,-215v-1,-135,-143,-159,-278,-141r0,289v130,19,279,-12,278,-148","w":588},"\u0412":{"d":"81,-1r0,-664v41,-8,109,-15,175,-15v96,0,153,15,197,49v36,27,60,67,60,121v0,64,-45,123,-118,147r0,3v59,14,144,63,144,169v0,58,-25,103,-61,135v-49,43,-129,63,-250,63v-64,0,-115,-5,-147,-8xm172,-604r0,215r94,0v101,0,155,-48,155,-112v0,-84,-69,-110,-159,-110v-48,0,-74,3,-90,7xm172,-321r0,254v118,15,271,5,271,-126v0,-120,-137,-135,-271,-128","w":585},"\u0413":{"d":"81,-674r390,0r0,74r-299,0r0,600r-91,0r0,-674","w":465},"\u0414":{"d":"170,-674r412,0r0,602r64,2r-6,240r-71,0r-7,-170r-467,0r-6,170r-71,0r-6,-240r53,-2v71,-109,109,-227,105,-424r0,-178xm255,-600v7,218,-10,414,-97,527r333,0r0,-527r-236,0","w":682},"\u0415":{"d":"464,-389r0,74r-292,0r0,241r326,0r0,74r-417,0r0,-674r400,0r0,74r-309,0r0,211r292,0","w":537},"\u0416":{"d":"12,0v73,-143,82,-353,272,-365r-260,-309r107,0r230,297r31,0r0,-297r89,0r0,297r31,0r230,-297r107,0r-261,309v191,7,202,224,272,365r-93,0v-66,-120,-66,-319,-250,-308r-36,0r0,308r-89,0r0,-308r-37,0v-183,-10,-186,186,-249,308r-94,0","w":872},"\u0417":{"d":"83,-567r-26,-65v52,-32,114,-54,192,-54v120,0,209,59,209,166v0,89,-68,146,-146,168v98,9,173,68,173,167v0,218,-290,237,-450,150r25,-70v39,22,107,44,166,44v105,0,163,-54,163,-128v0,-120,-126,-130,-239,-127r0,-68v116,11,213,-41,213,-123v0,-138,-203,-119,-280,-60","w":529},"\u0418":{"d":"81,-674r86,0r0,298v0,103,-1,192,-7,278r2,1v108,-192,262,-393,387,-577r92,0r0,674r-86,0r0,-305v0,-97,1,-175,8,-259r-3,-1v-103,192,-256,384,-379,565r-100,0r0,-674","w":722},"\u0419":{"d":"81,-674r86,0r0,298v0,103,-1,192,-7,278r2,1v108,-192,262,-393,387,-577r92,0r0,674r-86,0r0,-305v0,-97,1,-175,8,-259r-3,-1v-103,192,-256,384,-379,565r-100,0r0,-674xm228,-822r71,0v4,32,13,64,62,64v49,0,59,-30,63,-64r70,0v-3,67,-45,111,-136,111v-88,0,-125,-45,-130,-111","w":722},"\u041a":{"d":"484,0v-76,-133,-81,-332,-312,-308r0,308r-91,0r0,-674r91,0r0,297r31,0r260,-297r111,0r-284,307v203,16,213,232,293,367r-99,0","w":592},"\u041b":{"d":"136,-674r432,0r0,674r-91,0r0,-600r-250,0r0,196v0,137,-7,309,-108,376v-27,18,-73,36,-117,36r-9,-72v31,-5,64,-24,82,-42v58,-58,61,-204,61,-292r0,-276","w":649},"\u041c":{"d":"720,0r-17,-298v-5,-95,-12,-214,-12,-299r-2,0v-26,79,-58,166,-96,262r-130,331r-72,0r-120,-327v-37,-97,-60,-190,-86,-266v-4,85,-8,204,-15,306r-20,291r-87,0r49,-674r121,0r126,333v32,79,51,161,75,225v52,-178,145,-383,213,-558r120,0r43,674r-90,0","w":872},"\u041d":{"d":"81,-674r91,0r0,280r371,0r0,-280r91,0r0,674r-91,0r0,-317r-371,0r0,317r-91,0r0,-674","w":715},"\u041e":{"d":"731,-344v0,224,-159,356,-352,356v-201,0,-341,-145,-341,-341v0,-210,149,-357,350,-357v207,0,343,146,343,342xm134,-332v0,146,95,272,250,272v155,0,251,-120,251,-280v0,-137,-86,-274,-249,-274v-165,0,-252,131,-252,282","w":770},"\u041f":{"d":"81,-674r537,0r0,674r-91,0r0,-600r-355,0r0,600r-91,0r0,-674","w":699},"\u0420":{"d":"532,-480v7,180,-178,243,-360,212r0,268r-91,0r0,-666v46,-8,107,-14,186,-14v162,2,259,58,265,200xm172,-602r0,261v23,7,52,9,86,9v115,0,183,-52,183,-144v0,-95,-75,-133,-174,-133v-45,0,-78,4,-95,7","w":576},"\u0421":{"d":"592,-96r19,71v-35,17,-109,37,-205,37v-209,0,-368,-125,-368,-344v0,-193,147,-354,390,-354v97,0,159,21,185,34r-23,72v-38,-18,-95,-32,-158,-32v-187,0,-298,111,-298,279v0,151,101,269,291,269v62,0,125,-12,167,-32","w":648},"\u0422":{"d":"226,0r0,-600r-233,0r0,-74r558,0r0,74r-234,0r0,600r-91,0","w":544},"\u0423":{"d":"1,-674r105,0r151,293v21,38,34,83,57,120r47,-122r121,-291r96,0r-161,363v-42,96,-89,192,-137,246v-58,66,-126,91,-214,71r10,-73v92,20,151,-53,177,-109v8,-17,6,-25,-3,-41","w":572},"\u0424":{"d":"356,-704r88,0r0,63v155,5,316,88,316,305v0,207,-158,292,-318,301r0,65r-88,0r0,-65v-156,-8,-316,-88,-316,-297v0,-223,175,-302,318,-309r0,-63xm355,-100r0,-477v-99,4,-223,64,-223,240v0,160,110,228,223,237xm443,-577r0,477v107,-6,223,-71,223,-236v0,-174,-111,-236,-223,-241","w":798},"\u0425":{"d":"602,0r-108,0r-184,-283r-2,0v-38,71,-123,199,-172,283r-108,0r229,-341r-220,-333r108,0r169,275r2,0v21,-37,41,-69,70,-115r103,-160r109,0r-230,329","w":631},"\u0426":{"d":"81,-674r91,0r0,600r351,0r0,-600r91,0r0,602r64,2r-6,240r-72,0r-6,-170r-513,0r0,-674","w":713},"\u0427":{"d":"76,-674r91,0r0,211v0,102,57,154,160,154v54,0,112,-19,152,-44r0,-321r91,0r0,678r-91,0r0,-287v-55,30,-115,48,-184,48v-90,0,-219,-33,-219,-215r0,-224","w":651},"\u0428":{"d":"81,-674r90,0r0,600r244,0r0,-600r90,0r0,600r243,0r0,-600r90,0r0,674r-757,0r0,-674","w":919},"\u0429":{"d":"81,-674r90,0r0,600r244,0r0,-600r90,0r0,600r243,0r0,-600r90,0r0,602r64,2r-6,240r-72,0r-6,-170r-737,0r0,-674","w":938},"\u042a":{"d":"627,-219v4,221,-248,244,-451,218r0,-599r-184,0r0,-74r275,0r0,246v176,-22,357,21,360,209xm267,-357r0,290v128,19,269,-11,265,-148v-4,-142,-137,-158,-265,-142","w":671},"\u042b":{"d":"542,-218v2,223,-257,242,-461,217r0,-673r91,0r0,247v183,-24,368,19,370,209xm172,-357r0,290v129,19,275,-10,275,-149v0,-140,-154,-157,-275,-141xm622,-674r91,0r0,674r-91,0r0,-674","w":800},"\u042c":{"d":"545,-219v3,225,-258,243,-464,218r0,-673r91,0r0,247v183,-24,370,18,373,208xm172,-357r0,290v131,18,280,-6,278,-148v-2,-142,-144,-158,-278,-142","w":588},"\u042d":{"d":"141,-309r0,-70r350,0v-15,-144,-111,-234,-257,-234v-64,0,-118,17,-169,39r-21,-68v56,-24,122,-44,195,-44v220,0,351,141,351,351v0,318,-303,407,-555,309r19,-72v46,21,113,36,168,36v155,0,263,-93,270,-247r-351,0","w":628},"\u042e":{"d":"81,-674r91,0r0,291r109,0v20,-184,141,-303,319,-303v198,0,317,146,317,341v0,228,-145,357,-324,357v-184,0,-307,-130,-315,-320r-106,0r0,308r-91,0r0,-674xm368,-332v0,146,86,274,228,273v142,0,228,-121,228,-282v0,-136,-75,-274,-226,-274v-152,0,-230,132,-230,283","w":954},"\u042f":{"d":"340,-291v-169,-1,-160,192,-226,291r-98,0v66,-106,74,-277,202,-321r0,-3v-90,-11,-161,-75,-161,-166v0,-143,113,-188,272,-190v64,0,131,6,179,15r0,665r-91,0r0,-291r-77,0xm417,-361r0,-241v-16,-4,-50,-9,-97,-9v-87,0,-172,25,-172,125v0,81,77,126,180,127v35,0,70,0,89,-2","w":589},"\u0401":{"d":"464,-389r0,74r-292,0r0,241r326,0r0,74r-417,0r0,-674r400,0r0,74r-309,0r0,211r292,0xm231,-772v0,27,-20,52,-51,52v-30,0,-50,-25,-50,-52v0,-28,22,-52,52,-52v28,0,49,23,49,52xm425,-772v0,27,-20,52,-52,52v-29,0,-49,-25,-49,-52v0,-28,22,-52,51,-52v29,0,50,23,50,52","w":537},"\u0430":{"d":"456,0r-83,0r-8,-64r-3,0v-28,37,-87,76,-165,76v-109,0,-159,-74,-159,-139v0,-116,106,-184,319,-182v0,-45,-5,-121,-121,-121v-50,0,-104,15,-141,40r-22,-60v47,-30,110,-46,176,-46v290,0,168,284,207,496xm354,-139v11,-29,3,-70,5,-107v-114,-3,-228,17,-228,107v0,56,40,84,90,84v73,0,118,-45,133,-84","w":522},"\u0431":{"d":"483,-727r-4,74v-26,10,-73,18,-105,22v-87,12,-154,38,-197,94v-36,45,-56,116,-61,171r3,0v37,-80,113,-118,188,-118v133,0,228,90,228,240v0,154,-88,256,-246,256v-284,0,-303,-430,-164,-599v55,-67,128,-98,233,-114v42,-6,89,-14,125,-26xm289,-419v-95,0,-150,73,-150,173v0,89,50,192,152,192v108,0,151,-87,151,-185v0,-80,-37,-180,-153,-180","w":574},"\u0432":{"d":"76,0r0,-478v36,-5,107,-11,169,-11v82,0,227,11,227,122v0,64,-52,94,-102,110v71,9,125,47,125,119v0,131,-175,143,-270,143v-57,0,-120,-4,-149,-5xm164,-422r0,141v93,1,215,7,217,-75v0,-45,-41,-70,-139,-70v-36,0,-55,3,-78,4xm163,-223r0,163v30,2,49,3,81,3v59,0,157,-11,157,-83v0,-94,-134,-83,-238,-83","w":535},"\u0433":{"d":"76,-484r322,0r0,72r-231,0r0,412r-91,0r0,-484","w":416},"\u0434":{"d":"132,-484r348,0r0,416r53,1r-6,229r-71,0r-4,-162r-363,0r-4,162r-72,0r-4,-228r44,-2v74,-99,84,-247,79,-416xm212,-415v6,140,-13,262,-65,346r244,0r0,-346r-179,0","w":568},"\u0435":{"d":"504,-223r-377,0v2,109,83,164,183,164v73,0,115,-12,152,-27r16,65v-32,13,-90,33,-180,33v-160,0,-259,-100,-259,-245v0,-143,93,-263,250,-263v177,0,219,150,219,233v0,18,-1,31,-4,40xm128,-288r292,0v1,-42,-18,-144,-138,-144v-103,0,-146,84,-154,144","w":547},"\u0436":{"d":"14,-484r106,0r174,210r18,0r0,-210r88,0r0,210r17,0r175,-210r105,0r-206,219v77,6,123,46,157,127v19,46,36,97,58,138r-92,0v-18,-31,-31,-71,-49,-113v-35,-83,-82,-101,-165,-99r0,212r-88,0r0,-212v-84,-2,-131,14,-168,99v-18,42,-32,82,-49,113r-90,0v23,-41,39,-92,58,-138v35,-82,81,-121,158,-127","w":711},"\u0437":{"d":"123,-221r0,-61v89,8,183,-22,179,-77v-7,-91,-164,-83,-227,-33r-23,-56v53,-32,113,-47,173,-47v73,0,175,29,175,129v0,63,-64,96,-113,111v73,6,136,49,136,121v0,168,-272,173,-390,102r25,-61v39,22,90,37,140,37v76,0,123,-34,123,-83v1,-80,-105,-84,-198,-82","w":463},"\u0438":{"d":"76,-484r88,0r0,217v0,74,-2,114,-5,181r3,1v77,-140,169,-266,255,-399r110,0r0,484r-88,0r0,-221v0,-70,2,-106,6,-185r-3,0v-36,63,-57,97,-88,145r-169,261r-109,0r0,-484","w":604},"\u0439":{"d":"76,-484r88,0r0,217v0,74,-2,114,-5,181r3,1v77,-140,169,-266,255,-399r110,0r0,484r-88,0r0,-221v0,-70,2,-106,6,-185r-3,0v-36,63,-57,97,-88,145r-169,261r-109,0r0,-484xm167,-685r67,0v2,43,24,79,66,79v45,0,66,-35,70,-79r67,0v-3,82,-58,128,-139,128v-96,0,-128,-63,-131,-128","w":604},"\u043a":{"d":"80,-484r91,0r0,210r24,0r200,-210r114,0r-231,219v82,7,134,56,179,150v13,29,31,76,55,115r-96,0v-13,-18,-31,-56,-49,-95v-41,-88,-93,-121,-196,-117r0,212r-91,0r0,-484","w":517},"\u043b":{"d":"3,-66v98,-20,106,-93,106,-235r0,-183r363,0r0,484r-91,0r0,-413r-186,0r0,113v0,136,-16,224,-74,269v-29,22,-57,37,-111,37","w":548},"\u043c":{"d":"43,0r38,-484r113,0r96,254v13,28,31,99,46,126v9,-28,42,-118,63,-170r83,-210r114,0r34,484r-87,0r-21,-402r-3,0v-14,42,-26,72,-56,147r-102,252r-65,0r-94,-248v-14,-38,-36,-109,-49,-149r-4,0r-21,400r-85,0","w":673},"\u043d":{"d":"76,-484r91,0r0,192r258,0r0,-192r91,0r0,484r-91,0r0,-221r-258,0r0,221r-91,0r0,-484","w":593},"\u043e":{"d":"564,-248v0,177,-137,260,-267,260v-146,0,-258,-101,-258,-249v0,-158,116,-259,266,-259v157,0,259,107,259,248xm133,-241v0,116,76,186,167,186v91,0,170,-68,170,-189v0,-85,-50,-185,-167,-185v-115,0,-170,91,-170,188","w":604},"\u043f":{"d":"76,-484r436,0r0,484r-91,0r0,-413r-254,0r0,413r-91,0r0,-484","w":589},"\u0440":{"d":"80,200r0,-524v0,-57,-1,-110,-4,-160r82,0v4,28,0,64,7,89v38,-61,102,-101,194,-101v128,0,227,102,227,245v0,173,-117,263,-243,263v-73,0,-134,-31,-172,-83r0,271r-91,0xm331,-425v-79,0,-153,59,-160,152r0,70v3,88,68,145,155,145v103,0,168,-73,168,-189v0,-95,-59,-178,-163,-178","w":626},"\u0441":{"d":"445,-88r16,69v-25,11,-83,31,-158,31v-160,0,-263,-104,-263,-248v0,-152,112,-260,283,-260v60,0,113,15,140,29r-21,69v-25,-13,-63,-26,-119,-26v-121,0,-190,80,-190,182v0,112,82,181,187,181v58,0,97,-15,125,-27","w":496},"\u0442":{"d":"11,-484r419,0r0,71r-164,0r0,413r-91,0r0,-413r-164,0r0,-71","w":442},"\u0443":{"d":"42,147v76,-21,138,-69,170,-161v0,-4,-1,-12,-7,-24r-197,-446r101,0r119,289v14,29,23,74,37,98v10,-29,22,-66,35,-101r108,-286r99,0r-150,356v-74,181,-120,255,-181,300v-47,36,-92,48,-115,51","w":513},"\u0444":{"d":"306,-716r86,0r-1,222v154,10,265,101,265,250v0,160,-120,245,-265,254r1,190r-86,0r1,-189v-153,-8,-267,-100,-267,-248v0,-163,119,-248,267,-257xm307,-52r0,-380v-104,10,-176,85,-176,191v0,106,74,178,176,189xm391,-432r0,380v102,-11,174,-87,174,-192v0,-107,-72,-177,-174,-188","w":696},"\u0445":{"d":"16,-484r103,0r133,180r2,0r129,-180r102,0r-182,232r188,252r-105,0r-80,-108v-23,-28,-37,-60,-60,-85r-136,193r-103,0r191,-248","w":505},"\u0446":{"d":"76,-484r91,0r0,413r251,0r0,-413r91,0r0,416r53,1r-6,229r-71,0r-4,-162r-405,0r0,-484","w":596},"\u0447":{"d":"71,-484r91,0v6,125,-37,264,111,264v41,0,86,-15,115,-37r0,-227r91,0r0,492r-91,0r-1,-201v-115,70,-325,58,-316,-125r0,-166","w":555},"\u0448":{"d":"76,-484r91,0r0,413r181,0r0,-413r91,0r0,413r181,0r0,-413r91,0r0,484r-635,0r0,-484","w":787},"\u0449":{"d":"76,-484r91,0r0,413r181,0r0,-413r91,0r0,413r181,0r0,-413r91,0r0,416r53,1r-6,229r-71,0r-4,-162r-607,0r0,-484","w":799},"\u044a":{"d":"578,-162v0,181,-241,175,-412,161r0,-412r-151,0r0,-71r243,0r0,161v145,-16,320,-4,320,161xm257,-258r0,195v94,10,234,8,230,-97v-4,-111,-132,-111,-230,-98","w":617},"\u044b":{"d":"479,-164v0,179,-234,179,-403,163r0,-483r92,0r0,163v138,-22,311,2,311,157xm167,-258r0,195v94,11,221,5,221,-98v0,-109,-127,-111,-221,-97xm543,-484r91,0r0,484r-91,0r0,-484","w":711},"\u044c":{"d":"496,-163v0,183,-248,176,-420,162r0,-483r92,0r0,162v147,-17,328,-7,328,159xm167,-259r0,196v94,9,238,11,238,-98v0,-113,-139,-109,-238,-98","w":534},"\u044d":{"d":"208,-496v155,0,262,94,262,258v0,144,-103,250,-277,250v-62,0,-116,-14,-161,-38r19,-64v25,11,72,30,138,30v107,0,178,-59,187,-155r-269,0r0,-62r270,0v-9,-87,-68,-150,-184,-150v-59,0,-104,18,-132,32r-22,-59v51,-27,112,-42,169,-42","w":510},"\u044e":{"d":"76,-484r90,0r0,204r91,0v16,-122,105,-216,236,-216v141,0,232,105,232,248v0,148,-98,260,-239,260v-129,0,-220,-91,-231,-223r-89,0r0,211r-90,0r0,-484xm343,-238v0,98,52,185,146,184v96,0,145,-93,145,-191v0,-96,-50,-184,-144,-184v-92,0,-147,84,-147,191","w":765},"\u044f":{"d":"46,-351v0,-169,259,-143,413,-128r0,479r-91,0r0,-202r-79,0v-126,-1,-129,128,-179,202r-98,0v55,-73,60,-202,169,-228r0,-2v-65,-6,-135,-46,-135,-121xm368,-264r0,-160v-84,-10,-227,-19,-227,78v0,92,142,85,227,82","w":535},"\u0451":{"d":"504,-223r-377,0v2,109,83,164,183,164v73,0,115,-12,152,-27r16,65v-32,13,-90,33,-180,33v-160,0,-259,-100,-259,-245v0,-143,93,-263,250,-263v177,0,219,150,219,233v0,18,-1,31,-4,40xm128,-288r292,0v1,-42,-18,-144,-138,-144v-103,0,-146,84,-154,144xm246,-624v0,28,-20,53,-52,53v-30,0,-51,-25,-51,-53v0,-29,23,-53,53,-53v28,0,50,24,50,53xm441,-624v0,29,-20,54,-53,53v-30,0,-50,-25,-50,-53v0,-29,22,-53,52,-53v29,0,51,24,51,53","w":547}}});
